#############################################################################
## Copyright (c) 1996, Carnegie Mellon University, Cambridge University,
## Ronald Rosenfeld and Philip Clarkson
#############################################################################
=============================================================================
===============  This file was produced by the CMU-Cambridge  ===============
===============     Statistical Language Modeling Toolkit     ===============
=============================================================================
This is a 3-gram language model, based on a vocabulary of 4797 words,
  which begins "(et)", "-ce", "-elle"...
This is an OPEN-vocabulary model (type 1)
  (OOVs were mapped to UNK, which is treated as any other vocabulary word)
Good-Turing discounting was applied.
1-gram frequency of frequency : 2787 
2-gram frequency of frequency : 13291 1732 542 268 143 92 51 
3-gram frequency of frequency : 20247 1265 296 123 61 35 17 
1-gram discounting ratios : 1.00 
2-gram discounting ratios : 0.24 0.45 0.65 0.66 0.77 0.64 
3-gram discounting ratios : 0.12 0.35 0.55 0.62 0.69 0.56 0.87 
This file is in the ARPA-standard format introduced by Doug Paul.

p(wd3|wd1,wd2)= if(trigram exists)           p_3(wd1,wd2,wd3)
                else if(bigram w1,w2 exists) bo_wt_2(w1,w2)*p(wd3|wd2)
                else                         p(wd3|w2)

p(wd2|wd1)= if(bigram exists) p_2(wd1,wd2)
            else              bo_wt_1(wd1)*p_1(wd2)

All probs and back-off weights (bo_wt) are given in log10 form.

Data formats:

Beginning of data mark: \data\
ngram 1=nr            # number of 1-grams
ngram 2=nr            # number of 2-grams
ngram 3=nr            # number of 3-grams

\1-grams:
p_1     wd_1 bo_wt_1
\2-grams:
p_2     wd_1 wd_2 bo_wt_2
\3-grams:
p_3     wd_1 wd_2 wd_3 

end of data mark: \end\

\data\
ngram 1=4798
ngram 2=16340
ngram 3=22119

\1-grams:
-4.4159 <UNK>	0.0000
-4.4159 (et)	-0.1191
-3.6376 -ce	-0.3125
-3.8137 -elle	-0.0959
-4.1147 -elles	-0.1184
-3.5127 -il	-0.1020
-4.1147 -ils	-0.1117
-4.1147 -le	-0.1137
-3.3744 -là	-0.0966
-4.1147 -moi	-0.1173
-4.1147 -nous	-0.1187
-3.9387 -on	-0.1060
-4.4159 -t-elle	-0.1010
-3.5707 -t-il	-0.1314
-3.6376 -t-on	-0.1742
-3.4158 -vous	-0.1196
-4.4159 -y	-0.1193
-1.3099 </S>	-3.0844
-1.3096 <S>	-0.4407
-4.4159 A	-0.1166
-4.1147 A1	-0.2559
-4.4159 A11	-0.1191
-4.4159 A13	-0.1189
-4.1147 A16	-0.0969
-4.4159 A4	-0.1191
-4.4159 A86	-0.1188
-4.4159 ADN	-0.0975
-3.7168 AFS	-0.1634
-4.4159 ATP	-0.1118
-4.4159 Abbas	-0.1164
-4.1147 Abbeville	-0.2416
-4.1147 Abiteboul	-0.1185
-4.4159 Abraham	-0.1193
-4.1147 Affaires	-0.2633
-4.4159 Afghan	-0.1193
-4.4159 Afghane	-0.0975
-4.4159 Afghanistan	-0.1164
-4.4159 Afghans	-0.1193
-4.4159 Africains	-0.0975
-4.4159 Afrique	-0.1186
-4.4159 Agassi	-0.1193
-4.4159 Agnès	-0.1193
-3.9387 Aharanoth	-0.1962
-4.4159 Air	-0.1193
-4.4159 Aixois	-0.1167
-4.4159 Al-Akhras	-0.0975
-3.5707 Al-Assad	-0.1243
-4.4159 Al-Chawqat	-0.1090
-4.4159 Al-Saadoun	-0.1153
-4.4159 Al-Zohbi	-0.1109
-4.4159 Alagna	-0.1166
-3.8137 Alain	-0.2633
-4.4159 Alboréo	-0.1192
-3.6376 Ali	-0.1156
-3.9387 Allemagne	-0.0992
-4.1147 Allinant	-0.2634
-4.4159 Allègre	-0.1192
-4.1147 Amiens	-0.2557
-4.1147 Américain	-0.1193
-3.1853 Américains	-0.0962
-3.7168 Amérique	-0.1560
-4.4159 Andes	-0.1116
-4.4159 Andress	-0.1193
-4.4159 Anglais	-0.1158
-4.4159 Angleterre	-0.0975
-4.1147 Apache	-0.1170
-4.1147 Apathie	-0.2416
-4.1147 Aphatie	-0.1140
-4.4159 Aquitaine	-0.1166
-4.1147 Arabes	-0.0973
-3.5127 Arabie	-0.3886
-4.4159 Arcol	-0.1165
-3.9387 Ariane	-0.2098
-3.9387 Ariel	-0.4557
-4.1147 Arnaud	-0.2634
-4.4159 Asie	-0.1189
-4.4159 Asma	-0.1193
-4.4159 Assad	-0.1010
-4.4159 Assef	-0.1193
-3.9387 Assemblée	-0.0973
-4.4159 Athènes	-0.1166
-4.1147 Atlantique	-0.1151
-3.8137 Augusta	-0.0946
-3.9387 Australie	-0.1688
-4.4159 Auteuil	-0.0975
-4.4159 Aveyron	-0.0975
-4.4159 Avignon	-0.1153
-4.4159 Aznar	-0.1189
-4.1147 BNP	-0.2634
-3.4158 Baas	-0.3088
-3.3366 Bachar	-0.2747
-4.4159 Bachelot	-0.1193
-2.9106 Bagdad	-0.2199
-4.4159 Bagdadi	-0.1192
-4.4159 Bagdadis	-0.1193
-4.4159 Balkans	-0.0975
-4.4159 Bassel	-0.1192
-4.4159 Bassin	-0.1193
-3.7168 Bassora	-0.1698
-4.4159 Beaumale	-0.1192
-4.4159 Belges	-0.1192
-4.4159 Belgique	-0.1189
-3.7168 Benoît	-0.6302
-3.8137 Berga	-0.1597
-4.4159 Berlin	-0.0975
-4.4159 Bern	-0.1116
-3.5127 Bernadette	-0.9999
-3.6376 Bernard	-0.3654
-4.4159 Besançon	-0.0975
-4.4159 Bidermann	-0.1109
-4.4159 Bindner	-0.0975
-4.4159 Bitterlin	-0.1193
-4.4159 Bizet	-0.1193
-3.7168 Blair	-0.1288
-3.6376 Blanche	-0.0750
-4.4159 Blankass	-0.1166
-4.4159 Bleu	-0.0975
-4.4159 Bleus	-0.1173
-4.4159 Blond	-0.1193
-4.4159 Bob	-0.1192
-4.4159 Bobby	-0.1186
-4.4159 Bon	-0.1193
-4.4159 Bonfillon	-0.1193
-3.9387 Bordeaux	-0.0849
-4.4159 Borgo	-0.1193
-4.1147 Bouches-du-Rhône	-0.2416
-4.4159 Bouchra	-0.1167
-4.4159 Bourg-Saint-Maurice	-0.1162
-4.1147 Bourgogne	-0.0895
-4.4159 Bourse	-0.1010
-4.4159 Boutter	-0.0975
-4.4159 Boy's	-0.1118
-4.4159 Bozon	-0.0975
-4.4159 Brasilia	-0.1164
-4.4159 Bretagne	-0.0975
-4.4159 Bromberger	-0.1116
-4.4159 Brooks	-0.1109
-4.4159 Brunet	-0.1090
-4.4159 Bruni-Tedeschi	-0.1166
-4.4159 Bruxelles	-0.1192
-3.5127 Brésil	-0.1715
-4.4159 Brésiliens	-0.1184
-4.4159 Buffalo	-0.1193
-3.0734 Bush	-0.1477
-4.1147 Bédouet	-0.0956
-4.1147 Bérénice	-0.2416
-4.1147 CIA	-0.2557
-3.8137 Caen	-0.1545
-4.4159 Camp	-0.1193
-4.4159 Canadien	-0.1193
-3.9387 Canton	-0.0875
-4.4159 Caraïbes	-0.1137
-3.7168 Cardin	-0.2657
-4.4159 Carmen	-0.1010
-4.4159 Casablanca	-0.1191
-4.4159 Cassavetes	-0.1192
-3.8137 Catherine	-0.3400
-4.4159 Cathy	-0.1193
-4.4159 Central	-0.0975
-3.5127 Chamonaz	-0.9782
-4.4159 Champollion	-0.1191
-4.4159 Chapelle	-0.1116
-4.4159 Chehabi	-0.1090
-4.1147 Cheney	-0.0938
-4.4159 Chicago	-0.1193
-4.1147 Chilien	-0.1193
-3.8137 Chine	-0.1747
-4.4159 Chinois	-0.1193
-3.4158 Chirac	-0.1891
-4.4159 Chisato	-0.1187
-4.4159 Christ	-0.0975
-4.4159 Christian	-0.1193
-4.4159 Christine	-0.1193
-4.4159 Christrian	-0.1193
-4.4159 Cie	-0.0975
-4.1147 Cintegabelle	-0.0940
-4.1147 Clark	-0.0942
-4.4159 Classique	-0.1010
-4.4159 Claude	-0.1193
-4.4159 Clermont-Ferrand	-0.1192
-4.4159 Clinton	-0.1116
-4.1147 Clément	-0.1192
-4.4159 Cohn-Bendit	-0.1191
-4.1147 Coignières	-0.1158
-3.5707 Colin	-0.3770
-3.5707 Collado	-0.2556
-3.7168 Collombat	-0.3448
-4.4159 Colomiers	-0.1191
-4.4159 Communauté	-0.1192
-4.4159 Congrès	-0.1116
-4.1147 Corinne	-0.2634
-4.4159 Cornouailles	-0.1116
-4.4159 Corse	-0.1191
-4.4159 Corée	-0.1153
-4.4159 Costa	-0.0975
-4.4159 Courrier	-0.1193
-4.4159 Crick	-0.1193
-4.4159 Cruzet	-0.0975
-4.1147 Cutilla	-0.2416
-4.4159 Côte	-0.1162
-4.4159 Dallas	-0.1116
-4.4159 Damaggio	-0.1192
-3.2397 Damas	-0.1205
-4.4159 Daniel	-0.1193
-4.4159 David	-0.0975
-4.1147 De	-0.2634
-4.4159 Degois	-0.0975
-4.4159 Derangère	-0.1166
-4.4159 Deutsch	-0.1116
-4.1147 Dick	-0.2634
-4.4159 Dieu	-0.1166
-4.4159 Dijon	-0.1164
-4.4159 Dj	-0.1192
-4.4159 Djihad	-0.1193
-3.8137 Dole	-0.0831
-3.5707 Dominique	-0.3190
-3.5707 Donald	-0.3769
-3.6376 Drouelle	-0.4625
-4.4159 Durand	-0.1193
-4.4159 Défense	-0.1176
-4.4159 E	-0.1109
-4.4159 EDF	-0.1075
-4.4159 EMI	-0.1193
-4.1147 Ekaterinbourg	-0.2416
-4.4159 El-Aynaoui	-0.0975
-3.8137 Elf	-0.1592
-4.1147 Epervier	-0.1105
-4.4159 Escudé	-0.0975
-3.8137 Espagne	-0.1552
-4.1147 Espagnol	-0.1192
-4.4159 Espagnols	-0.1189
-4.1147 Essonne	-0.1166
-4.1147 Euroligue	-0.1010
-3.5707 Europe	-0.2449
-4.1147 Européens	-0.1167
-3.2696 Fabrice	-0.3148
-4.4159 Fauvel	-0.1192
-4.4159 Federer	-0.1193
-4.4159 Fernando	-0.1193
-3.9387 Ferrero	-0.0974
-3.6376 Ferry	-0.1160
-4.4159 Ferté-Bernard	-0.0975
-4.4159 Finlande	-0.1185
-4.1147 Flandres	-0.0894
-4.1147 Flixecourt	-0.1085
-3.9387 Floch	-0.1161
-3.9387 Floch-Prigent	-0.1189
-4.4159 Florence	-0.1193
-4.4159 Force	-0.1175
-3.8137 Ford	-0.1083
-4.4159 Fort-de-France	-0.1166
-2.4072 France	-0.4859
-3.4615 Franck	-1.1192
-4.1147 Franks	-0.0942
-3.4158 Français	-0.1205
-4.4159 Françaises	-0.1184
-3.7168 François	-0.3683
-4.1147 Françoise	-0.1193
-4.4159 Fresnes	-0.1116
-4.4159 Front	-0.1193
-4.4159 Frédéric	-0.1193
-4.4159 Gambie	-0.1193
-4.4159 Gard	-0.1090
-4.4159 Garnier	-0.1185
-4.1147 Garonor	-0.2578
-4.4159 Gasquet	-0.1193
-4.4159 Gaulle	-0.1090
-4.4159 Gayet	-0.1176
-3.1853 George	-1.2549
-4.4159 Georges	-0.1174
-4.4159 Gerald	-0.1192
-3.7168 Gerhard	-0.6302
-4.4159 Golfe	-0.1116
-4.1147 Gonzalez	-0.1159
-4.4159 Grande-Bretagne	-0.1167
-4.4159 Grands	-0.1193
-4.4159 Grill	-0.1174
-4.4159 Grosjean	-0.1175
-4.4159 Grèce	-0.1165
-4.4159 Grégori	-0.1193
-4.4159 Guadeloupe	-0.1185
-4.4159 Guerre	-0.0975
-3.8137 Guetta	-0.3205
-4.4159 Guéra	-0.1193
-4.4159 Hamas	-0.1116
-3.9387 Hanovre	-0.0915
-4.1147 Hanoï	-0.1092
-3.5707 Haute-Garonne	-0.2407
-3.9387 Haïda	-0.4557
-4.4159 Hewitt	-0.1193
-3.9387 Hollande	-0.1166
-3.4615 Hongkong	-0.2151
-4.1147 Hongrie	-0.1176
-4.4159 Hootie	-0.1193
-4.4159 Hudson	-0.1118
-3.0734 Hussein	-0.3257
-3.5127 Hélène	-0.4143
-4.4159 II	-0.1185
-4.4159 Impressionistes	-0.0975
-2.6915 Inter	-0.4027
-4.4159 International	-0.1158
-2.7925 Irak	-0.3000
-4.4159 Irakien	-0.1116
-3.5127 Irakiens	-0.1517
-4.4159 Iraniens	-0.1193
-4.1147 Israël	-0.1114
-4.4159 Isère	-0.1075
-4.1147 Italie	-0.2416
-4.4159 Ivoire	-0.1186
-4.1147 Izard	-0.0957
-4.1147 J	-0.1178
-4.4159 Jack	-0.1193
-4.4159 Jacob	-0.1075
-4.4159 Jacqueline	-0.1193
-3.5127 Jacques	-0.9541
-4.4159 Jane	-0.1193
-4.1147 Japon	-0.0924
-4.1147 Jean-Charles	-0.2634
-4.4159 Jean-François	-0.1193
-4.4159 Jean-Jacques	-0.1193
-3.9387 Jean-Marc	-0.4557
-4.1147 Jean-Marie	-0.2632
-3.8137 Jean-Michel	-0.1834
-4.1147 Jean-Paul	-0.1193
-3.8137 Jean-Pierre	-0.4656
-4.4159 Jenifer	-0.1183
-4.4159 Johan	-0.1193
-4.1147 Johnny	-0.1182
-4.4159 Johnson	-0.1158
-4.1147 Jong	-0.1190
-4.1147 Joola	-0.1158
-4.1147 Jordan	-0.1192
-3.1853 Jospin	-0.0918
-3.9387 Josse	-0.4340
-4.1147 Jouan	-0.0947
-3.5707 Joël	-0.9030
-4.1147 Julien	-0.1193
-4.4159 Kazakhs	-0.1193
-4.4159 Kennedy	-0.1153
-4.4159 King	-0.1188
-4.4159 Kirkouk	-0.1168
-4.4159 Kosiref	-0.1187
-4.4159 Koweit	-0.1193
-4.4159 Kuerten	-0.1116
-4.4159 Kurde	-0.1193
-3.8137 Kurdes	-0.0894
-4.4159 Kurdistan	-0.1191
-4.4159 La	-0.1193
-4.4159 Label	-0.1193
-4.4159 Lacs	-0.1193
-4.1147 Laden	-0.1180
-4.4159 Laetitia	-0.1193
-4.4159 Lang	-0.1193
-4.4159 Larry	-0.1193
-4.4159 Lattaquié	-0.0975
-3.5127 Laurence	-0.9541
-3.8137 Laurent	-0.1192
-3.3366 Le	-0.3799
-4.4159 Lemêtre	-0.1193
-4.4159 Len	-0.1193
-4.4159 Li	-0.1193
-3.9387 Liban	-0.0784
-4.1147 Ligue	-0.1192
-3.9387 Lille	-0.1106
-4.1147 Limousin	-0.2416
-4.4159 Lincoln	-0.1116
-3.2397 Lionel	-1.2949
-4.1147 Loncle	-0.1192
-3.6376 Londres	-0.1347
-4.4159 Louis	-0.1193
-4.4159 Lourau	-0.1090
-3.6376 Loué	-0.2383
-4.1147 Loïk	-0.2632
-3.6376 Luc	-0.4400
-4.4159 Lucas	-0.1193
-4.4159 Lucien	-0.1193
-3.5707 Lula	-0.3340
-4.4159 Luxembourg	-0.1166
-3.5707 Luynes	-0.2046
-3.9387 Lyon	-0.1880
-4.1147 Madame	-0.1073
-3.6376 Magic	-0.4399
-4.4159 Maher	-0.1162
-4.4159 Mahmoud	-0.1193
-3.5707 Maison	-0.3587
-4.4159 Makhlouf	-0.1158
-3.5127 Malik	-0.2325
-4.1147 Malte	-0.2558
-4.4159 Mans	-0.0975
-4.4159 Manu	-0.1193
-3.8137 Marc	-0.1629
-3.5707 Marines	-0.1831
-4.1147 Marion	-0.2633
-4.4159 Maroc	-0.1153
-4.4159 Marocain	-0.1193
-4.1147 Marseille	-0.1125
-3.7168 Martin	-0.3707
-4.4159 Martinique	-0.1174
-4.4159 Massieu	-0.1193
-4.4159 Massif	-0.1193
-3.9387 Masters	-0.0941
-3.5127 Mathevon	-0.9782
-4.4159 Mathieu	-0.1193
-4.4159 Mattei	-0.1189
-4.4159 Mattiace	-0.0975
-3.9387 Maurice	-0.4557
-4.4159 Metz	-0.1180
-4.1147 Mexique	-0.0894
-4.4159 Mezzadri	-0.0975
-4.1147 Michael	-0.2634
-3.5707 Michel	-0.2829
-3.8137 Midi-Pyrénées	-0.1007
-4.4159 Mig	-0.1189
-4.1147 Mike	-0.2634
-4.4159 Millevaches	-0.1186
-4.4159 Minutes	-0.1165
-4.4159 Mir	-0.1193
-4.1147 Mitterrand	-0.2416
-3.5707 Mnouchkine	-0.1221
-4.4159 Monde	-0.1137
-3.9387 Monet	-0.1104
-4.4159 Mongolie	-0.1193
-4.1147 Monin	-0.2416
-3.8137 Monsieur	-0.1527
-4.4159 Monsols	-0.1090
-3.8137 Monte-Carlo	-0.1553
-4.4159 Moselle	-0.1168
-4.4159 Mossoul	-0.1193
-4.4159 Mots	-0.1116
-4.4159 Murawiec	-0.1193
-4.4159 Museeuw	-0.1192
-4.4159 Mylène	-0.0975
-3.8137 Méditerranée	-0.2335
-4.4159 Mémorial	-0.1010
-4.4159 Métésot	-0.1193
-4.4159 NBA	-0.1189
-3.9387 NRJ	-0.1800
-3.9387 Nancy	-0.0930
-4.4159 Nasiriyya	-0.1090
-4.4159 Nassiriya	-0.1153
-4.4159 National	-0.1176
-4.4159 Nations	-0.1193
-4.1147 New	-0.2634
-4.4159 Nicholas	-0.1192
-3.6376 Nicolas	-0.4903
-4.4159 Nixon	-0.1137
-4.4159 Nogent	-0.1191
-4.4159 Nogent-sur-Marne	-0.1153
-4.4159 Noirs	-0.1191
-3.9387 Nord	-0.1109
-3.8137 Normandie	-0.0871
-4.4159 Nouveau-Mexique	-0.0975
-4.1147 Nouvelle-Zélande	-0.0974
-4.1147 OMS	-0.1108
-3.5707 ONU	-0.1043
-4.4159 OTAN	-0.1189
-3.9387 Occidentaux	-0.1190
-4.4159 Odile	-0.1193
-4.4159 Ohio	-0.0975
-3.7168 Olivier	-0.6120
-3.9387 Orchestra	-0.0974
-4.4159 Oregon	-0.1090
-4.4159 Orléans	-0.0975
-4.4159 Orne	-0.1187
-4.4159 PLUS	-0.1181
-3.3744 PS	-0.1525
-4.4159 Pakistan	-0.1090
-4.4159 Palestine	-0.1189
-4.1147 Palestiniens	-0.1108
-4.4159 Papa	-0.1191
-3.5707 Papon	-0.0954
-4.4159 Paracuellos	-0.0975
-4.4159 Paraguay	-0.1185
-4.1147 Paribas	-0.2416
-3.1147 Paris	-0.1876
-4.4159 Paris-Roubais	-0.1182
-4.4159 Parisien	-0.1116
-4.1147 Parvest	-0.2634
-4.4159 Pascale	-0.1193
-4.4159 Passera	-0.1193
-4.4159 Pasteur	-0.1116
-4.1147 Patrick	-0.1191
-4.1147 Paul	-0.2634
-4.1147 Paula	-0.2634
-4.4159 Paulo	-0.1185
-4.4159 Pays	-0.1193
-4.1147 Peer	-0.2634
-4.1147 Pen	-0.0942
-3.6376 Pentagone	-0.1142
-4.1147 Perben	-0.1190
-4.1147 Perdrix	-0.1099
-4.4159 Perletto	-0.1193
-4.1147 Petegem	-0.1063
-4.1147 Peter	-0.2634
-4.4159 Petula	-0.1193
-4.1147 Pfizer	-0.1179
-4.4159 Philadelphie	-0.1166
-3.6376 Philippe	-0.2633
-3.8137 Pierre	-0.3441
-4.4159 Po(well)	-0.1174
-4.4159 Pologne	-0.0975
-4.4159 Porsche	-0.1137
-4.4159 Post	-0.1167
-4.1147 Poutine	-0.1192
-3.6376 Powell	-0.1094
-3.1853 Premier	-1.2546
-4.4159 Princeton	-0.1164
-3.9387 Proche-Orient	-0.1861
-4.4159 Propre	-0.1010
-4.4159 Pyongyang	-0.1167
-4.4159 Pyrénées	-0.0975
-3.8137 Pékin	-0.0888
-4.4159 Péruvien	-0.1166
-4.1147 Québec	-0.1116
-4.1147 RFI	-0.1152
-3.9387 RTL	-0.2014
-4.1147 Radcliffe	-0.1074
-3.8137 Raffarin	-0.1165
-4.4159 Rafsandjani	-0.1193
-4.4159 Rami	-0.1193
-4.4159 Rappeneau	-0.1193
-4.1147 Reagan	-0.1104
-4.1147 Reims	-0.0999
-4.1147 Reltien	-0.0957
-3.9387 Rennes	-0.1152
-4.4159 Rhône	-0.1193
-4.4159 Rifaat	-0.1158
-3.7168 Rincquesen	-0.3478
-4.4159 Rio	-0.1118
-4.4159 Riyad	-0.1193
-4.4159 Roberto	-0.1193
-3.9387 Rocher	-0.1161
-4.4159 Roddick	-0.1162
-4.4159 Roger	-0.1193
-4.4159 Roselyne	-0.1193
-4.4159 Rosny	-0.1116
-4.1147 Rosny-sous-Bois	-0.2616
-4.4159 Roubaix	-0.0975
-3.3744 Rumsfeld	-0.0978
-4.1147 Russes	-0.2603
-4.4159 Russie	-0.1010
-4.4159 République	-0.1137
-2.9387 Saddam	-0.7990
-4.4159 Safine	-0.1193
-4.4159 Saint-Germain	-0.0975
-4.4159 Saint-Petersbourg	-0.1193
-4.1147 Sangatte	-0.1067
-4.4159 Santoro	-0.1116
-4.4159 Santé	-0.1193
-4.1147 Saoudite	-0.1178
-3.5707 Sarkozy	-0.1014
-4.4159 Saïf	-0.1181
-4.4159 Sceaux	-0.1166
-3.6376 Schröder	-0.1603
-4.4159 Seine-Saint-Denis	-0.1193
-4.1147 Shanxi	-0.1040
-3.9387 Sharon	-0.1880
-4.4159 Shoshanna	-0.1193
-3.8137 Silva	-0.1024
-3.5127 Simon	-0.3683
-4.4159 Siméone	-0.0975
-4.1147 Singapour	-0.0896
-3.9387 Sirven	-0.1074
-4.4159 Slitinsky	-0.1090
-4.4159 Sochaux	-0.0975
-4.1147 Somme	-0.1109
-4.4159 Sophie	-0.1193
-4.4159 Sorgeat	-0.1175
-4.1147 Stains	-0.1191
-3.9387 Strasbourg	-0.0974
-4.4159 Stéphane	-0.1193
-4.1147 Sud	-0.1149
-3.8137 Super	-0.4656
-3.9387 Sylvestre	-0.4340
-2.9387 Syrie	-0.1813
-4.4159 Syriens	-0.1174
-4.4159 Sâo	-0.1193
-4.1147 Sébastien	-0.2634
-4.4159 Tambourin	-0.1189
-4.4159 Taos	-0.1173
-4.4159 Tarallo	-0.0975
-3.5127 Tarn	-0.2652
-4.4159 Taïwan	-0.1118
-4.4159 Texas	-0.0975
-4.4159 Thaïlande	-0.1185
-3.9387 Thouiri	-0.1850
-3.9387 Tiger	-0.4557
-4.4159 Tignes	-0.1116
-3.0540 Tikrit	-0.2278
-3.9387 Time	-0.1178
-4.4159 Tokyo	-0.1162
-4.4159 Tomlinson	-0.1187
-4.1147 Tommy	-0.2634
-3.7168 Tony	-0.6302
-4.4159 Toronto	-0.1116
-3.7168 Toulouse	-0.1053
-4.1147 Tour	-0.2591
-4.4159 Tournoi	-0.1010
-4.1147 Trouabal	-0.1189
-4.4159 Turk	-0.1185
-4.1147 Turquie	-0.0938
-3.8137 U	-0.4656
-4.4159 UE	-0.1190
-4.4159 US	-0.1193
-3.6376 Union	-0.4399
-4.4159 V	-0.1193
-4.4159 Val	-0.1162
-4.4159 Valencienne	-0.1184
-4.4159 Valenciennes	-0.1137
-4.4159 Valérie	-0.1193
-4.4159 Valéro	-0.1186
-4.1147 Van	-0.2634
-4.4159 Vaucresson	-0.1116
-4.1147 Venezuela	-0.1087
-3.7168 Villepin	-0.0896
-3.9387 Vincennes	-0.1040
-3.6376 Vincent	-0.2336
-4.4159 Vingt	-0.1193
-4.4159 Viêtnam	-0.0975
-4.1147 Vladimir	-0.2634
-4.4159 Voyage	-0.1158
-4.1147 Wanadoo	-0.2416
-3.0178 Washington	-0.1878
-4.4159 Watson	-0.1116
-4.1147 Weir	-0.2599
-4.4159 William	-0.1193
-3.8137 Winckler	-0.2409
-4.1147 Wizards	-0.0960
-4.1147 Wolfowitz	-0.1071
-3.9387 Woods	-0.1105
-4.4159 X	-0.1185
-3.9387 Yedioth	-0.4557
-4.1147 York	-0.1062
-4.4159 Youri	-0.1193
-3.9387 Yves	-0.2098
-2.2171 a	-0.1818
-4.4159 ab	-0.1193
-4.4159 abandonner	-0.1109
-4.4159 abasourdie	-0.1175
-4.4159 abattre	-0.1090
-4.4159 abonnés	-0.1193
-4.4159 abordent	-0.1090
-4.4159 aborigènes	-0.1137
-4.4159 aboutit	-0.1118
-4.4159 abris	-0.0975
-4.4159 abrite	-0.1150
-3.9387 abriter	-0.4514
-3.9387 absence	-0.1884
-4.4159 absente	-0.1153
-4.4159 absents	-0.1193
-4.4159 absolue	-0.1193
-3.8137 absolument	-0.1089
-4.4159 abstentions	-0.1185
-4.4159 académie	-0.1010
-4.1147 accepte	-0.0976
-4.1147 acceptent	-0.1149
-4.1147 accepter	-0.1085
-4.4159 acceptera	-0.1166
-4.4159 accepterait	-0.1150
-3.5707 accident	-0.1917
-4.4159 accidentelle	-0.1189
-4.4159 accompagnent	-0.0975
-4.4159 accompagneront	-0.1162
-4.4159 accompagnés	-0.1153
-4.4159 accomplir	-0.1188
-4.1147 accordé	-0.1175
-4.4159 accrochage	-0.1188
-4.1147 accrochent	-0.2559
-4.4159 accroître	-0.1187
-4.1147 accueil	-0.1184
-3.9387 accueille	-0.0955
-4.4159 accueillent	-0.0975
-4.4159 accueillir	-0.1165
-4.4159 accueillis	-0.1175
-4.4159 accumulation	-0.1010
-4.1147 accusant	-0.1074
-4.4159 accusation	-0.1193
-4.1147 accusations	-0.1075
-4.1147 accuse	-0.0887
-3.7168 accusée	-0.2656
-4.1147 accéder	-0.1126
-4.4159 achat	-0.1010
-4.4159 acheminés	-0.1166
-4.4159 acheté	-0.1145
-4.4159 achevé	-0.1118
-4.4159 achevée	-0.0975
-4.4159 achève	-0.1186
-4.4159 achèvent	-0.1192
-4.1147 acquisition	-0.1192
-3.8137 acteurs	-0.1104
-3.9387 action	-0.1151
-3.8137 activité	-0.1851
-4.4159 activités	-0.1181
-3.7168 actualité	-0.3617
-4.1147 actuel	-0.1155
-3.8137 actuellement	-0.1021
-4.4159 adapter	-0.1182
-4.4159 adhérer	-0.1173
-4.4159 adhéré	-0.1173
-4.1147 adhésion	-0.0896
-4.4159 admettrait	-0.1010
-4.4159 admettre	-0.1191
-3.6376 administration	-0.1385
-4.4159 adolescence	-0.1185
-4.4159 adolescente	-0.1193
-3.9387 adolescents	-0.0968
-4.4159 adoptent	-0.1090
-4.1147 adopter	-0.1073
-3.9387 adresse	-0.1008
-4.4159 adversaire	-0.1191
-4.4159 affaibli	-0.1166
-4.1147 affaire	-0.1117
-3.5707 affaires	-0.1692
-4.4159 affecter	-0.1118
-3.7168 affiche	-0.1050
-4.4159 afficheront	-0.1190
-4.4159 affilé	-0.1173
-3.7168 affirme	-0.1118
-4.1147 affirment	-0.1117
-4.1147 affirmer	-0.2531
-4.4159 affirmé	-0.1185
-4.4159 affrontements	-0.1118
-4.4159 africaines	-0.1118
-4.4159 agacer	-0.1145
-4.4159 agence	-0.1010
-3.8137 agit	-0.1632
-4.4159 agitent	-0.1192
-4.4159 agitée	-0.1153
-4.4159 agora	-0.1193
-4.4159 agrandi	-0.0975
-4.4159 agresseurs	-0.1193
-4.4159 agressivité	-0.1175
-4.4159 agressées	-0.1192
-4.4159 agricoles	-0.1175
-4.4159 agriculture	-0.1191
-4.4159 agréable	-0.0975
-4.4159 agréables	-0.0975
-3.3744 ah	-0.1982
-3.3018 ai	-0.1953
-3.9387 aide	-0.1838
-4.4159 aider	-0.1090
-4.4159 aidée	-0.1118
-4.4159 aigle	-0.1176
-4.4159 aigreur	-0.1193
-4.4159 aigu	-0.1010
-4.4159 aiguille	-0.1116
-4.4159 aile	-0.0975
-4.4159 ailes	-0.1173
-4.4159 aille	-0.1193
-3.6376 ailleurs	-0.0801
-4.4159 aime	-0.1165
-3.7168 aiment	-0.3607
-4.4159 aimé	-0.1137
-3.4615 ainsi	-0.1321
-4.4159 aisément	-0.0975
-4.4159 ait	-0.1185
-4.4159 aixoise	-0.1175
-4.4159 ajoutez	-0.1118
-4.4159 ajoutons	-0.1173
-4.1147 ajouté	-0.2601
-4.1147 al-Kindi	-0.0992
-4.4159 alaouite	-0.1193
-4.4159 alaouites	-0.1137
-4.4159 alarme	-0.1117
-4.4159 alarment	-0.1010
-3.7168 album	-0.1089
-4.4159 alentour	-0.0975
-4.4159 alentours	-0.1010
-4.4159 alerte	-0.1118
-4.4159 allait	-0.1173
-4.1147 allant	-0.2632
-3.8137 allemand	-0.1554
-3.7168 aller	-0.1178
-3.7168 allez	-0.1473
-4.4159 allié	-0.0975
-4.4159 alliés	-0.1192
-4.1147 allons	-0.1182
-4.1147 allé	-0.1032
-4.4159 allés	-0.1153
-2.8030 alors	-0.1941
-4.4159 altitude	-0.1158
-4.4159 altéré	-0.1175
-4.4159 amateurs	-0.1010
-4.4159 ambassadeur	-0.1182
-4.4159 ambition	-0.1116
-4.4159 ambitions	-0.1185
-4.4159 american	-0.1193
-3.9387 ami	-0.1192
-4.1147 amis	-0.1173
-4.4159 ampleur	-0.1010
-4.4159 améliore	-0.1116
-4.4159 améliorer	-0.1187
-4.4159 amélioré	-0.1180
-4.4159 améliorées	-0.0975
-3.3018 américain	-0.0682
-3.2397 américaine	-0.2505
-3.7168 américaines	-0.2035
-3.3366 américains	-0.2817
-3.7168 américano-	-0.2886
-3.0936 an	-0.5242
-4.1147 analyse	-0.0933
-4.4159 anarchie	-0.1193
-3.0356 ancien	-0.2861
-3.9387 ancienne	-0.2096
-3.7168 anciens	-0.1670
-4.4159 anglais	-0.1158
-4.1147 anglo-	-0.1193
-4.4159 anglophone	-0.0975
-4.4159 anglophones	-0.1181
-4.4159 angoisse	-0.1150
-4.1147 angoissés	-0.1114
-4.1147 animal	-0.1087
-4.1147 animaux	-0.0886
-4.4159 anniversaire	-0.1193
-3.6376 annonce	-0.1279
-4.4159 annoncer	-0.1160
-4.4159 annoncions	-0.1185
-4.1147 annoncé	-0.1173
-4.1147 annoncée	-0.1096
-4.4159 annulés	-0.1191
-3.5707 année	-0.0949
-3.6376 années	-0.1128
-3.0178 ans	-0.1470
-4.1147 antenne	-0.0933
-4.4159 antiaméricain	-0.0975
-4.4159 antiaméricains	-0.1193
-4.4159 antisémitisme	-0.0975
-4.4159 antitabac	-0.1160
-4.4159 ap	-0.1193
-4.4159 aperçu	-0.1118
-4.4159 apeurés	-0.1193
-3.9387 appareil	-0.1179
-4.4159 appareils	-0.1153
-3.9387 apparemment	-0.1161
-4.4159 apparition	-0.1010
-4.4159 appartement	-0.1153
-3.4615 appel	-0.3447
-4.1147 appelant	-0.1114
-4.4159 appelez	-0.1090
-3.8137 appelle	-0.1116
-4.4159 appellent	-0.1118
-4.4159 appels	-0.1118
-4.4159 appelé	-0.1109
-4.4159 appelée	-0.1192
-4.4159 applaudissements	-0.1150
-4.4159 apport	-0.1160
-4.4159 apportant	-0.1075
-3.9387 apporter	-0.1023
-4.4159 apportée	-0.1137
-4.4159 apportées	-0.1192
-4.4159 apprenant	-0.1160
-3.8137 apprend	-0.1750
-3.8137 apprendre	-0.1571
-3.8137 appris	-0.1763
-4.4159 approche	-0.1010
-4.4159 approcher	-0.1190
-4.4159 approchera	-0.1193
-3.9387 approcheront	-0.1145
-4.1147 approuve	-0.0988
-4.4159 approvisionnement	-0.1192
-4.4159 appréciation	-0.0975
-4.4159 apprécie	-0.1193
-4.4159 apprêtent	-0.1193
-4.4159 appuie	-0.1166
-4.1147 appâts	-0.1190
-2.7345 après	-0.2570
-3.2696 après-	-1.0088
-3.8137 arabe	-0.0925
-3.9387 arabes	-0.1009
-4.4159 archéologie	-0.1193
-3.8137 argent	-0.1669
-3.2696 armes	-0.8620
-3.7168 armée	-0.2669
-4.4159 armées	-0.1191
-4.4159 arraché	-0.1193
-4.4159 arrachées	-0.1109
-3.8137 arrive	-0.1768
-4.4159 arrivent	-0.1116
-3.8137 arrivé	-0.1554
-3.6376 arrivée	-0.1001
-4.4159 arrivées	-0.1192
-4.4159 arrivés	-0.1153
-4.4159 arrières	-0.1193
-3.9387 arrogance	-0.4556
-4.4159 arrondissement	-0.1010
-3.6376 arrêt	-0.4698
-4.1147 arrête	-0.1161
-4.4159 arrêter	-0.0975
-4.4159 arrêterait	-0.1175
-4.1147 arrêté	-0.0896
-4.1147 art	-0.1085
-4.4159 articles	-0.1173
-4.4159 artistes	-0.1193
-4.4159 artère	-0.1193
-4.4159 artérielle	-0.1186
-4.4159 asile	-0.0975
-4.4159 aspartame	-0.1116
-4.4159 asphyxiant	-0.1192
-4.4159 assagir	-0.1191
-4.4159 assassin	-0.0975
-4.4159 assassiner	-0.1118
-3.8137 assez	-0.1192
-4.4159 assistants	-0.1162
-4.4159 assister	-0.1118
-4.4159 assiégé	-0.1153
-3.5127 association	-0.1364
-4.4159 assoit	-0.1192
-4.4159 assumer	-0.1117
-4.1147 assumé	-0.1077
-4.4159 assure	-0.1188
-4.4159 assurent	-0.1117
-4.4159 assurer	-0.1165
-4.1147 athlète	-0.1192
-4.4159 atlantique	-0.0975
-4.4159 atlantistes	-0.1010
-4.4159 atmosphère	-0.1010
-4.1147 atout	-0.1191
-3.9387 attaque	-0.0920
-4.1147 attaquer	-0.0896
-4.4159 attaques	-0.1192
-3.9387 atteindront	-0.2054
-4.4159 atteint	-0.1090
-4.1147 attend	-0.1165
-4.4159 attendait	-0.1193
-4.4159 attendant	-0.1193
-4.4159 attendent	-0.1162
-4.4159 attendons	-0.1165
-4.1147 attendre	-0.1155
-4.4159 attends	-0.1010
-4.4159 attendue	-0.1185
-4.4159 attente	-0.0975
-4.4159 attentes	-0.1153
-4.1147 attention	-0.1176
-4.4159 attentive	-0.1173
-4.4159 attirer	-0.1117
-4.4159 attitré	-0.1010
-4.1147 attitude	-0.1077
-4.4159 atténuera	-0.1184
-3.4158 atypique	-0.0746
-2.3366 au	-0.1723
-4.4159 au-delà	-0.1150
-4.4159 aube	-0.0975
-4.1147 aucun	-0.1161
-3.5707 aucune	-0.2329
-3.9387 audience	-0.1166
-4.4159 audio	-0.1116
-4.4159 audiovisuelle	-0.1137
-3.4615 auditeurs	-0.1861
-4.4159 augmenter	-0.1117
-2.7437 aujourd'hui	-0.2422
-4.4159 auparavant	-0.1187
-3.8137 auprès	-0.3216
-4.4159 auquel	-0.1188
-3.6376 aura	-0.1618
-4.4159 auraient	-0.1193
-3.5707 aurait	-0.1172
-2.8595 aussi	-0.0561
-4.4159 aussitôt	-0.1193
-4.1147 autan	-0.1192
-4.4159 autant	-0.1179
-4.4159 auteur	-0.1010
-4.4159 autocar	-0.1193
-4.4159 automne	-0.1090
-4.4159 autopsie	-0.1117
-4.4159 autorise	-0.1189
-3.7168 autorités	-0.1694
-3.9387 autoroute	-0.1884
-3.5707 autour	-0.3546
-3.1605 autre	-0.1075
-3.8137 autrement	-0.4653
-3.5707 autres	-0.1213
-2.5897 aux	-0.1856
-3.3366 avaient	-0.2639
-3.9387 avais	-0.2073
-3.0540 avait	-0.1471
-4.4159 avaler	-0.1145
-4.4159 avance	-0.0975
-4.1147 avancent	-0.0973
-4.4159 avancer	-0.1191
-3.5127 avant	-0.1202
-4.1147 avant-	-0.1184
-4.4159 avantage	-0.1175
-4.4159 avantageux	-0.1193
-2.3864 avec	-0.3520
-3.6376 avenir	-0.1060
-4.4159 aventure	-0.1192
-4.4159 aventurer	-0.1153
-4.4159 aventures	-0.1166
-4.4159 avenue	-0.1193
-3.5127 avez	-0.1452
-4.4159 avion	-0.0975
-4.1147 avions	-0.2451
-4.1147 avis	-0.1138
-4.1147 avocat	-0.0975
-3.2117 avoir	-0.0993
-3.9387 avons	-0.1191
-4.4159 avouent	-0.1117
-3.0008 avril	-0.4132
-4.4159 ayant	-0.1190
-4.4159 azur	-0.1192
-4.4159 aériens	-0.1169
-3.8137 aéroport	-0.3258
-4.4159 aéroports	-0.0975
-4.4159 aîné	-0.1193
-4.4159 bagarres	-0.1188
-4.4159 bagatelle	-0.1191
-4.4159 bague	-0.1118
-4.4159 bain	-0.1173
-4.4159 bains-douches	-0.1193
-3.9387 baisse	-0.0955
-4.4159 baissent	-0.1168
-4.1147 baisser	-0.1012
-4.4159 balancer	-0.1193
-4.4159 balancé	-0.1192
-4.4159 balle	-0.1175
-4.4159 bancaires	-0.1192
-4.1147 bande	-0.1103
-4.4159 bandes	-0.0975
-3.7168 banditisme	-0.2654
-4.4159 bandits	-0.0975
-4.1147 banlieue	-0.1007
-4.4159 bannière	-0.1193
-4.1147 banques	-0.1117
-3.9387 baril	-0.0881
-4.4159 barrage	-0.1137
-4.4159 barreaux	-0.0975
-4.4159 barrière	-0.1166
-4.4159 bars	-0.1116
-4.1147 bas	-0.0930
-4.4159 basculé	-0.0975
-4.4159 base	-0.1191
-3.9387 basket	-0.1853
-4.1147 bastion	-0.0968
-4.4159 bataille	-0.1010
-4.4159 battant	-0.1187
-4.4159 battre	-0.1090
-3.8137 battu	-0.1162
-4.4159 battues	-0.1193
-4.1147 battus	-0.0971
-4.4159 bazar	-0.1193
-4.4159 baïonnettes	-0.1191
-3.5127 beau	-0.2085
-3.0540 beaucoup	-0.6311
-4.4159 beauté	-0.1193
-3.9387 belge	-0.4523
-3.5707 belle	-0.1071
-3.2696 ben	-0.1725
-4.4159 berceau	-0.1010
-3.9387 besoin	-0.1888
-4.4159 biais	-0.1191
-2.6915 bien	-0.1392
-4.1147 biens	-0.1192
-3.9387 bientôt	-0.1980
-4.1147 bienvenu	-0.1152
-3.8137 bienvenue	-0.1514
-4.4159 bilan	-0.1189
-4.4159 biologie	-0.1137
-4.1147 blanc	-0.1117
-4.4159 blanche	-0.1118
-4.4159 blessure	-0.1116
-4.4159 blessé	-0.1175
-4.1147 blessés	-0.1135
-4.4159 blindés	-0.1191
-4.4159 bloc	-0.1175
-4.4159 blond	-0.1158
-4.4159 blonde	-0.1191
-4.4159 bloquer	-0.1118
-4.4159 boite	-0.1010
-4.1147 bolchevik	-0.1113
-4.4159 bolcheviks	-0.1164
-4.4159 bombardement	-0.0975
-4.1147 bombardements	-0.1185
-4.4159 bombardée	-0.1185
-4.4159 bombes	-0.1186
-3.5707 bon	-0.0900
-4.4159 bonheur	-0.0975
-2.7925 bonjour	-0.6937
-3.2696 bonne	-0.1704
-4.1147 bonnes	-0.1165
-4.4159 bons	-0.1193
-4.4159 bonsoir	-0.1118
-3.7168 bord	-0.2694
-4.1147 bords	-0.0783
-4.1147 bouchons	-0.2531
-4.4159 bouder	-0.1182
-4.4159 bouderie	-0.1192
-4.4159 bouffons	-0.1193
-4.4159 bouffées	-0.1010
-4.1147 bouge	-0.1147
-4.4159 bouleversements	-0.1117
-4.4159 bourse	-0.1193
-4.4159 boursier	-0.1118
-4.4159 bouscule	-0.1192
-4.4159 bout	-0.1010
-4.4159 boutiques	-0.1116
-4.4159 bouton	-0.1192
-3.9387 boycott	-0.2065
-4.1147 boycottés	-0.1106
-4.4159 boys	-0.1181
-4.4159 braille	-0.1158
-4.4159 brancardiers	-0.1193
-4.4159 branchés	-0.1166
-3.8137 bras	-0.0911
-3.7168 bref	-0.1166
-4.4159 brillant	-0.1116
-4.4159 briquets	-0.1117
-4.1147 brisé	-0.1040
-3.3744 britannique	-0.1076
-3.8137 britanniques	-0.0782
-4.4159 brochette	-0.1010
-3.9387 bruit	-0.2088
-4.4159 bruits	-0.1193
-4.4159 brusquement	-0.1109
-4.4159 brutes	-0.1188
-4.4159 brûlures	-0.0975
-4.1147 brûlé	-0.0954
-4.4159 budgétaire	-0.1166
-4.1147 bureau	-0.1125
-4.4159 bureaucratie	-0.1153
-4.4159 bureaux	-0.1010
-3.9387 but	-0.1008
-4.4159 buts	-0.1010
-3.7168 bâtiment	-0.1164
-4.1147 bâtiments	-0.1185
-4.4159 bâtisseur	-0.0975
-4.4159 bémols	-0.0975
-4.4159 bénévole	-0.1116
-3.9387 bénévoles	-0.0944
-4.4159 béret	-0.1193
-4.4159 c	-0.1190
-2.2339 c'est	-0.2392
-3.8137 c'est-à-dire	-0.0832
-3.2397 c'était	-0.2017
-4.4159 cabanes	-0.1010
-4.4159 cabine	-0.1145
-4.4159 cabinet	-0.1010
-4.4159 cache	-0.1167
-4.4159 cachent	-0.1164
-4.4159 caché	-0.1166
-4.4159 cachée	-0.1192
-4.4159 cadavres	-0.1150
-4.4159 cadence	-0.0975
-4.4159 cadre	-0.1153
-4.4159 cadres	-0.1153
-4.1147 caisse	-0.2634
-4.4159 calculs	-0.1192
-4.4159 cales	-0.1187
-3.9387 calme	-0.1002
-4.4159 calmer	-0.1090
-4.1147 camarades	-0.1193
-4.1147 camion	-0.1116
-3.8137 camp	-0.1810
-3.5127 campagne	-0.1628
-4.4159 campeurs	-0.1176
-4.4159 camping	-0.1165
-3.8137 camps	-0.3219
-4.4159 cancer	-0.1192
-4.1147 cancéreuse	-0.1129
-4.1147 candidat	-0.2451
-4.4159 candidats	-0.1118
-4.4159 cantonnés	-0.1182
-4.1147 capitaine	-0.1006
-3.4615 capitale	-0.1592
-4.1147 capitaux	-0.1110
-4.4159 capsules	-0.1010
-3.3744 car	-0.1661
-4.4159 caractérisent	-0.1109
-4.4159 caractéristiques	-0.1175
-4.4159 caravane	-0.1193
-3.9387 caravansérail	-0.0924
-4.4159 cardiaque	-0.1116
-4.4159 cardiologue	-0.1192
-4.4159 cardiovasculaire	-0.1193
-4.4159 carottes	-0.1150
-4.4159 carrière	-0.1188
-3.9387 carte	-0.1874
-4.1147 cartoucherie	-0.2451
-2.9686 cas	-0.1225
-4.4159 casemate	-0.1193
-4.4159 catégorique	-0.1185
-4.4159 causant	-0.1162
-3.5127 cause	-0.2211
-4.4159 causes	-0.1193
-2.2544 ce	-0.4744
-3.5707 ce_n'est_pas	-0.1289
-3.2397 cela	-0.1012
-3.8137 celle	-0.0961
-3.9387 celles	-0.1083
-4.4159 celte	-0.1010
-3.5127 celui	-0.2765
-2.7626 cent	-0.3941
-3.8137 centaines	-0.3228
-4.1147 central	-0.0968
-3.3018 centre	-0.5023
-3.7168 cents	-0.1184
-4.1147 cependant	-0.1189
-3.8137 certain	-0.1632
-3.8137 certaine	-0.1191
-3.9387 certainement	-0.1054
-4.1147 certaines	-0.1010
-3.6376 certains	-0.1009
-4.4159 certes	-0.1164
-4.4159 certificat	-0.1010
-4.4159 certitude	-0.1160
-2.8843 ces	-0.1291
-4.4159 cesse	-0.1010
-4.4159 cessent	-0.1010
-4.4159 cesser	-0.1117
-3.1370 cet	-0.4249
-2.5769 cette	-0.1958
-3.1605 ceux	-0.6421
-3.7168 chacun	-0.1485
-4.4159 chaleureux	-0.1193
-4.4159 chambre	-0.1193
-4.4159 chameau	-0.1179
-4.1147 champignon	-0.2451
-4.1147 champion	-0.1193
-4.4159 chance	-0.1010
-3.9387 chancelier	-0.2097
-4.4159 changements	-0.1153
-3.8137 changer	-0.0837
-4.4159 changera	-0.1167
-4.4159 changez	-0.1190
-3.9387 changé	-0.0967
-3.9387 chant	-0.2098
-4.4159 chante	-0.1192
-3.9387 chaos	-0.1065
-3.2397 chaque	-0.2530
-4.4159 chaques	-0.1193
-3.9387 charge	-0.1131
-4.4159 chargé	-0.1010
-4.4159 charmant	-0.1193
-3.5707 chars	-0.2591
-4.4159 charte	-0.1010
-4.4159 chasser	-0.1118
-4.4159 chassés	-0.1175
-4.4159 chats	-0.1185
-4.1147 chaud	-0.1115
-4.4159 chauve-souris	-0.0975
-4.4159 chauves-souris	-0.1153
-4.4159 chaviré	-0.1137
-4.1147 chaîne	-0.0929
-4.4159 chaînes	-0.1116
-3.3366 chef	-0.2408
-4.4159 chefs	-0.1010
-3.8137 cher	-0.1718
-4.4159 cherche	-0.1145
-3.8137 chercher	-0.1628
-4.4159 chercheur	-0.1118
-4.4159 cherchez	-0.1109
-3.3744 chez	-0.0977
-4.4159 chien	-0.1184
-3.9387 chienlit	-0.2015
-4.4159 chiens	-0.1190
-3.8137 chiite	-0.0882
-4.4159 chiites	-0.1175
-4.4159 chimiothérapie	-0.1116
-3.4158 chimiques	-0.3479
-4.4159 chinois	-0.1167
-4.4159 chinoise	-0.1175
-4.1147 chinoises	-0.1178
-4.1147 chiot	-0.1156
-4.4159 chiots	-0.1192
-3.9387 choc	-0.0972
-4.4159 choisi	-0.1162
-4.4159 choisir	-0.1190
-3.8137 choix	-0.0889
-3.5127 cholestérol	-0.1050
-4.1147 choquant	-0.2416
-3.4158 chose	-0.1070
-4.1147 choses	-0.1132
-4.4159 choux	-0.1193
-3.9387 chronique	-0.1111
-4.1147 chroniques	-0.1118
-3.5707 chute	-0.4389
-4.4159 châtier	-0.1190
-4.4159 châtiments	-0.1193
-4.4159 cible	-0.1010
-4.4159 cicatrice	-0.1162
-3.9387 ciel	-0.0965
-4.4159 cigarettes	-0.1117
-4.4159 cinglant	-0.0975
-3.0356 cinq	-0.1867
-3.5127 cinquante	-0.2554
-4.1147 cinquante-neuf	-0.2633
-4.1147 cinquante-quatre	-0.0974
-4.4159 cinquante-sept	-0.0975
-4.4159 cinquante-six	-0.1186
-4.1147 circonstances	-0.1193
-4.4159 circulant	-0.1118
-3.9387 circulation	-0.1092
-4.4159 circule	-0.1192
-4.4159 citation	-0.0975
-4.4159 cite	-0.0975
-4.4159 citoyen	-0.1173
-4.1147 citoyens	-0.0975
-4.4159 citron	-0.0975
-4.4159 city	-0.1175
-3.9387 cité	-0.4375
-3.8137 civil	-0.1742
-4.4159 civilement	-0.1193
-4.1147 civiles	-0.2594
-4.4159 civique	-0.1137
-4.4159 clairement	-0.1185
-4.4159 clan	-0.1162
-4.1147 classe	-0.2629
-4.4159 classique	-0.1191
-4.1147 clergé	-0.2633
-4.4159 client	-0.1185
-4.1147 climat	-0.1139
-4.4159 cliques	-0.1166
-4.4159 clivages	-0.1175
-3.6376 club	-0.0890
-4.4159 clé	-0.1173
-3.4158 coalition	-0.1256
-4.4159 cocaïne	-0.1118
-4.1147 coeur	-0.0992
-4.4159 cofinance	-0.1191
-4.1147 coiffeur	-0.2416
-4.4159 coiffure	-0.1158
-4.4159 coins	-0.1010
-4.4159 collaborateurs	-0.1010
-4.4159 collaboration	-0.0975
-4.1147 collaboré	-0.1155
-4.4159 collatérale	-0.1010
-4.4159 collatéraux	-0.1175
-4.4159 collectant	-0.1117
-4.4159 collective	-0.1153
-4.4159 collectivité	-0.1192
-3.8137 collimateur	-0.3219
-4.4159 collision	-0.1192
-4.4159 collègue	-0.1010
-4.4159 collègues	-0.1191
-3.9387 colonel	-0.1836
-4.4159 colonie	-0.1191
-4.4159 colonnes	-0.1010
-4.4159 colossales	-0.1192
-4.4159 colère	-0.0975
-4.4159 combat	-0.1192
-3.9387 combats	-0.1187
-3.9387 combattants	-0.1165
-4.4159 combattre	-0.0975
-4.4159 combattu	-0.1090
-4.1147 combien	-0.2624
-4.4159 combinaison	-0.1118
-4.1147 commandant	-0.0952
-4.1147 commandement	-0.1149
-4.4159 commandité	-0.1175
-2.6096 comme	-0.2298
-4.1147 commence	-0.1167
-4.1147 commencer	-0.2616
-3.7168 commencé	-0.1515
-3.3366 comment	-0.1779
-4.4159 commerce	-0.1188
-4.4159 commerçant	-0.1182
-4.4159 commerçante	-0.1010
-4.4159 commises	-0.1190
-4.1147 commission	-0.2591
-4.4159 commun	-0.1193
-3.5707 communauté	-0.2574
-4.4159 communautés	-0.1190
-4.4159 commune	-0.1010
-4.4159 communiqués	-0.1169
-4.4159 communisme	-0.1116
-4.1147 communiste	-0.1009
-4.4159 compagnie	-0.1158
-4.1147 compartiments	-0.2451
-4.4159 compatible	-0.1175
-4.4159 compenser	-0.1117
-4.4159 complaisance	-0.1118
-4.1147 complet	-0.2634
-4.1147 complexe	-0.1135
-4.4159 complices	-0.1193
-4.4159 complicité	-0.1010
-4.4159 compliquer	-0.1075
-4.4159 complètement	-0.1090
-4.4159 comportement	-0.1193
-4.4159 composer	-0.1182
-4.4159 compositeur	-0.1193
-3.7168 comprend	-0.1451
-3.6376 comprendre	-0.0761
-4.4159 comprends	-0.1167
-4.1147 comprennent	-0.2608
-4.1147 compris	-0.1161
-4.4159 compromis	-0.1175
-3.9387 compréhension	-0.1109
-4.4159 comptabiliser	-0.1090
-4.4159 comptabilisés	-0.0975
-3.7168 compte	-0.0934
-4.4159 compétence	-0.1116
-4.4159 compétences	-0.1193
-4.4159 concentrer	-0.1166
-4.1147 conception	-0.1152
-4.4159 concevoir	-0.1175
-4.4159 concluantes	-0.1090
-4.4159 conclusion	-0.1153
-4.4159 conclut	-0.1192
-4.4159 concombre	-0.0975
-4.1147 concours	-0.2451
-4.4159 concurrence	-0.1169
-4.4159 concurrentielles	-0.1116
-4.4159 condamné	-0.1118
-4.4159 condamnées	-0.1174
-4.4159 conditions	-0.1193
-4.4159 conduire	-0.1153
-4.4159 conduit	-0.1118
-4.4159 conduite	-0.1164
-3.8137 confiance	-0.1098
-4.4159 confidence	-0.1150
-3.6376 confirme	-0.0976
-4.4159 confirment	-0.1109
-4.4159 confirmer	-0.1182
-3.9387 conflit	-0.0971
-4.4159 confondante	-0.1187
-4.4159 confrontation	-0.1166
-4.1147 confronter	-0.2558
-4.4159 confrontés	-0.1182
-4.4159 confrères	-0.1162
-4.4159 confère	-0.1165
-3.8137 congrès	-0.1760
-4.4159 congrégation	-0.1193
-4.1147 congé	-0.0980
-4.4159 conjointes	-0.1175
-4.4159 connaissent	-0.1184
-4.4159 connaissez	-0.1075
-3.9387 connaît	-0.1162
-4.4159 connaîtra	-0.1117
-3.9387 connaître	-0.1141
-3.8137 connu	-0.1059
-4.1147 connue	-0.0975
-4.4159 connus	-0.1169
-4.4159 cons	-0.1010
-4.4159 consacré	-0.1118
-4.4159 consacrée	-0.1173
-3.3366 conseil	-0.3655
-4.4159 conseiller	-0.1145
-4.4159 conseillers	-0.0975
-4.4159 conseillez	-0.1180
-4.4159 conseillé	-0.1010
-4.4159 conseils	-0.1166
-4.4159 consensuel	-0.1153
-4.1147 consensus	-0.1135
-4.4159 conservateurs	-0.1180
-4.4159 conservatoire	-0.1010
-4.4159 considère	-0.1160
-4.4159 considèrent	-0.1189
-4.1147 considérer	-0.1152
-4.1147 considéré	-0.1083
-4.4159 considérée	-0.1182
-4.4159 considérés	-0.1185
-4.4159 consigne	-0.1187
-4.4159 consiste	-0.1137
-4.1147 consommateurs	-0.0984
-4.4159 consortium	-0.1158
-4.4159 constante	-0.1189
-4.4159 constate	-0.1192
-4.4159 constater	-0.1109
-4.4159 constituer	-0.1150
-4.4159 constitution	-0.1117
-3.9387 construction	-0.0887
-4.4159 construire	-0.1165
-4.4159 construite	-0.1174
-4.4159 consultant	-0.1192
-4.4159 consultations	-0.1117
-4.4159 consulter	-0.1116
-4.4159 consultez	-0.1192
-3.8137 conséquence	-0.1126
-3.9387 conséquences	-0.0982
-4.4159 contact	-0.1175
-4.4159 contactez	-0.1192
-4.1147 contagion	-0.1158
-4.4159 contamination	-0.1137
-4.4159 contaminations	-0.0975
-4.1147 contaminé	-0.1146
-4.4159 contaminées	-0.0975
-4.4159 contemporaine	-0.1192
-4.1147 contenant	-0.1121
-4.4159 contente	-0.1189
-4.4159 contenter	-0.1189
-4.4159 contenu	-0.1193
-4.4159 contexte	-0.1010
-4.4159 continent	-0.1168
-4.4159 continue	-0.1118
-4.4159 continuent	-0.1118
-4.1147 continuer	-0.2559
-4.4159 continuera	-0.1118
-4.1147 continueront	-0.2559
-4.4159 contractés	-0.1118
-4.4159 contradiction	-0.1158
-4.4159 contradictoire	-0.1168
-4.4159 contraint	-0.1010
-4.4159 contraintes	-0.1010
-4.4159 contraire	-0.1191
-4.4159 contrairement	-0.1182
-3.1147 contre	-0.2234
-4.4159 contre-allée	-0.1010
-4.4159 contredire	-0.1189
-4.4159 contredit	-0.1109
-4.4159 contributeur	-0.1010
-4.4159 contributions	-0.0975
-4.4159 contribué	-0.1118
-4.4159 contrée	-0.1175
-3.5127 contrôle	-0.2783
-4.4159 contrôles	-0.1193
-4.4159 contrôlée	-0.1175
-4.1147 convaincus	-0.0990
-4.4159 conventions	-0.1166
-4.4159 conviendra	-0.1186
-4.4159 convient	-0.1010
-4.4159 convois	-0.0975
-4.4159 convole	-0.1175
-4.1147 coopération	-0.1005
-4.4159 coopéré	-0.1175
-4.4159 coordonnées	-0.1166
-4.4159 copains	-0.1176
-4.4159 corde	-0.1162
-4.4159 coreligionnaires	-0.0975
-4.4159 cornic	-0.1193
-3.8137 corps	-0.1077
-4.1147 correspond	-0.2559
-4.4159 correspondances	-0.1192
-4.4159 corrompus	-0.0975
-4.4159 corruption	-0.1116
-4.4159 cosmonautes	-0.1153
-4.1147 costume	-0.1193
-4.4159 costumes	-0.1193
-3.3744 coup	-0.1252
-3.9387 coupe	-0.0887
-4.4159 couperont	-0.1192
-4.4159 coupez	-0.1193
-4.1147 coups	-0.2451
-4.4159 coupure	-0.1116
-4.4159 coupures	-0.1162
-4.1147 coupé	-0.1149
-4.4159 coupée	-0.1175
-4.1147 cour	-0.0978
-4.4159 courage	-0.0975
-4.4159 courageuse	-0.1118
-4.4159 courant	-0.1010
-4.4159 courante	-0.1116
-4.4159 courants	-0.1153
-4.4159 courent	-0.1187
-3.9387 courir	-0.1071
-4.4159 courrier	-0.1167
-4.1147 cours	-0.0929
-4.4159 courses	-0.1153
-3.8137 court	-0.1746
-4.4159 court-circuite	-0.1117
-4.4159 court-circuités	-0.0975
-4.4159 courte	-0.1116
-4.4159 courtes	-0.1193
-4.4159 courts	-0.1193
-4.4159 couru	-0.1010
-4.1147 cousin	-0.1144
-4.4159 couvercle	-0.1153
-4.4159 couvertures	-0.1118
-4.4159 coïncide	-0.1175
-4.4159 coût	-0.1150
-3.7168 coûte	-0.1353
-4.4159 coûté	-0.0975
-3.9387 craindre	-0.2022
-4.4159 crains	-0.1160
-4.4159 crainte	-0.1185
-4.4159 cravate	-0.1010
-4.1147 crier	-0.2633
-4.4159 crime	-0.1190
-4.4159 criminologue	-0.0975
-3.8137 crise	-0.0961
-4.4159 crises	-0.1192
-3.9387 critique	-0.1085
-4.4159 croirait	-0.1153
-4.1147 croire	-0.0896
-3.4615 crois	-0.3477
-4.4159 croisière	-0.1158
-4.4159 croissante	-0.1190
-4.1147 croit	-0.1136
-4.1147 croix	-0.2634
-4.1147 croquer	-0.0973
-4.4159 croyaient	-0.1191
-4.4159 cru	-0.1185
-4.4159 crue	-0.1166
-4.4159 crème	-0.1193
-4.1147 création	-0.1167
-4.4159 créativité	-0.1010
-4.4159 crédible	-0.1193
-4.4159 crédit	-0.1116
-4.1147 crée	-0.2586
-3.9387 créer	-0.1936
-3.9387 créé	-0.1072
-4.4159 crû	-0.1010
-4.4159 cubaine	-0.1175
-4.4159 cuillère	-0.1158
-4.4159 cuisine	-0.1118
-4.4159 cuit	-0.1175
-4.4159 culpabilisant	-0.1160
-4.4159 culpabiliser	-0.1117
-3.9387 culte	-0.4557
-4.4159 cultiver	-0.1193
-4.4159 cultivions	-0.1190
-3.9387 culture	-0.1129
-4.1147 culturel	-0.1135
-4.4159 culturelle	-0.1185
-4.4159 curatif	-0.1185
-4.1147 curieux	-0.0783
-4.1147 cycliste	-0.1192
-4.4159 cynique	-0.0975
-4.4159 célestes	-0.1116
-4.4159 célèbre	-0.1186
-4.4159 céréales	-0.1118
-4.4159 cérébral	-0.1185
-3.6376 côte	-0.3081
-3.4158 côté	-0.1400
-4.4159 d	-0.1193
-2.1439 d'	-0.2211
-3.6376 d'abord	-0.0891
-4.4159 d'accord	-0.1187
-3.3018 d'ailleurs	-0.0910
-3.5707 d'autant	-0.1477
-4.4159 d'autre	-0.1192
-3.4615 d'autres	-0.0849
-3.9387 d'où	-0.0954
-2.8595 d'un	-0.1797
-3.0356 d'une	-0.1179
-3.7168 da	-0.3707
-4.4159 dam	-0.1150
-3.9387 danger	-0.0849
-3.5707 dangereux	-0.0900
-2.0338 dans	-1.0637
-4.4159 date	-0.1117
-4.4159 dauphin	-0.1193
-1.3852 de	-0.3315
-4.4159 debout	-0.1192
-4.4159 dedans	-0.0975
-4.4159 degré	-0.1109
-3.1853 degrés	-0.2010
-4.4159 dehors	-0.0975
-4.4159 delà	-0.1010
-3.4158 demain	-0.1521
-3.8137 demande	-0.1814
-4.4159 demandent	-0.1165
-3.7168 demander	-0.1494
-3.9387 demeure	-0.1127
-4.4159 demi	-0.1191
-4.4159 demi-finale	-0.1010
-4.4159 demi-frères	-0.1167
-4.4159 demi-heure	-0.1176
-4.1147 demie	-0.2416
-3.0356 depuis	-0.1296
-4.4159 der	-0.1150
-3.0936 dernier	-0.0895
-3.7168 derniers	-0.1186
-3.5707 dernière	-0.1535
-3.9387 dernières	-0.1191
-3.4615 derrière	-0.1171
-4.4159 ders	-0.1169
-2.0025 des	-0.1962
-4.4159 descend	-0.1010
-4.4159 descendre	-0.1193
-4.4159 despotisme	-0.1193
-4.4159 dessert	-0.1117
-4.4159 dessiner	-0.1191
-4.4159 dessinera	-0.1090
-3.8137 dessus	-0.1433
-4.4159 destin	-0.1187
-4.4159 destins	-0.0975
-4.4159 destinée	-0.1182
-4.4159 destinés	-0.1182
-3.9387 destruction	-0.1916
-2.5584 deux	-0.2570
-3.3018 deuxième	-0.1938
-4.4159 devaient	-0.1193
-4.4159 devait	-0.1193
-4.4159 devance	-0.1117
-3.4158 devant	-0.1149
-4.1147 devenir	-0.1088
-4.4159 devenu	-0.1165
-4.4159 devenus	-0.1150
-4.1147 deviendra	-0.1175
-3.9387 deviennent	-0.0932
-3.8137 devient	-0.0838
-4.4159 devinez	-0.1191
-4.4159 devoir	-0.1192
-3.8137 devra	-0.1833
-4.1147 devraient	-0.1192
-3.9387 devrait	-0.1179
-4.4159 diabète	-0.1116
-4.4159 diabétique	-0.1137
-4.4159 diagnostiqué	-0.1137
-4.4159 diagnostiqués	-0.1116
-3.8137 dialogue	-0.1079
-4.1147 dictateur	-0.1190
-3.9387 dictature	-0.1143
-4.4159 dictatures	-0.1193
-4.4159 dictionnaire	-0.1193
-3.8137 difficile	-0.1604
-4.4159 difficilement	-0.1090
-4.4159 difficulté	-0.1182
-4.4159 difficultés	-0.1193
-4.4159 diffusion	-0.1010
-4.1147 diffusé	-0.1074
-4.1147 différence	-0.1017
-4.1147 différente	-0.1167
-4.4159 différents	-0.1193
-4.4159 différer	-0.1186
-4.4159 digne	-0.1187
-4.4159 dignes	-0.1187
-4.4159 dignitaire	-0.1193
-4.1147 digéré	-0.2416
-3.8137 dimanche	-0.1818
-4.4159 dimension	-0.1137
-4.4159 diminue	-0.1192
-4.1147 diplomatie	-0.1190
-3.7168 diplomatique	-0.0933
-3.8137 diplomatiques	-0.1751
-4.4159 dira	-0.1192
-4.4159 dirai	-0.1174
-4.4159 dirait	-0.1190
-3.2117 dire	-0.2307
-4.1147 directe	-0.0933
-3.7168 directement	-0.1697
-3.8137 directeur	-0.1583
-3.6376 direction	-0.2267
-4.4159 dirige	-0.1075
-3.6376 dirigeants	-0.3173
-4.1147 diront	-0.2629
-4.1147 dis	-0.1189
-4.4159 disaient	-0.1186
-3.9387 disait	-0.1172
-4.4159 disant	-0.1182
-3.8137 discours	-0.1831
-4.4159 discret	-0.1116
-4.4159 discrètement	-0.1075
-4.4159 discussion	-0.1193
-4.4159 discuter	-0.0975
-3.7168 disent	-0.1092
-4.4159 disparaître	-0.1190
-4.4159 disparition	-0.1010
-4.1147 disparu	-0.0975
-4.4159 disparus	-0.1192
-4.4159 disposer	-0.1150
-4.4159 disposerait	-0.1162
-4.4159 dispositif	-0.1192
-4.4159 disposition	-0.1193
-4.4159 disqueuse	-0.1165
-3.9387 distance	-0.1114
-4.4159 distanciation	-0.1193
-4.1147 distribue	-0.1185
-4.4159 distribuer	-0.1010
-4.4159 distribué	-0.1182
-3.0734 dit	-0.1563
-3.9387 dites	-0.2097
-4.4159 division	-0.1162
-4.4159 divisés	-0.1166
-4.4159 divorce	-0.1192
-3.1853 dix	-0.1555
-3.9387 dix-huit	-0.1130
-3.5707 dix-neuf	-0.2314
-3.6376 dix-sept	-0.1603
-4.4159 dizaines	-0.1010
-4.4159 docteur	-0.1193
-4.4159 documents	-0.1191
-4.4159 doigt	-0.1175
-4.4159 doigté	-0.1193
-3.9387 doit	-0.1171
-3.7168 doivent	-0.1181
-3.9387 dollars	-0.4455
-4.4159 domaine	-0.0975
-4.4159 domicile	-0.1181
-4.4159 dominer	-0.1191
-4.4159 dominé	-0.1090
-4.4159 dommages	-0.1193
-4.4159 don	-0.1010
-2.7345 donc	-0.0708
-4.4159 donnait	-0.1118
-3.6376 donne	-0.2470
-4.4159 donnent	-0.1153
-3.9387 donner	-0.0977
-4.4159 donnera	-0.1187
-4.4159 donnerait	-0.1118
-4.4159 donneront	-0.1190
-4.4159 donneurs	-0.1010
-4.4159 donnez-lui	-0.1010
-4.1147 donné	-0.1030
-4.4159 données	-0.1193
-4.4159 donnés	-0.1166
-3.2117 dont	-0.2113
-4.4159 dormaient	-0.1187
-3.9387 dos	-0.0896
-4.4159 dosage	-0.1010
-4.4159 dosez	-0.1167
-3.6376 double	-0.2556
-4.4159 doublé	-0.1166
-4.4159 doublés	-0.1116
-4.1147 douce	-0.0956
-4.1147 doucement	-0.0973
-4.4159 douces	-0.1185
-4.4159 douceur	-0.0975
-4.1147 douleur	-0.1192
-4.4159 douloureux	-0.1191
-3.3366 doute	-0.0509
-4.4159 doutent	-0.1187
-3.8137 douze	-0.1774
-4.4159 drame	-0.0975
-4.4159 drapeau	-0.1193
-4.4159 drogue	-0.1192
-3.7168 droit	-0.1582
-3.4615 droite	-0.0798
-4.1147 drôle	-0.1006
-2.0320 du	-0.2844
-4.4159 dur	-0.1153
-4.4159 durable	-0.1150
-4.4159 durant	-0.1090
-4.4159 durcissement	-0.1010
-4.1147 dure	-0.1074
-4.4159 durent	-0.1150
-4.4159 durs	-0.1010
-3.9387 duré	-0.1127
-4.1147 dès	-0.1187
-4.4159 débarqué	-0.0975
-3.8137 débat	-0.0827
-4.4159 débats	-0.1173
-3.6376 début	-0.1314
-4.1147 débuts	-0.0973
-4.1147 débâcle	-0.1109
-4.4159 décalé	-0.1189
-4.1147 décembre	-0.1164
-4.4159 décennies	-0.1137
-4.4159 déchaîné	-0.1168
-4.4159 déchiffrer	-0.1189
-3.9387 déchu	-0.1911
-4.4159 décide	-0.1188
-4.1147 décident	-0.1154
-3.9387 décidé	-0.0942
-3.9387 décision	-0.0901
-4.4159 décisions	-0.1189
-4.4159 déclaration	-0.1169
-3.8137 déclare	-0.1776
-4.4159 déclarent	-0.1187
-4.4159 déclarés	-0.1175
-4.4159 déclenché	-0.1166
-4.4159 décodeurs	-0.1193
-4.4159 décollé	-0.1153
-4.4159 décombres	-0.1193
-4.4159 déconseillé	-0.1010
-4.4159 décontamination	-0.1010
-4.4159 découpé	-0.1118
-4.1147 découvert	-0.1148
-4.4159 découvertes	-0.1193
-4.4159 découvraient	-0.1109
-4.4159 découvrez	-0.1137
-3.8137 découvrir	-0.0845
-4.4159 décroissante	-0.1145
-4.4159 décryptage	-0.1118
-4.4159 décrypter	-0.1190
-4.4159 dédommagent	-0.0975
-3.9387 défaite	-0.1915
-4.4159 défectueux	-0.1158
-4.4159 défendent	-0.1116
-3.9387 défendre	-0.1097
-3.6376 défense	-0.2371
-4.1147 défilent	-0.1152
-4.1147 définitive	-0.0967
-3.2397 déjà	-0.1459
-4.1147 délicate	-0.1149
-4.4159 délicieux	-0.0975
-3.9387 délinquance	-0.1074
-4.4159 délocalisations	-0.1193
-4.4159 déloger	-0.1117
-4.4159 délégués	-0.1150
-4.4159 démagogique	-0.1175
-3.9387 démarche	-0.1031
-4.4159 dément	-0.1193
-4.4159 démenti	-0.1010
-4.4159 démocratie	-0.1116
-4.4159 démocratique	-0.1116
-4.4159 démonstration	-0.0975
-4.4159 dénombrés	-0.1190
-4.4159 dénonce	-0.1075
-4.4159 dénoncent	-0.1075
-4.1147 dénoncer	-0.1102
-4.4159 dénoncé	-0.1193
-4.1147 dénoncée	-0.2616
-4.4159 dénonçant	-0.1182
-3.9387 départ	-0.0929
-4.1147 département	-0.0968
-4.4159 départementale	-0.1187
-4.1147 départements	-0.1166
-4.4159 dépasse	-0.1187
-4.4159 dépasser	-0.1117
-3.9387 dépasseront	-0.2054
-3.9387 dépenses	-0.1916
-4.1147 dépensé	-0.0946
-3.9387 déplace	-0.1142
-4.4159 déplacements	-0.0975
-4.1147 déplaire	-0.1098
-4.4159 déplorait	-0.1192
-4.4159 déportation	-0.0975
-4.1147 député	-0.2633
-4.4159 déroule	-0.1167
-4.4159 désaccord	-0.1191
-4.4159 désagréable	-0.1185
-4.4159 désamour	-0.1192
-4.4159 désaveu	-0.1010
-4.4159 désertes	-0.0975
-4.4159 déserté	-0.1117
-4.4159 désespéré	-0.1173
-4.4159 désigné	-0.1191
-4.4159 désinformations	-0.0975
-4.4159 désolé	-0.0975
-4.4159 désordre	-0.0975
-3.5707 désormais	-0.2217
-4.4159 déstabiliser	-0.1075
-4.4159 désunis	-0.1153
-4.4159 détailler	-0.1075
-4.4159 détails	-0.1118
-4.4159 détenaient	-0.1189
-3.9387 détenir	-0.4514
-4.4159 détention	-0.1168
-3.7168 détenus	-0.1156
-4.4159 déterminant	-0.1010
-4.4159 déterminantes	-0.1180
-3.9387 détermination	-0.0945
-4.4159 détournent	-0.1145
-4.4159 détourné	-0.1175
-4.4159 détérioration	-0.1010
-4.4159 détérioré	-0.1182
-4.4159 dévasté	-0.1175
-3.8137 développer	-0.2370
-4.1147 développé	-0.1074
-4.4159 déviation	-0.1010
-4.4159 dévolu	-0.1137
-4.4159 dîner	-0.1175
-3.7168 dû	-0.0954
-4.4159 eau	-0.1175
-4.4159 effectif	-0.1153
-4.4159 effectifs	-0.1150
-3.5127 effectivement	-0.0903
-4.1147 effectuer	-0.2451
-4.1147 effets	-0.0974
-4.1147 efficace	-0.1159
-4.4159 effondre	-0.1116
-4.4159 effondrement	-0.1010
-4.4159 effondré	-0.1189
-4.4159 efforcent	-0.1010
-4.1147 efforts	-0.1074
-4.4159 effusions	-0.1193
-3.5127 eh	-0.3976
-2.8717 elle	-0.2709
-4.4159 elle-aussi	-0.1193
-3.4615 elles	-0.1400
-4.4159 embarque	-0.1117
-4.4159 embastillés	-0.1109
-4.4159 emblématique	-0.0975
-4.4159 emboîté	-0.1090
-4.4159 embrasser	-0.0975
-4.4159 embuscade	-0.1118
-4.1147 emmène	-0.1077
-4.4159 emporter	-0.1180
-4.4159 emporté	-0.1193
-4.4159 empresse	-0.1010
-4.4159 empêche	-0.1167
-4.1147 empêcher	-0.0976
-1.8907 en	-0.2705
-3.9387 en_effet	-0.1119
-4.4159 enchaînent	-0.0975
-4.4159 encontre	-0.1010
-2.8137 encore	-0.0909
-4.4159 endroit	-0.1168
-4.4159 endroits	-0.1193
-3.9387 enfant	-0.1158
-4.1147 enfants	-0.0969
-4.1147 enfer	-0.1152
-4.4159 enfermés	-0.1153
-3.5127 enfin	-0.0961
-4.4159 enfuis	-0.1175
-3.8137 engage	-0.0999
-4.1147 engagée	-0.1170
-4.1147 engagés	-0.1136
-4.4159 engouffrent	-0.1193
-4.4159 enhardis	-0.1010
-4.1147 ennemi	-0.1191
-4.1147 ennui	-0.1033
-4.4159 ennuyeuse	-0.1166
-4.4159 enquêteurs	-0.1191
-4.4159 enrayer	-0.1173
-4.4159 enregistrement	-0.1174
-4.4159 enrichir	-0.1188
-4.4159 enrichissants	-0.1166
-4.4159 enrichit	-0.1187
-4.4159 enrôler	-0.1189
-3.5707 enseignants	-0.0942
-3.6376 ensemble	-0.1828
-3.8137 ensuite	-0.0921
-4.4159 entamé	-0.1187
-3.7168 entend	-0.1052
-3.8137 entendre	-0.0839
-4.4159 entends	-0.1153
-3.9387 entendu	-0.1071
-4.1147 entendues	-0.1152
-3.7168 entendus	-0.1444
-4.4159 entente	-0.1192
-4.4159 enterré	-0.1189
-3.9387 entier	-0.0947
-4.1147 entière	-0.1138
-4.1147 entièrement	-0.1193
-4.1147 entières	-0.2416
-4.4159 entoure	-0.1010
-4.4159 entraîné	-0.1174
-4.4159 entraînés	-0.1116
-2.8973 entre	-0.1114
-4.4159 entre-temps	-0.1186
-3.7168 entreprises	-0.0768
-4.4159 entrer	-0.1153
-4.4159 entretenir	-0.1174
-4.1147 entretient	-0.1165
-3.9387 entrée	-0.1108
-3.9387 entrés	-0.2034
-4.4159 enveloppe	-0.1193
-4.4159 enveloppes	-0.1193
-4.4159 envergure	-0.1192
-4.4159 enverrons	-0.1090
-3.9387 envie	-0.4375
-4.4159 environnement	-0.0975
-3.9387 envisage	-0.0906
-4.4159 envisagent	-0.1189
-4.1147 envoi	-0.1150
-4.4159 envoie	-0.1010
-4.4159 envoyant	-0.1118
-3.9387 envoyer	-0.1059
-4.4159 envoyé	-0.1186
-4.1147 envoyée	-0.2634
-4.1147 envoyés	-0.1182
-4.1147 erreur	-0.0973
-4.4159 erreurs	-0.1162
-4.4159 escapades	-0.1118
-4.4159 escortées	-0.1175
-3.4615 espace	-0.2084
-4.4159 espagnole	-0.1090
-3.9387 espoir	-0.0940
-4.4159 espoirs	-0.1184
-4.4159 esprit	-0.1010
-4.4159 espèce	-0.1010
-4.4159 espère	-0.1186
-4.4159 espérances	-0.0975
-4.4159 espéranto	-0.0975
-4.4159 essaye	-0.1010
-3.7168 essentiel	-0.6120
-4.4159 essentiellement	-0.1153
-4.4159 essentiels	-0.1193
-4.4159 essouffle	-0.1153
-4.4159 essuie	-0.1191
-2.1439 est	-0.1248
-4.4159 est-ce-pas	-0.0975
-4.4159 est-ce_qu'il	-0.1192
-4.4159 est-ce_qu'on	-0.1189
-3.7168 est-ce_que	-0.1142
-4.1147 estime	-0.1064
-4.1147 estival	-0.1109
-4.1147 estivales	-0.1174
-4.4159 estrades	-0.1118
-1.7568 et	-0.1984
-3.6376 eu	-0.1361
-2.3589 euh	-0.0655
-4.4159 euro	-0.1010
-4.4159 européen	-0.1164
-3.4615 européenne	-0.1820
-3.7168 européens	-0.2086
-3.5127 euros	-0.0991
-4.4159 eut	-0.1182
-3.5707 eux	-0.0682
-4.4159 eux-même	-0.1160
-4.4159 eux-mêmes	-0.1010
-3.9387 ex-	-0.1190
-4.4159 exact	-0.1090
-4.4159 exactement	-0.1090
-4.4159 exactes	-0.1153
-4.4159 examen	-0.1193
-4.4159 examiner	-0.1010
-4.4159 exaspération	-0.1193
-4.4159 exaspérés	-0.0975
-4.4159 excellent	-0.1193
-4.4159 exceptionnelles	-0.1158
-4.4159 exclame	-0.1192
-4.4159 exclusivité	-0.1187
-3.7168 exemplaires	-0.1180
-3.5707 exemple	-0.1956
-4.1147 exercice	-0.0968
-4.4159 exige	-0.1010
-4.4159 exile	-0.1192
-4.4159 existait	-0.1184
-4.4159 existe	-0.1145
-4.4159 existence	-0.1186
-4.4159 existent	-0.1167
-4.4159 exister	-0.0975
-4.4159 expansion	-0.1010
-4.1147 expertise	-0.1140
-3.9387 experts	-0.1165
-4.4159 expliquaient	-0.1190
-3.5707 explique	-0.1283
-4.4159 expliquent	-0.1191
-4.1147 expliquer	-0.1109
-4.4159 exploit	-0.1193
-4.1147 exploitation	-0.0968
-3.9387 exploiter	-0.1169
-4.4159 explosion	-0.1193
-4.4159 exportation	-0.1175
-4.1147 expression	-0.1151
-4.4159 exprimer	-0.1116
-4.4159 exprimés	-0.1174
-4.4159 expéditionnaire	-0.1153
-3.6376 expérience	-0.1030
-4.4159 extraire	-0.1010
-4.4159 extrémistes	-0.0975
-3.9387 extrême	-0.4556
-4.1147 extrêmement	-0.1193
-4.4159 extérieur	-0.1175
-4.4159 exultait	-0.1192
-4.4159 exulte	-0.1182
-4.4159 exécutif	-0.1166
-4.1147 exécution	-0.1006
-4.4159 fabriquer	-0.0975
-3.3744 face	-0.5224
-3.9387 facile	-0.2054
-4.4159 facilement	-0.1117
-4.4159 faciliter	-0.1075
-4.4159 facilité	-0.1010
-4.4159 facteurs	-0.1193
-3.8137 facture	-0.0887
-4.4159 faible	-0.0975
-4.4159 faillite	-0.1192
-4.4159 faim	-0.0975
-2.8030 faire	-0.1491
-4.4159 fais	-0.1191
-3.9387 faisant	-0.1136
-2.7082 fait	-0.0635
-4.1147 faite	-0.0896
-4.4159 faites	-0.1191
-3.9387 fallait	-0.1177
-3.8137 fallu	-0.1141
-4.1147 fameuse	-0.1193
-4.4159 familiale	-0.1186
-3.7168 famille	-0.1434
-4.4159 familles	-0.1010
-4.4159 famine	-0.1164
-4.4159 fantasmes	-0.0975
-4.4159 fatigués	-0.1164
-3.8137 faudra	-0.1143
-4.4159 faudrait	-0.1192
-4.4159 fausse	-0.1193
-2.9686 faut	-0.1075
-4.4159 fautes	-0.1116
-4.1147 faux	-0.0972
-4.1147 favorisant	-0.1065
-4.4159 favoriser	-0.1191
-4.4159 façade	-0.1160
-3.9387 façon	-0.1139
-3.6376 femme	-0.1114
-3.6376 femmes	-0.2203
-4.1147 fenêtre	-0.1192
-4.4159 fer	-0.1192
-3.6376 fera	-0.2094
-4.4159 ferme	-0.1191
-4.4159 fermement	-0.1187
-4.4159 fermer	-0.0975
-4.4159 fermeture	-0.1153
-4.1147 fermeté	-0.0968
-4.4159 fermez	-0.1075
-3.8137 fermiers	-0.4474
-4.4159 fermé	-0.1075
-4.4159 fermée	-0.1118
-4.4159 ferons	-0.1191
-4.4159 festival	-0.1162
-4.1147 feu	-0.1169
-4.4159 feuille	-0.1010
-4.4159 feuilleton	-0.0975
-4.4159 fidèles	-0.1173
-3.5707 fief	-0.4681
-4.4159 field	-0.1191
-4.4159 fier	-0.1010
-4.1147 fiers	-0.2451
-3.8137 figures	-0.4616
-4.4159 figurez	-0.1191
-4.4159 fil	-0.1190
-4.4159 fille	-0.1187
-3.8137 film	-0.0918
-4.4159 filmé	-0.1193
-3.9387 fils	-0.0779
-3.2397 fin	-0.4579
-4.4159 final	-0.1182
-4.1147 finale	-0.0971
-3.8137 finalement	-0.0953
-4.4159 financer	-0.1175
-4.1147 financières	-0.1116
-4.1147 financée	-0.2616
-4.4159 finançant	-0.1109
-4.1147 fini	-0.0929
-4.4159 finies	-0.1117
-4.4159 finir	-0.1175
-4.4159 finit	-0.1117
-4.4159 fièvre	-0.1189
-4.1147 fleur	-0.1075
-4.4159 fleurir	-0.1165
-3.8137 fleuve	-0.0897
-4.1147 flou	-0.0867
-4.4159 fluide	-0.1166
-3.7168 flûte	-0.2629
-4.1147 flûtiste	-0.1190
-3.1853 fois	-0.1267
-4.4159 fonction	-0.0975
-4.1147 fonctionnaire	-0.2634
-4.1147 fonctionnaires	-0.1148
-4.4159 fonctionner	-0.1189
-3.6376 fond	-0.1117
-3.4615 font	-0.0830
-4.4159 football	-0.1191
-4.4159 forages	-0.1191
-3.2397 force	-0.1452
-3.4615 forces	-0.3177
-3.9387 forcément	-0.1181
-4.4159 formation	-0.1010
-3.9387 forme	-0.1836
-4.4159 forment	-0.1075
-4.4159 former	-0.1145
-4.4159 formidable	-0.0975
-3.7168 fort	-0.2838
-3.6376 forte	-0.1879
-4.4159 fortem(ent)	-0.1192
-3.8137 fortement	-0.1071
-4.1147 fortes	-0.1155
-4.4159 fortifiée	-0.1010
-4.4159 forts	-0.1190
-4.4159 fortune	-0.1193
-4.4159 forum	-0.1174
-3.9387 fou	-0.1132
-4.4159 fouet	-0.1117
-4.4159 fouilles	-0.1189
-4.4159 fouillé	-0.0975
-3.9387 foule	-0.1127
-4.1147 fournir	-0.1088
-4.4159 foyer	-0.1193
-4.4159 fracas	-0.1153
-3.7168 frais	-0.2673
-4.4159 franche	-0.1166
-3.9387 franchi	-0.0739
-3.6376 franco-	-0.1187
-4.4159 francophone	-0.0975
-4.1147 francs	-0.1000
-3.2397 français	-0.1919
-3.2696 française	-0.1526
-3.8137 françaises	-0.3224
-4.4159 frappe	-0.1117
-4.4159 frappent	-0.1090
-4.4159 frapper	-0.1137
-4.1147 fredonné	-0.0948
-4.4159 froide	-0.1186
-3.9387 frontière	-0.0953
-4.4159 frontières	-0.0975
-4.4159 fruit	-0.1193
-3.8137 frère	-0.1067
-4.1147 frères	-0.0894
-4.4159 fuient	-0.1186
-4.4159 fuir	-0.1180
-4.1147 fuite	-0.0894
-4.1147 fumer	-0.0974
-4.4159 funk	-0.1150
-4.4159 furent	-0.1192
-4.4159 fusil	-0.1162
-4.4159 fusillade	-0.1191
-4.4159 fusée	-0.1193
-4.4159 fuyards	-0.0975
-4.4159 fuyez	-0.0975
-4.4159 fécond	-0.1166
-4.4159 fédéralisme	-0.1193
-4.4159 fédération	-0.1010
-4.4159 félicitait	-0.1162
-4.4159 féminine	-0.0975
-4.4159 féru	-0.1162
-4.1147 février	-0.1189
-4.4159 fêtent	-0.1190
-4.4159 g	-0.1175
-4.1147 gagne	-0.1113
-3.8137 gagner	-0.1645
-4.1147 gagné	-0.2516
-4.4159 gaietée	-0.0975
-3.5707 garde	-0.0729
-4.4159 garder	-0.1193
-4.4159 gardien	-0.1010
-4.4159 gardiens	-0.1193
-4.4159 garçon	-0.1158
-3.4615 gauche	-0.0961
-4.4159 gendarmes	-0.1116
-3.2696 gens	-0.1600
-4.4159 gentillesse	-0.1185
-4.4159 gisant	-0.1166
-4.4159 glamour	-0.1192
-4.4159 globale	-0.1193
-4.1147 golf	-0.1162
-4.4159 golfe	-0.1153
-4.4159 golfeur	-0.1193
-4.1147 golfeuses	-0.1192
-4.4159 gorge	-0.1193
-4.4159 goutte	-0.1010
-4.4159 gouttes	-0.1169
-3.4615 gouvernement	-0.1022
-4.4159 goût	-0.1010
-4.4159 goûterez	-0.1192
-4.4159 goûts	-0.1116
-4.4159 grabataire	-0.1116
-4.4159 gradé	-0.1010
-3.1853 grand	-0.2330
-3.7168 grande	-0.1191
-4.1147 grandes	-0.1193
-4.4159 grandeur	-0.1192
-4.4159 grandi	-0.1116
-3.8137 grands	-0.1192
-4.4159 gras	-0.1153
-3.5707 grave	-0.0952
-4.1147 gravement	-0.1193
-4.4159 gravité	-0.1010
-4.4159 grenade	-0.1153
-4.4159 greniers	-0.1166
-4.4159 grillage	-0.1010
-4.1147 grilles	-0.1174
-4.4159 grogne	-0.1150
-4.4159 grondement	-0.1153
-4.4159 gros	-0.1193
-4.4159 grosse	-0.1193
-3.5127 groupe	-0.1257
-3.5707 grâce	-0.3055
-4.4159 gré	-0.1150
-2.7626 guerre	-0.3238
-4.1147 guerres	-0.1176
-4.4159 guerrier	-0.1117
-4.4159 guette	-0.1090
-4.4159 guide	-0.1150
-4.4159 guignait	-0.1075
-4.1147 guère	-0.1078
-4.1147 gène	-0.1136
-4.1147 gènes	-0.1190
-4.4159 géant	-0.1166
-4.4159 géante	-0.0975
-3.9387 génome	-0.4557
-4.4159 génopole	-0.1162
-3.6376 général	-0.1254
-4.4159 générale	-0.1191
-4.1147 généralistes	-0.1181
-4.4159 générations	-0.0975
-4.1147 généraux	-0.1151
-4.1147 générosité	-0.1193
-4.4159 génétique	-0.1174
-4.4159 génétiques	-0.0975
-4.4159 géorgienne	-0.1193
-4.4159 géostratège	-0.1116
-4.1147 gérer	-0.1153
-4.4159 géré	-0.1175
-4.4159 gît	-0.1153
-4.1147 habitants	-0.1125
-4.1147 habitude	-0.0933
-4.1147 habitudes	-0.0975
-4.4159 habituel	-0.0975
-4.4159 habituelles	-0.0975
-4.4159 habituels	-0.1190
-4.4159 habitée	-0.1175
-4.4159 hall	-0.1010
-4.4159 has-been	-0.1191
-4.1147 hasard	-0.0896
-4.4159 hasarde	-0.1145
-3.9387 hausse	-0.1083
-4.1147 haussé	-0.2531
-4.4159 haut	-0.1193
-4.4159 hautement	-0.1193
-4.4159 hauteur	-0.1116
-4.4159 haïssent	-0.1090
-3.6376 hein	-0.1360
-3.1605 heure	-0.1973
-2.6029 heures	-0.2782
-4.1147 heureusement	-0.1178
-4.4159 heureux	-0.1193
-2.7082 hier	-0.1421
-4.4159 hispanophones	-0.1153
-4.4159 hissent	-0.1118
-3.6376 histoire	-0.1024
-3.8137 histoires	-0.1102
-4.4159 historienne	-0.1173
-3.8137 historique	-0.0893
-4.4159 hiéroglyphes	-0.1118
-3.0734 homme	-0.2002
-3.2117 hommes	-0.1656
-4.1147 honnis	-0.1132
-4.4159 honnêtes	-0.1182
-4.4159 honnêteté	-0.1193
-4.4159 honorée	-0.1175
-4.4159 horizons	-0.1191
-4.4159 horreur	-0.1010
-4.4159 hors	-0.1193
-4.4159 hospitalier	-0.1153
-3.9387 hospitaliser	-0.1057
-4.1147 hospitalisé	-0.1077
-4.4159 hostilités	-0.1191
-4.1147 huile	-0.2603
-3.0008 huit	-0.8109
-3.8137 humain	-0.2383
-4.1147 humanitaire	-0.2578
-4.4159 humanitaires	-0.1192
-4.1147 humanité	-0.1154
-4.4159 humour	-0.1193
-3.8137 hyper	-0.4580
-4.4159 hypertension	-0.1193
-4.4159 hypothèse	-0.1189
-4.4159 héberger	-0.1117
-3.4158 hélicoptère	-0.1072
-4.4159 hémisphère	-0.1191
-4.4159 hérité	-0.1010
-4.4159 héréditaire	-0.1167
-4.4159 héréditaires	-0.1116
-3.4615 hôpital	-0.1449
-3.9387 hôpitaux	-0.0894
-4.4159 hôtel	-0.1193
-4.4159 hôtels	-0.1181
-3.6376 ici	-0.1342
-4.4159 identifié	-0.1117
-4.4159 idiome	-0.1193
-4.4159 idole	-0.1075
-4.4159 idylle	-0.0975
-3.7168 idée	-0.1485
-4.1147 idées	-0.2416
-4.4159 ignore	-0.1169
-2.1703 il	-0.4216
-4.4159 il-vous-plaît	-0.0975
-4.1147 il_n'y_a_pas	-0.1010
-2.8030 il_y_a	-0.1728
-4.1147 il_y_aurait	-0.2451
-4.4159 il_y_avait	-0.1010
-4.1147 illustration	-0.1137
-4.4159 illustre	-0.1193
-2.7823 ils	-0.2765
-3.9387 image	-0.1688
-3.9387 images	-0.1077
-4.4159 immense	-0.1116
-4.4159 immergent	-0.1191
-4.4159 immeuble	-0.0975
-4.4159 imminence	-0.1010
-4.4159 immunisé	-0.0975
-4.4159 immédiat	-0.1173
-4.4159 immédiatement	-0.0975
-4.4159 impact	-0.1193
-4.4159 impatients	-0.1010
-4.4159 impliquer	-0.1153
-3.9387 importance	-0.1134
-4.1147 important	-0.1159
-3.9387 importante	-0.1190
-3.9387 importantes	-0.1100
-4.4159 importation	-0.1150
-4.1147 importe	-0.1193
-4.4159 impose	-0.1174
-4.1147 imposer	-0.1186
-3.8137 impossible	-0.1642
-4.4159 imposé	-0.0975
-4.4159 impression	-0.1010
-4.4159 impressionnantes	-0.0975
-4.4159 impressionne	-0.1167
-4.1147 impressionné	-0.0956
-4.1147 imprime	-0.1186
-4.4159 impro	-0.0975
-4.4159 improvisation	-0.0975
-4.4159 improvisations	-0.0975
-4.4159 improvise	-0.1167
-4.4159 impéritie	-0.1150
-4.4159 inacceptable	-0.0975
-4.4159 inaudibles	-0.0975
-4.4159 incandescent	-0.1173
-4.4159 incapable	-0.1010
-4.4159 incapables	-0.1010
-4.4159 incendies	-0.1158
-4.4159 incertain	-0.0975
-4.4159 incite	-0.1167
-4.1147 inciter	-0.1114
-4.4159 inciteront	-0.1190
-4.4159 inclinent	-0.1166
-4.4159 incompatible	-0.1175
-4.4159 incontestables	-0.1193
-4.1147 incroyable	-0.1193
-4.1147 indications	-0.2628
-4.4159 indice	-0.1168
-4.4159 indiens	-0.1010
-4.4159 indiquait	-0.1160
-4.4159 indiqué	-0.1175
-4.4159 indiquée	-0.1192
-4.4159 indispensables	-0.1185
-4.4159 indispose	-0.1117
-4.4159 industrie	-0.0975
-4.4159 industriel	-0.1158
-4.4159 industrielles	-0.1193
-4.4159 industriels	-0.1153
-4.1147 indépendantistes	-0.1118
-4.4159 indésirables	-0.1192
-4.4159 inertie	-0.1191
-4.1147 infanterie	-0.0930
-4.1147 infarctus	-0.1068
-4.4159 infatigable	-0.1193
-4.4159 infecter	-0.1192
-4.4159 infectieux	-0.1192
-4.4159 infiniment	-0.1174
-4.4159 infirmerie	-0.0975
-4.4159 infirmière	-0.1164
-4.4159 influence	-0.1180
-3.5127 information	-0.1423
-4.4159 informations	-0.1166
-4.1147 informatique	-0.1190
-4.4159 ingénieurs	-0.1150
-4.4159 injections	-0.1166
-4.4159 inquiet	-0.1166
-4.4159 inquiets	-0.1193
-3.8137 inquiète	-0.1654
-4.4159 inquiétant	-0.1160
-4.1147 inquiéter	-0.0887
-3.9387 inquiétude	-0.0896
-4.4159 insalubres	-0.1191
-4.4159 inscrit	-0.1173
-4.4159 inspirées	-0.1010
-4.4159 installation	-0.1193
-4.4159 installé	-0.1118
-4.4159 instance	-0.1193
-3.4158 instant	-0.0847
-4.4159 instauration	-0.1187
-4.4159 instaure	-0.1173
-4.1147 institut	-0.1193
-4.4159 instruction	-0.1193
-4.4159 instrument	-0.1192
-4.4159 instruments	-0.1010
-4.4159 instrumenté	-0.1175
-4.4159 insécurité	-0.1116
-4.1147 intellectuel	-0.0946
-4.4159 intellectuelle	-0.1116
-4.4159 intellectuels	-0.1153
-4.4159 intelligence	-0.1193
-4.4159 intelligents	-0.1116
-4.4159 intense	-0.1193
-4.4159 intenses	-0.1193
-4.4159 intentions	-0.1174
-4.4159 interculturels	-0.1116
-4.4159 interdit	-0.1010
-4.4159 interdite	-0.1118
-3.7168 international	-0.1135
-3.5127 internationale	-0.1793
-4.4159 internationaux	-0.0975
-4.4159 interne	-0.1191
-4.4159 internement	-0.0975
-3.9387 internet	-0.0909
-4.4159 interpellation	-0.1185
-4.4159 interpelle	-0.1192
-4.4159 interpellé	-0.1145
-4.4159 interrogatoires	-0.1193
-4.4159 interroge	-0.0975
-4.4159 interrogent	-0.1166
-4.1147 intervention	-0.1186
-4.4159 interventions	-0.1010
-4.4159 intervenu	-0.1191
-4.4159 interview	-0.1166
-4.4159 intime	-0.1187
-4.4159 intitule	-0.1192
-4.4159 intriguant	-0.1164
-4.4159 introuvable	-0.0975
-4.1147 intéresse	-0.1050
-4.4159 intéresserons	-0.1118
-3.9387 intérieur	-0.1155
-4.1147 intérieure	-0.0783
-4.1147 intérêt	-0.1149
-4.4159 intérêts	-0.1187
-4.4159 inutiles	-0.0975
-4.4159 invasion	-0.1178
-4.4159 inverser	-0.1075
-4.1147 investie	-0.2416
-4.4159 investir	-0.1137
-4.4159 invisibles	-0.1116
-3.9387 invité	-0.1106
-4.1147 invités	-0.2451
-4.4159 involontairement	-0.1137
-4.4159 inépuisé	-0.1010
-4.4159 inévitablement	-0.1109
-4.4159 inévitables	-0.1189
-3.2696 irakien	-0.1852
-3.2397 irakienne	-0.1328
-3.3744 irakiens	-0.2179
-4.4159 iranien	-0.1180
-4.4159 irons	-0.1153
-4.1147 islam	-0.1192
-4.4159 islamique	-0.0975
-4.1147 islamiste	-0.0957
-4.4159 isolement	-0.1090
-4.4159 isolée	-0.1174
-4.4159 isolés	-0.1158
-3.8137 israélien	-0.3439
-4.4159 israéliens	-0.1117
-4.4159 issue	-0.1193
-4.1147 issus	-0.1075
-4.4159 italien	-0.1116
-3.0734 j'	-0.5778
-3.2397 jamais	-0.0775
-4.1147 jambes	-0.1161
-4.1147 janvier	-0.1115
-4.4159 japonais	-0.1192
-4.4159 japonaise	-0.1010
-4.1147 jargon	-0.1132
-4.4159 jaser	-0.0975
-4.4159 jaunes	-0.1162
-3.7168 jazz	-0.0993
-2.6449 je	-0.4218
-4.4159 jette	-0.1165
-4.4159 jetée	-0.1182
-3.9387 jeu	-0.1038
-4.4159 jeudi	-0.1173
-3.6376 jeune	-0.1615
-3.7168 jeunes	-0.2888
-4.1147 jeunesse	-0.1105
-4.4159 joint	-0.1193
-4.1147 joli	-0.2416
-4.1147 joue	-0.1166
-3.7168 jouer	-0.1534
-4.4159 joueur	-0.1185
-4.4159 joueurs	-0.1191
-4.4159 joueuses	-0.1010
-4.4159 jouions	-0.1117
-3.2117 jour	-0.1107
-3.1147 journal	-0.2875
-4.1147 journalistes	-0.1176
-4.1147 journaux	-0.1115
-3.4158 journée	-0.1458
-3.4158 jours	-0.0604
-3.9387 joué	-0.0815
-3.9387 judiciaire	-0.0945
-4.4159 judicieusement	-0.1193
-4.4159 juger	-0.1010
-4.4159 jugez	-0.1192
-4.4159 jugés	-0.1166
-4.4159 juifs	-0.1158
-3.8137 juillet	-0.1620
-4.4159 juin	-0.1181
-4.4159 juives	-0.1167
-4.4159 junior	-0.1192
-4.4159 jure	-0.1174
-4.4159 jurent	-0.1193
-3.8137 jusqu'	-0.2609
-3.4158 jusqu'à	-0.2199
-3.8137 juste	-0.1120
-4.1147 justement	-0.1187
-3.8137 justice	-0.1633
-4.1147 justifier	-0.0886
-4.4159 jute	-0.1166
-3.5127 kilomètres	-0.3431
-4.1147 kurdes	-0.0975
-4.4159 kyrielle	-0.1010
-1.7168 l'	-0.3482
-3.3018 l'a	-0.1552
-4.1147 l'ai	-0.1190
-4.1147 l'avez	-0.1188
-3.4158 l'on	-0.1166
-3.5707 l'ont	-0.2800
-1.5701 la	-0.3707
-3.9387 laboratoire	-0.2098
-4.4159 laboratoires	-0.0975
-4.4159 lacéré	-0.1175
-4.4159 laissait	-0.1167
-4.4159 laisse	-0.1186
-4.4159 laisser	-0.1193
-4.4159 laissera	-0.1118
-4.4159 laissez	-0.1193
-4.4159 lamente	-0.1145
-4.1147 lance	-0.2586
-4.4159 lancements	-0.1192
-4.4159 lancer	-0.1153
-4.4159 lancé	-0.1193
-3.8137 langue	-0.1153
-3.8137 langues	-0.1055
-4.4159 lançant	-0.1150
-4.4159 laquelle	-0.1192
-4.4159 largage	-0.0975
-4.4159 large	-0.1010
-3.8137 largement	-0.1191
-4.4159 largue	-0.1150
-4.4159 larmoyant	-0.1193
-4.1147 lasse	-0.2608
-4.4159 lavé	-0.1010
-1.6297 le	-0.2543
-4.1147 leader	-0.0932
-4.4159 lecteurs	-0.1153
-4.1147 lendemain	-0.1158
-4.4159 lequel	-0.0975
-1.7587 les	-0.2325
-4.1147 lesquels	-0.1097
-3.6376 lettre	-0.3092
-2.8843 leur	-0.1181
-3.1370 leurs	-0.1165
-4.4159 levons	-0.1010
-4.4159 levée	-0.1192
-3.9387 leçon	-0.0780
-4.1147 leçons	-0.0783
-4.4159 liaison	-0.1175
-3.9387 liberté	-0.0882
-4.4159 libertés	-0.1116
-4.1147 librairie	-0.1087
-4.4159 libre	-0.1116
-4.4159 libres	-0.1116
-4.4159 libère	-0.1190
-3.9387 libéral	-0.1149
-4.4159 libérateurs	-0.1187
-3.9387 libération	-0.1688
-4.1147 libéraux	-0.1158
-4.4159 libérer	-0.1117
-4.1147 libéré	-0.1174
-4.4159 libérés	-0.1175
-4.4159 lien	-0.1175
-4.4159 liens	-0.1175
-3.8137 lieu	-0.1713
-4.1147 lieux	-0.0954
-3.7168 ligne	-0.0951
-4.4159 limite	-0.1118
-4.4159 linguistique	-0.1182
-4.4159 lion	-0.1010
-4.4159 lionceau	-0.1158
-4.4159 lire	-0.1169
-4.4159 lisant	-0.1187
-4.4159 liste	-0.1178
-3.9387 lit	-0.1111
-4.4159 lits	-0.1162
-4.4159 littoral	-0.1010
-3.4615 livre	-0.0789
-4.4159 livres	-0.1010
-4.4159 lièvres	-0.1182
-4.4159 locales	-0.1153
-4.4159 localisés	-0.1175
-4.1147 locaux	-0.0783
-4.4159 locuteurs	-0.1178
-4.4159 logiquement	-0.1191
-3.6376 loi	-0.0622
-3.7168 loin	-0.0860
-4.4159 londoniens	-0.1164
-4.1147 long	-0.2451
-4.4159 longue	-0.1192
-4.4159 lorgnant	-0.1075
-4.1147 lors	-0.2594
-4.1147 lorsque	-0.1117
-4.1147 lourdement	-0.1193
-4.1147 lourds	-0.1166
-4.4159 loyale	-0.1169
-4.4159 loyauté	-0.1153
-4.4159 lu	-0.1192
-4.4159 lucide	-0.1193
-4.1147 lucratif	-0.0938
-2.8973 lui	-0.1291
-3.7168 lui-même	-0.1139
-3.9387 lumière	-0.0981
-3.8137 lundi	-0.0967
-4.4159 lutte	-0.1190
-4.4159 lutter	-0.1190
-3.9387 lycée	-0.0967
-4.4159 lycéenne	-0.1010
-4.1147 lycéens	-0.1157
-2.8843 là	-0.1062
-4.4159 là-bas	-0.1185
-4.4159 lâcherait	-0.1090
-4.4159 lâché	-0.1190
-3.9387 législatives	-0.1688
-4.4159 légère	-0.1165
-4.4159 légèrement	-0.1192
-3.9387 m'	-0.1192
-4.1147 m'a	-0.1181
-4.4159 ma	-0.1193
-4.4159 macabres	-0.0975
-4.4159 mademoiselle	-0.0975
-3.7168 magasins	-0.3696
-3.6376 magazine	-0.0813
-4.4159 maillot	-0.1010
-3.8137 main	-0.0729
-4.1147 mains	-0.1148
-3.0540 maintenant	-0.0653
-3.9387 maintien	-0.4375
-4.1147 maire	-0.1010
-4.4159 mairie	-0.1010
-2.3864 mais	-0.1038
-3.3744 maison	-0.2942
-4.4159 maisons	-0.1190
-4.4159 majeure	-0.1158
-4.4159 majoritaire	-0.0975
-3.7168 majorité	-0.1117
-4.1147 mal	-0.1074
-4.1147 malade	-0.1152
-4.1147 malades	-0.1100
-3.7168 maladie	-0.1179
-3.9387 maladies	-0.0999
-4.4159 malgré	-0.1187
-4.4159 malheureusement	-0.1118
-4.4159 mandat	-0.1191
-4.1147 manger	-0.0932
-4.4159 manifester	-0.1175
-4.1147 manifesté	-0.1184
-4.4159 manipulation	-0.1193
-3.8137 manière	-0.3260
-4.4159 manières	-0.1010
-4.4159 manquaient	-0.1182
-4.4159 manque	-0.1010
-4.4159 manquent	-0.1167
-4.4159 manquées	-0.1175
-3.9387 marathon	-0.0984
-4.4159 marchait	-0.1167
-4.4159 marchandise	-0.1193
-3.9387 marche	-0.1084
-4.4159 marcher	-0.0975
-4.4159 marché	-0.0975
-4.4159 marchés	-0.1193
-3.8137 mardi	-0.0939
-4.4159 mare	-0.1010
-4.4159 marge	-0.0975
-4.4159 marginale	-0.1166
-4.4159 mariage	-0.1193
-4.1147 marine	-0.1172
-4.4159 mariner	-0.1192
-4.4159 marins	-0.1118
-4.4159 marié	-0.1145
-4.4159 marmite	-0.1010
-4.4159 marre	-0.1162
-4.1147 mars	-0.1115
-4.4159 marseillais	-0.1180
-4.1147 martyrisé	-0.1090
-4.4159 masquent	-0.1090
-4.1147 masse	-0.1109
-4.1147 massive	-0.1121
-4.4159 massue	-0.1158
-4.4159 massés	-0.1191
-4.1147 match	-0.1093
-2.9244 matin	-0.1325
-4.1147 matinée	-0.0895
-4.4159 matière	-0.1118
-4.4159 maturité	-0.0975
-4.4159 matériel	-0.1116
-4.4159 mauvais	-0.1193
-3.9387 mauvaise	-0.4557
-4.4159 maux	-0.0975
-4.4159 maximales	-0.1193
-4.4159 maîtrise	-0.1193
-3.5707 me	-0.1189
-4.4159 meilleure	-0.1150
-4.1147 membre	-0.0968
-3.9387 membres	-0.1874
-3.9387 menace	-0.1884
-4.4159 menaces	-0.1193
-4.4159 menacée	-0.1175
-4.4159 mentaient	-0.1167
-4.4159 mention	-0.1010
-4.4159 mené	-0.1150
-4.1147 menés	-0.1171
-4.1147 mercenaires	-0.1135
-3.0008 merci	-0.2099
-4.4159 mercredi	-0.1116
-4.4159 merde	-0.0975
-4.1147 mes	-0.2633
-3.5707 message	-0.1483
-4.1147 messages	-0.1193
-4.4159 messianisme	-0.1193
-4.4159 mesure	-0.1192
-4.4159 mesurerez	-0.1075
-3.9387 mesures	-0.1007
-3.5707 met	-0.1365
-4.4159 mets	-0.1165
-4.4159 metteur	-0.1137
-4.4159 mettra	-0.1137
-3.4615 mettre	-0.2107
-4.1147 meurt	-0.0975
-4.4159 meurtrier	-0.1010
-3.2397 midi	-0.1233
-4.4159 midi-pyrénéennes	-0.1193
-4.1147 mieux	-0.2607
-4.4159 mignons	-0.1160
-3.6376 milieu	-0.1361
-4.1147 milieux	-0.1162
-3.5127 militaire	-0.0952
-3.4615 militaires	-0.1426
-4.4159 militant	-0.1118
-4.4159 militante	-0.1183
-4.1147 militants	-0.1109
-2.7082 mille	-0.3696
-4.1147 milliards	-0.0978
-4.4159 millier	-0.1153
-4.4159 milliers	-0.1010
-3.9387 million	-0.1126
-3.4615 millions	-0.2900
-4.4159 mince	-0.1183
-4.4159 mine	-0.1162
-2.8247 ministre	-0.2856
-3.7168 ministres	-0.0867
-3.5707 ministère	-0.2069
-4.4159 ministères	-0.1010
-4.1147 minorité	-0.1117
-4.4159 minorités	-0.1116
-4.1147 minuit	-0.1127
-3.8137 minute	-0.1511
-3.5127 minutes	-0.2308
-4.4159 mirador	-0.1117
-4.4159 miro	-0.1193
-3.7168 mis	-0.0999
-4.1147 mise	-0.2578
-4.4159 mises	-0.1137
-4.1147 missile	-0.1160
-3.8137 mission	-0.3260
-4.4159 mobile	-0.1192
-4.4159 mobilisées	-0.0975
-4.4159 mode	-0.1010
-4.4159 moderne	-0.1193
-4.1147 modeste	-0.1010
-4.4159 modèle	-0.1193
-4.1147 modération	-0.2557
-4.4159 modérée	-0.1010
-4.4159 modérés	-0.1181
-3.4615 moi	-0.0901
-2.9534 moins	-0.1372
-3.1605 mois	-0.1849
-4.1147 moitié	-0.1188
-4.1147 mollahs	-0.1115
-3.2397 moment	-0.1362
-4.4159 moment-même	-0.1153
-4.4159 moments	-0.1010
-3.6376 mon	-0.1189
-2.8843 monde	-0.2457
-4.1147 mondiale	-0.2451
-4.4159 mondiales	-0.1184
-4.4159 mondialisation	-0.0975
-4.4159 monnaie	-0.1193
-4.4159 monsieur	-0.1010
-4.4159 montant	-0.1189
-4.4159 monte	-0.1188
-4.4159 monter	-0.1175
-4.1147 montrant	-0.1153
-4.4159 montre	-0.1160
-3.8137 montrer	-0.1163
-4.4159 montré	-0.1193
-4.4159 montrée	-0.1153
-4.4159 monts	-0.1010
-4.4159 monétaire	-0.1192
-4.1147 moralement	-0.1191
-4.1147 morceaux	-0.1135
-4.4159 mordent	-0.0975
-3.9387 morsure	-0.1885
-3.7168 mort	-0.0925
-4.4159 morte	-0.0975
-4.4159 mortel	-0.1189
-4.4159 mortelle	-0.0975
-4.4159 mortels	-0.0975
-3.4615 morts	-0.2442
-4.4159 mosquée	-0.1185
-4.1147 mosquées	-0.1189
-4.4159 mot	-0.1153
-4.4159 motion	-0.1010
-4.4159 motions	-0.1116
-4.1147 motivation	-0.0975
-4.4159 moto	-0.1169
-3.8137 mots	-0.0774
-4.4159 mou	-0.1193
-4.4159 moucher	-0.0975
-4.4159 mouiller	-0.1165
-4.1147 mourir	-0.1114
-4.4159 mourra	-0.1189
-4.4159 moustache	-0.1184
-4.4159 mouvementée	-0.0975
-4.1147 moyen	-0.0978
-3.8137 moyenne	-0.1157
-3.9387 moyens	-0.1113
-4.4159 mue	-0.1137
-4.4159 muet	-0.0975
-4.4159 multilatérales	-0.1166
-4.4159 multiplier	-0.1117
-4.4159 multitude	-0.1010
-4.1147 mur	-0.2451
-4.4159 muscles	-0.1166
-4.4159 musicales	-0.1182
-4.4159 musicien	-0.1193
-4.4159 musiciens	-0.1193
-3.7168 musique	-0.1190
-4.4159 musiques	-0.1193
-3.9387 musulman	-0.1861
-4.4159 musulmans	-0.1193
-4.4159 musées	-0.1182
-4.4159 mutisme	-0.0975
-4.4159 mutuelle	-0.1150
-4.4159 myocarde	-0.1185
-4.4159 mythique	-0.1010
-4.1147 mère	-0.0997
-4.1147 mètres	-0.1118
-4.1147 médecin	-0.1099
-4.1147 médecine	-0.0894
-3.5127 médecins	-0.1813
-4.4159 médiamétrie	-0.0975
-4.4159 médias	-0.0975
-4.4159 médiatique	-0.1145
-4.4159 médical	-0.0975
-4.4159 médicale	-0.1090
-4.1147 médicalement	-0.0972
-4.4159 médicament	-0.1184
-4.4159 médicaments	-0.1158
-4.4159 médiocre	-0.1153
-4.4159 méditerranéen	-0.1090
-4.4159 mélodie	-0.1193
-4.4159 mélodique	-0.0975
-4.4159 mémoire	-0.1193
-3.9387 mémorial	-0.4375
-4.4159 mépris	-0.1150
-4.4159 mériterait	-0.1145
-4.4159 méthode	-0.1158
-4.1147 méthodes	-0.2594
-4.4159 métier	-0.1175
-4.4159 métissages	-0.1181
-3.5127 météo	-0.2507
-4.4159 mêlé	-0.1187
-2.7530 même	-0.0840
-3.9387 mêmes	-0.2098
-4.4159 mûr	-0.1075
-2.8595 n'	-0.2415
-2.9686 n'a	-0.6247
-4.4159 n'en	-0.1193
-3.3018 n'est	-0.6262
-4.4159 narguer	-0.1075
-3.8137 natale	-0.3181
-3.4615 nationale	-0.2867
-4.1147 nationalistes	-0.2634
-3.8137 nature	-0.0803
-4.4159 naturel	-0.1010
-4.1147 naufrage	-0.2594
-4.1147 navire	-0.2634
-4.4159 nazisme	-0.0975
-2.4713 ne	-0.1662
-4.4159 nettement	-0.1193
-2.8360 neuf	-0.3290
-4.4159 neutralisation	-0.1010
-4.1147 nez	-0.1193
-3.3366 ni	-0.1208
-4.4159 nid	-0.1010
-4.4159 nie	-0.1137
-3.9387 niveau	-0.0967
-3.9387 noir	-0.1057
-3.9387 noire	-0.1080
-4.1147 nom	-0.1174
-4.4159 nomade	-0.1185
-4.1147 nombre	-0.0978
-3.7168 nombreux	-0.1628
-4.4159 nommer	-0.1192
-3.2696 non	-0.1379
-4.4159 non-fumeur	-0.1191
-3.2397 nord	-0.1515
-4.1147 nord-est	-0.1152
-4.4159 nordistes	-0.1180
-4.1147 normal	-0.1041
-4.4159 normale	-0.1153
-4.4159 normalement	-0.1192
-4.4159 normalisation	-0.1180
-4.4159 normalité	-0.1192
-3.3744 nos	-0.1188
-3.2117 notamment	-0.0895
-4.1147 noter	-0.1119
-3.2117 notre	-0.1332
-3.9387 nourri	-0.1884
-4.4159 nourriture	-0.0975
-2.5769 nous	-0.1794
-3.2696 nouveau	-0.1310
-4.4159 nouveauté	-0.1169
-4.1147 nouveaux	-0.1151
-3.9387 nouvel	-0.1192
-3.4615 nouvelle	-0.1178
-3.5707 nouvelles	-0.1518
-4.1147 novembre	-0.1115
-3.4615 nuages	-0.1443
-3.9387 nuageux	-0.0784
-4.4159 nucléaire	-0.1169
-3.7168 nuit	-0.1416
-3.3018 numéro	-0.3200
-4.4159 numéros	-0.1145
-4.4159 né	-0.1137
-4.1147 néanmoins	-0.1140
-4.1147 nécessaire	-0.0783
-4.4159 nécessairement	-0.1169
-4.4159 nécessaires	-0.0975
-3.9387 nécessité	-0.2016
-4.4159 néfaste	-0.1118
-4.4159 négligences	-0.0975
-4.4159 négociations	-0.1193
-4.4159 négocient	-0.1175
-3.7168 objectif	-0.1680
-4.1147 objet	-0.1004
-4.4159 obligations	-0.1168
-4.4159 obligatoire	-0.1191
-4.4159 oblige	-0.1090
-4.4159 obligés	-0.1010
-4.4159 observateur	-0.1010
-4.4159 observateurs	-0.1193
-4.4159 obtenir	-0.1150
-4.4159 obtiendrons	-0.0975
-4.4159 obtient	-0.1010
-4.4159 obésité	-0.0975
-3.9387 occasion	-0.0981
-4.4159 occidentales	-0.1118
-4.1147 occulte	-0.1158
-4.4159 occulter	-0.0975
-4.4159 occuper	-0.1185
-4.4159 occupée	-0.1191
-4.1147 occurrence	-0.1071
-4.4159 octobre	-0.1185
-3.9387 océan	-0.1009
-4.4159 odyssées	-0.1193
-4.4159 oeillet	-0.1166
-4.4159 oeuvre	-0.1118
-4.1147 off	-0.1180
-4.4159 offensif	-0.1160
-3.9387 offensive	-0.1158
-4.4159 officielle	-0.1153
-3.9387 officiellement	-0.1192
-3.8137 officiels	-0.1056
-4.4159 officier	-0.1193
-4.4159 offre	-0.1193
-3.8137 oh	-0.1104
-3.9387 olive	-0.0893
-4.4159 ombre	-0.1010
-4.4159 omettent	-0.1010
-4.4159 omniprésentes	-0.1181
-2.3439 on	-0.3687
-4.4159 oncle	-0.1193
-4.4159 ondées	-0.1166
-2.6834 ont	-0.1689
-4.1147 onze	-0.2634
-4.4159 ophtalmologie	-0.1118
-3.9387 opinion	-0.0892
-4.4159 opportun	-0.1010
-4.1147 opposants	-0.1181
-4.4159 oppose	-0.1165
-4.4159 opposent	-0.1192
-4.4159 opposer	-0.1118
-4.4159 opposeraient	-0.1167
-4.1147 opposition	-0.0975
-4.4159 optimisme	-0.0975
-4.4159 optimiste	-0.1166
-4.4159 optimistes	-0.1192
-4.4159 opus	-0.1010
-4.4159 opération	-0.1193
-3.4615 opérations	-0.2716
-3.9387 or	-0.1157
-4.4159 orale	-0.1150
-4.4159 orange	-0.1117
-4.4159 orchestre	-0.1185
-4.1147 ordinaire	-0.1184
-3.1853 ordre	-0.1200
-4.4159 oreille	-0.1166
-3.8137 organisation	-0.1847
-3.7168 organisations	-0.1712
-4.1147 organise	-0.1075
-4.4159 organisme	-0.1192
-4.4159 orienté	-0.1173
-4.4159 orientés	-0.1117
-4.4159 origan	-0.1193
-4.4159 originaire	-0.1010
-4.4159 originaires	-0.0975
-4.4159 origine	-0.1010
-4.1147 orphelin	-0.0975
-4.4159 ose	-0.1191
-4.4159 osent	-0.1192
-4.4159 osera	-0.1090
-4.4159 otage	-0.0975
-2.7345 ou	-0.1392
-4.4159 ouais	-0.1193
-4.4159 oubli	-0.1168
-3.9387 oublier	-0.0961
-3.7168 ouest	-0.1219
-3.0540 oui	-0.1751
-4.4159 ourdou	-0.1153
-4.1147 outre	-0.1081
-4.1147 ouvert	-0.1184
-3.8137 ouverte	-0.1109
-4.4159 ouvertement	-0.1193
-4.4159 ouverts	-0.1191
-4.4159 ouverture	-0.1187
-4.4159 ouvrages	-0.1182
-4.4159 ouvre	-0.1186
-4.4159 ouvrez	-0.1075
-4.4159 ouvrir	-0.1191
-2.9844 où	-0.2106
-4.4159 pacifier	-0.0975
-4.4159 pacifique	-0.1118
-4.4159 pactole	-0.1153
-4.4159 pagaille	-0.1193
-3.9387 pages	-0.1119
-4.4159 pagesjaunes	-0.1162
-3.6376 pagesjaunes.fr	-0.1295
-4.4159 paieront	-0.1191
-4.4159 paisible	-0.1010
-3.6376 paix	-0.1444
-4.4159 palais	-0.1010
-4.4159 palestiniennes	-0.1090
-4.4159 palette	-0.1193
-4.4159 panne	-0.1188
-4.4159 paquet	-0.1010
-2.3864 par	-0.4334
-4.4159 paradis	-0.1153
-4.4159 paradoxal	-0.0975
-4.4159 parallèlement	-0.1173
-3.8137 paraît	-0.1079
-4.4159 paraîtrait	-0.1193
-4.1147 parce_qu'elle	-0.1192
-4.4159 parce_qu'elles	-0.1193
-4.4159 parce_qu'il	-0.1188
-3.4615 parce_que	-0.1489
-4.4159 parcours	-0.1189
-3.9387 pardon	-0.0894
-4.4159 pardonnent	-0.1167
-4.4159 pardonner	-0.1193
-4.4159 pardonnerait	-0.1185
-4.4159 pareil	-0.1186
-4.4159 pareille	-0.1116
-3.7168 parents	-0.0918
-4.4159 parfaite	-0.0975
-3.6376 parfois	-0.1501
-4.4159 pari	-0.0975
-3.8137 parisienne	-0.3214
-4.4159 parié	-0.1166
-4.4159 parlaient	-0.1191
-4.4159 parlais	-0.1185
-3.5707 parle	-0.0871
-4.1147 parlent	-0.2416
-3.6376 parler	-0.1584
-4.4159 parlera	-0.1187
-4.4159 parlerai	-0.1183
-4.1147 parlerons	-0.2451
-4.4159 parliez	-0.1192
-4.4159 parlons	-0.1075
-3.8137 parlé	-0.0872
-4.1147 parmi	-0.1186
-3.9387 parole	-0.0865
-4.1147 paroles	-0.1193
-4.4159 pars	-0.1175
-3.7168 part	-0.0945
-4.1147 partageons	-0.2558
-4.4159 partagez	-0.1090
-4.4159 partagée	-0.0975
-4.4159 partenaires	-0.1193
-4.4159 partent	-0.1175
-3.2117 parti	-0.5638
-3.8137 participation	-0.1764
-4.1147 participer	-0.2559
-4.4159 participons	-0.1167
-4.1147 participé	-0.2559
-4.4159 particu	-0.1189
-4.4159 particularité	-0.1162
-4.1147 particulier	-0.1088
-3.9387 particulièrement	-0.1152
-3.6376 partie	-0.0958
-4.1147 parties	-0.2634
-3.5707 partir	-0.2521
-4.4159 partis	-0.1191
-4.4159 partisans	-0.1187
-4.1147 partout	-0.0967
-4.1147 paru	-0.2632
-4.4159 parution	-0.1137
-2.2226 pas	-0.1394
-4.1147 passage	-0.1130
-4.4159 passagers	-0.1118
-4.4159 passages	-0.1193
-4.4159 passant	-0.1175
-3.3366 passe	-0.2321
-4.4159 passe-passe	-0.1168
-4.1147 passent	-0.1171
-3.9387 passer	-0.0971
-4.1147 passeur	-0.0978
-4.4159 passionné	-0.1010
-3.5707 passé	-0.0954
-4.4159 passés	-0.1173
-4.4159 paternaliste	-0.1174
-4.4159 pathologies	-0.1010
-4.4159 patience	-0.1183
-4.4159 patient	-0.1193
-4.4159 patiente	-0.1162
-4.4159 patients	-0.1179
-3.8137 patron	-0.2409
-4.4159 patrouille	-0.1192
-4.4159 patrouilles	-0.1193
-4.4159 pauvres	-0.1193
-4.4159 pauvreté	-0.1168
-4.1147 paye	-0.1073
-3.9387 payer	-0.0850
-4.4159 payeur	-0.0975
-2.8137 pays	-0.2280
-4.1147 paysage	-0.2629
-4.1147 payé	-0.1164
-4.1147 peine	-0.0933
-4.4159 pelleteuse	-0.1158
-3.4615 pendant	-0.2116
-4.4159 pendent	-0.0975
-3.7168 pense	-0.1594
-4.4159 pensent	-0.1192
-4.4159 penser	-0.0975
-4.4159 pensez	-0.1118
-4.4159 pensé	-0.1185
-4.4159 pensées	-0.1090
-4.4159 percé	-0.1150
-4.4159 perd	-0.1167
-4.1147 perdant	-0.1006
-4.4159 perdent	-0.1090
-3.9387 perdre	-0.1095
-3.8137 perdu	-0.0775
-4.4159 permettant	-0.1118
-4.4159 permettre	-0.1010
-4.4159 permettront	-0.1193
-4.4159 permis	-0.1118
-4.1147 personnage	-0.1158
-3.3744 personne	-0.1225
-4.4159 personnel	-0.1193
-4.4159 personnellement	-0.1183
-4.4159 personnels	-0.1175
-3.3018 personnes	-0.1788
-4.4159 persécutés	-0.1186
-4.4159 pertes	-0.1181
-4.4159 perturbations	-0.1137
-4.4159 perturbé	-0.1153
-4.4159 perturbée	-0.1153
-4.4159 perversité	-0.1010
-3.5707 petit	-0.1177
-3.6376 petite	-0.1189
-4.1147 petites	-0.1193
-3.8137 petits	-0.0974
-3.0356 peu	-0.2071
-4.4159 peuple	-0.1164
-4.4159 peuples	-0.1137
-3.6376 peur	-0.1299
-2.9844 peut	-0.2323
-3.5707 peut-être	-0.1023
-3.6376 peuvent	-0.1126
-4.4159 peux	-0.1174
-4.4159 phare	-0.1153
-3.8137 phase	-0.1074
-3.7168 photo	-0.0723
-4.4159 photographe	-0.1193
-4.1147 phrase	-0.1186
-4.4159 physique	-0.1193
-4.1147 physiquement	-0.1163
-4.4159 pic	-0.1162
-4.1147 pieds	-0.1147
-4.4159 pierres	-0.0975
-4.1147 pillage	-0.1090
-3.5127 pillages	-0.1783
-4.4159 pillard	-0.1167
-3.8137 pillards	-0.0957
-4.4159 pillé	-0.1160
-4.1147 pilote	-0.0974
-3.9387 pilotes	-0.2065
-4.4159 pincée	-0.1010
-3.9387 pire	-0.1152
-4.4159 pièges	-0.0975
-4.4159 piégés	-0.1173
-3.6376 place	-0.1306
-4.4159 placé	-0.1189
-4.1147 placés	-0.1109
-4.4159 plafond	-0.1162
-4.4159 plaindre	-0.1010
-4.1147 plaine	-0.1117
-4.4159 plainte	-0.1190
-4.4159 plaire	-0.1118
-3.9387 plaisir	-0.0992
-3.5707 plan	-0.1508
-4.4159 planante	-0.0975
-4.4159 planer	-0.1116
-4.1147 planète	-0.2416
-4.4159 plateau	-0.1010
-4.4159 plats	-0.0975
-4.4159 play	-0.1193
-4.1147 plaît	-0.0967
-4.4159 plein	-0.1193
-4.4159 pleine	-0.1193
-4.4159 pleure	-0.1191
-2.3666 plus	-0.1362
-3.4615 plusieurs	-0.1768
-3.6376 plutôt	-0.0882
-4.4159 plébiscité	-0.1175
-3.8137 pneumonie	-0.4655
-3.6376 pneumopathie	-0.4704
-4.4159 poche	-0.1183
-3.7168 poids	-0.2254
-4.4159 poignardé	-0.1175
-3.4158 point	-0.2238
-4.4159 pointe	-0.1010
-3.8137 points	-0.1616
-4.1147 poisson	-0.1189
-3.2397 police	-0.1798
-4.1147 policier	-0.1181
-3.3366 policiers	-0.1433
-2.9686 politique	-0.2223
-4.4159 politiquement	-0.1192
-3.6376 politiques	-0.0634
-4.4159 politologue	-0.1116
-4.4159 pollueur	-0.1193
-4.1147 polémique	-0.0968
-4.4159 pompiers	-0.1116
-4.4159 pont	-0.1010
-4.4159 pontes	-0.1010
-4.4159 populaire	-0.1192
-4.1147 popularité	-0.1150
-4.4159 population	-0.1175
-4.4159 populations	-0.1191
-4.4159 portait	-0.0975
-3.4158 porte	-0.1077
-4.1147 porte-avions	-0.1179
-4.4159 porte-parole	-0.1010
-4.4159 portent	-0.0975
-4.1147 porteur	-0.1183
-4.4159 porteuse	-0.1010
-4.1147 portrait	-0.2594
-4.4159 portraits	-0.1150
-4.4159 porté	-0.1192
-4.1147 portée	-0.1007
-3.8137 pose	-0.1015
-4.4159 poser	-0.1145
-3.9387 posera	-0.1923
-3.9387 position	-0.0949
-4.4159 positionnement	-0.1118
-4.4159 possibilités	-0.1189
-3.8137 possible	-0.0877
-4.1147 possibles	-0.0974
-4.1147 possède	-0.1135
-4.4159 posséder	-0.1150
-4.4159 poste	-0.1191
-4.4159 poudre	-0.1193
-4.4159 poulet	-0.1193
-4.4159 poulets	-0.1137
-2.2036 pour	-0.3125
-3.3744 pour-cent	-0.2371
-3.3366 pourquoi	-0.0837
-4.1147 pourra	-0.1187
-4.4159 pourraient	-0.1193
-4.4159 pourrais	-0.1192
-3.9387 pourrait	-0.1192
-4.4159 pourrez	-0.1192
-4.4159 poursuit	-0.1180
-3.6376 pourtant	-0.0964
-4.4159 pousse	-0.1191
-4.4159 poussent	-0.1174
-4.4159 pousser	-0.1187
-4.4159 poussées	-0.1166
-4.4159 poussés	-0.1175
-4.4159 pouvaient	-0.1192
-4.1147 pouvez	-0.1177
-3.3744 pouvoir	-0.0675
-4.4159 poésie	-0.1010
-4.4159 pr	-0.1165
-4.1147 pragmatisme	-0.1186
-4.4159 praticiens	-0.1116
-4.4159 pratiquants	-0.1166
-3.9387 pratiquement	-0.1162
-4.4159 pratiqué	-0.1118
-3.0936 premier	-0.2122
-3.9387 premiers	-0.1192
-3.2117 première	-0.2358
-4.1147 premières	-0.1192
-4.1147 prend	-0.1117
-3.5707 prendre	-0.1096
-4.4159 prenez	-0.1145
-4.4159 prennent	-0.1117
-3.3744 presque	-0.1461
-3.7168 presse	-0.1150
-4.4159 pressez	-0.1145
-3.8137 pression	-0.1773
-4.4159 prestigieux	-0.1192
-3.7168 preuve	-0.1644
-4.4159 prie	-0.0975
-4.1147 principal	-0.1192
-4.4159 principale	-0.1010
-4.4159 principalement	-0.1173
-4.4159 principales	-0.1193
-4.4159 principaux	-0.1193
-4.4159 principe	-0.1118
-4.4159 principes	-0.1010
-4.4159 printanier	-0.1185
-4.4159 printanières	-0.1193
-3.9387 printemps	-0.1836
-4.1147 priori	-0.1041
-4.4159 priorité	-0.1150
-4.4159 priorités	-0.0975
-3.5707 pris	-0.0798
-4.1147 prise	-0.2451
-4.1147 prises	-0.0933
-3.4615 prison	-0.0814
-3.4158 prisonniers	-0.1242
-3.5707 prisons	-0.2328
-4.4159 privant	-0.1117
-4.4159 privilégiée	-0.1175
-3.9387 prix	-0.1171
-3.9387 pro-	-0.2093
-4.4159 probable	-0.0975
-3.9387 probablement	-0.1031
-4.1147 probables	-0.0962
-3.8137 problème	-0.1135
-3.8137 problèmes	-0.0868
-4.1147 processus	-0.2451
-3.6376 prochaine	-0.1331
-4.1147 proche	-0.0965
-3.8137 proches	-0.1610
-3.8137 procès	-0.1851
-4.4159 procédures	-0.0975
-4.4159 procédé	-0.1118
-4.4159 prodige	-0.1191
-3.8137 producteurs	-0.4474
-4.4159 productions	-0.1193
-4.1147 produit	-0.1184
-4.4159 produits	-0.1191
-4.1147 professionnelles	-0.1183
-3.9387 profite	-0.2040
-4.4159 profiter	-0.1117
-4.4159 profité	-0.1193
-4.4159 profonde	-0.0975
-4.4159 profondément	-0.1193
-3.9387 profs	-0.0882
-4.4159 programmation	-0.1166
-3.7168 programme	-0.0857
-4.4159 programmée	-0.1175
-4.4159 progresser	-0.1185
-4.4159 progression	-0.1191
-4.4159 progressé	-0.1169
-3.8137 projet	-0.3233
-4.4159 projeté	-0.1188
-4.4159 prolongations	-0.1192
-4.4159 promenade	-0.1153
-4.4159 promesse	-0.1010
-4.4159 promesses	-0.1193
-4.4159 promettant	-0.1191
-4.1147 promis	-0.1061
-4.4159 promos	-0.1010
-4.4159 promptes	-0.1118
-4.4159 prononcer	-0.1185
-4.4159 pronostic	-0.1162
-4.4159 propagation	-0.1153
-3.7168 propos	-0.1712
-3.7168 propose	-0.1430
-4.4159 proposer	-0.1192
-4.1147 propositions	-0.0990
-4.4159 propre	-0.1193
-3.9387 propres	-0.1180
-4.4159 prospère	-0.1153
-4.4159 prostitution	-0.0975
-4.4159 protagonistes	-0.1153
-4.1147 protection	-0.1161
-4.4159 protéger	-0.1075
-4.4159 protégé	-0.1173
-4.1147 provenance	-0.2451
-4.4159 provenant	-0.1153
-3.7168 province	-0.1448
-4.4159 provinces	-0.1181
-4.4159 provinciales	-0.0975
-4.4159 provoquant	-0.1184
-4.4159 provoque	-0.1150
-4.4159 provoquent	-0.1150
-4.4159 provoquer	-0.1109
-4.4159 provoqué	-0.1145
-4.4159 prudemment	-0.1160
-3.3366 près	-0.8747
-4.4159 précaution	-0.1185
-4.4159 précipitent	-0.1166
-4.4159 précipiter	-0.1153
-4.4159 préciser	-0.1075
-4.4159 précisé	-0.1116
-4.1147 précisément	-0.1161
-4.1147 précédent	-0.0974
-4.4159 précédente	-0.1193
-4.4159 précédé	-0.1192
-4.4159 prédécesseurs	-0.0975
-4.4159 préfecture	-0.1153
-4.4159 préfère	-0.1176
-4.1147 préfèrent	-0.0960
-4.4159 préférera	-0.1193
-4.4159 prégnance	-0.1193
-4.4159 prélèvements	-0.1153
-4.4159 préoccupantes	-0.1193
-4.4159 préoccupations	-0.1192
-3.8137 présent	-0.1153
-3.8137 présente	-0.0955
-4.4159 présentent	-0.1145
-4.4159 présenter	-0.1180
-4.4159 présentera	-0.1180
-4.4159 présentés	-0.1175
-4.4159 préservation	-0.1010
-4.4159 préside	-0.1075
-4.4159 présidence	-0.1010
-3.0540 président	-0.2671
-3.5127 présidentielle	-0.1747
-4.1147 présidents	-0.2632
-4.1147 prétend	-0.2627
-3.9387 prétexte	-0.0944
-4.4159 prévenir	-0.1169
-4.4159 préventif	-0.1175
-4.4159 prévention	-0.1175
-4.4159 prévenu	-0.1192
-4.4159 prévu	-0.0975
-4.1147 prêt	-0.1111
-4.4159 prône	-0.1109
-4.4159 pseudonyme	-0.0975
-4.4159 psychologie	-0.1010
-4.4159 psychologique	-0.1193
-4.4159 psychose	-0.0975
-3.4158 pu	-0.1065
-3.7168 public	-0.2653
-4.4159 publicité	-0.1193
-4.1147 publics	-0.1156
-4.4159 publie	-0.1137
-4.4159 publique	-0.0975
-4.1147 publié	-0.1049
-4.4159 publiés	-0.1185
-4.4159 pudeur	-0.1193
-2.9686 puis	-0.0839
-4.1147 puisqu'on	-0.1166
-3.9387 puisque	-0.0957
-4.4159 puissance	-0.1116
-4.4159 puissant	-0.1189
-4.4159 puisse	-0.1175
-4.4159 puissent	-0.1193
-4.4159 puits	-0.1189
-4.4159 pupitre	-0.0975
-3.6376 père	-0.0758
-4.4159 pédagogique	-0.0975
-4.4159 pédant	-0.1166
-4.1147 pénitentiaire	-0.1141
-4.4159 pénétrer	-0.1150
-4.4159 péril	-0.0975
-4.1147 période	-0.2451
-4.4159 périphérique	-0.1193
-3.2397 pétrole	-0.1022
-4.4159 pétroliers	-0.1162
-4.4159 pétrolière	-0.1193
-4.1147 pétrolières	-0.1190
-4.4159 pêle-mêle	-0.1010
-2.9534 qu'	-0.2613
-3.7168 qu'elle	-0.1158
-4.4159 qu'elles	-0.1178
-4.1147 qu'en	-0.1186
-2.7082 qu'il	-0.3647
-3.3744 qu'ils	-0.1629
-3.4158 qu'on	-0.1560
-3.7168 qu'à	-0.1943
-4.4159 quadrillé	-0.1010
-4.1147 qualifie	-0.1042
-4.4159 qualifié	-0.0975
-4.4159 qualifiés	-0.1166
-4.4159 qualité	-0.1193
-3.0178 quand	-0.4668
-4.4159 quant_au	-0.1192
-4.4159 quant_aux	-0.1191
-4.4159 quant_à	-0.1188
-4.1147 quarante	-0.1183
-3.8137 quarante-cinq	-0.1849
-4.4159 quarante-deux	-0.1191
-4.4159 quarante-neuf	-0.1182
-4.1147 quarante-sept	-0.1149
-3.9387 quarante-six	-0.2096
-3.9387 quarante-trois	-0.2068
-3.8137 quart	-0.1841
-3.9387 quartier	-0.0942
-4.4159 quasiment	-0.1193
-3.4615 quatorze	-0.0980
-3.1605 quatre	-0.2567
-3.1147 quatre-vingt	-0.2310
-2.1213 que	-0.3748
-4.4159 quechua	-0.1160
-3.7168 quel	-0.1151
-4.4159 quelle	-0.1162
-4.1147 quelqu'	-0.2586
-4.1147 quelque	-0.1191
-3.1147 quelques	-0.2392
-4.4159 quels	-0.1193
-3.2117 question	-0.1040
-3.9387 questions	-0.1139
-2.0977 qui	-0.2983
-3.6376 quinze	-0.1176
-4.4159 quinzième	-0.1192
-4.4159 quitte	-0.1075
-4.1147 quittent	-0.1084
-3.9387 quitté	-0.1967
-3.4158 quoi	-0.1114
-3.7168 quotidien	-0.2707
-4.4159 racisme	-0.1192
-3.9387 raconte	-0.1075
-4.4159 raconter	-0.1150
-4.4159 radieux	-0.0975
-3.5707 radio	-0.2551
-4.4159 radiographie	-0.1010
-4.4159 radiophonique	-0.0975
-3.7168 rafales	-0.0919
-3.5127 rage	-0.1093
-4.4159 raids	-0.1193
-3.5707 raison	-0.2092
-4.4159 raisonnable	-0.0975
-4.4159 raisonnement	-0.1010
-4.4159 raisonnements	-0.1192
-4.4159 raisonnent	-0.1190
-4.4159 raisonner	-0.0975
-4.4159 raisons	-0.1160
-4.1147 ralenti	-0.0975
-4.4159 ralentiront	-0.1187
-4.1147 ralentissements	-0.2607
-4.4159 rallier	-0.1192
-4.4159 rallierons	-0.1174
-4.4159 ramener	-0.1109
-4.4159 ranch	-0.1010
-3.8137 rapide	-0.1810
-3.9387 rapidement	-0.1054
-4.1147 rappel	-0.0990
-3.9387 rappeler	-0.1054
-4.1147 rappelle	-0.1166
-4.4159 rappellent	-0.1185
-4.4159 rappelons	-0.1160
-4.1147 rappelé	-0.1190
-3.5707 rapport	-0.1134
-4.4159 rapporter	-0.1010
-4.1147 rapports	-0.2451
-4.4159 rapproche	-0.1164
-4.1147 rares	-0.1191
-4.4159 rase	-0.1010
-4.4159 rassemble	-0.1192
-4.4159 rassembleur	-0.1153
-4.4159 rassemblée	-0.1075
-4.4159 rassurante	-0.1109
-4.4159 rassurer	-0.1075
-4.4159 rassuré	-0.0975
-4.4159 rate	-0.1075
-4.4159 ravagé	-0.1186
-4.4159 rebond	-0.1193
-4.4159 rebours	-0.1167
-4.4159 recensés	-0.0975
-4.1147 recette	-0.1116
-4.4159 recevaient	-0.1193
-4.4159 recevoir	-0.1189
-4.4159 recevra	-0.1193
-3.9387 recherche	-0.1158
-4.1147 rechercher	-0.1069
-4.4159 reconnais	-0.1109
-4.1147 reconnaissant	-0.0942
-4.4159 reconnaissent	-0.1117
-4.4159 reconnaît	-0.1010
-3.9387 reconstruction	-0.0961
-3.8137 reconstruire	-0.1039
-4.1147 record	-0.1121
-4.4159 recordman	-0.1153
-4.4159 records	-0.1153
-4.4159 recours	-0.1191
-4.4159 recrute	-0.1193
-4.4159 recrutement	-0.1166
-4.4159 recueillies	-0.1187
-3.9387 recueillis	-0.2040
-4.4159 redeviendra	-0.1188
-4.4159 redonner	-0.1153
-4.4159 redémarrage	-0.1150
-4.4159 refaire	-0.1165
-4.1147 refuge	-0.1141
-4.4159 refuse	-0.1186
-4.4159 refusent	-0.1175
-4.4159 refusé	-0.1010
-4.4159 regagné	-0.1187
-4.1147 regard	-0.1166
-4.4159 regarde	-0.1109
-4.1147 regards	-0.1164
-4.4159 reggae	-0.1185
-4.4159 registre	-0.1189
-4.1147 regret	-0.1153
-4.4159 regrette	-0.1075
-4.4159 rejetée	-0.1175
-4.1147 rejoignent	-0.0956
-4.4159 rejoint	-0.1109
-4.4159 relance	-0.1117
-4.4159 relatif	-0.1185
-4.1147 relation	-0.1192
-3.9387 relations	-0.1183
-4.1147 relativement	-0.1192
-4.4159 relayés	-0.1175
-4.4159 relevait	-0.1174
-3.7168 relever	-0.1547
-4.4159 relief	-0.0975
-4.1147 relève	-0.0929
-4.4159 remarquer	-0.1190
-4.4159 remet	-0.1182
-4.4159 remettent	-0.1010
-4.1147 remettre	-0.1088
-3.9387 remis	-0.1102
-4.4159 remise	-0.1137
-4.4159 remodeler	-0.1182
-4.4159 remplacer	-0.1187
-4.4159 remplissent	-0.1183
-4.1147 remporte	-0.1032
-3.9387 remportent	-0.4481
-4.4159 remporter	-0.1185
-4.4159 remportée	-0.1175
-3.9387 renard	-0.1147
-3.9387 renards	-0.0894
-4.1147 rencontre	-0.1190
-4.4159 rencontrera	-0.1090
-4.4159 rencontres	-0.1193
-4.4159 rencontré	-0.1192
-3.9387 rend	-0.1175
-3.5707 rendez	-0.9029
-4.1147 rendra	-0.1158
-3.9387 rendre	-0.2022
-3.9387 rendu	-0.1152
-4.4159 rendus	-0.1185
-4.4159 renforcé	-0.1150
-4.4159 renforcés	-0.0975
-4.4159 renier	-0.1191
-4.4159 renié	-0.0975
-4.4159 renouer	-0.1117
-4.1147 rentable	-0.0946
-4.4159 rente	-0.1010
-4.4159 rentre	-0.1189
-4.1147 rentrer	-0.1152
-4.4159 rentrée	-0.1193
-4.4159 rentrés	-0.1153
-4.4159 renverser	-0.1166
-4.4159 repart	-0.1175
-4.4159 repartie	-0.1137
-4.4159 repas	-0.1193
-4.4159 replie	-0.1181
-3.7168 reportage	-0.2597
-4.4159 repoussent	-0.1117
-4.1147 reprend	-0.1025
-4.4159 reprendra	-0.1185
-4.4159 reprendre	-0.1117
-4.4159 reprise	-0.1193
-4.4159 reproduisent	-0.1186
-4.4159 représen	-0.1117
-4.4159 représentant	-0.1010
-4.4159 représentants	-0.1193
-4.4159 représentative	-0.1010
-4.4159 représenter	-0.1176
-4.1147 repérer	-0.1154
-4.4159 repéré	-0.1137
-4.4159 rescapé	-0.1187
-4.4159 respect	-0.1158
-4.4159 respectabilité	-0.1118
-4.1147 respecte	-0.1189
-4.4159 responsabilité	-0.1193
-4.4159 responsabilités	-0.1116
-3.9387 responsable	-0.1905
-4.1147 responsables	-0.1152
-4.4159 ressemble	-0.0975
-4.4159 ressembler	-0.1118
-4.4159 ressort	-0.0975
-4.1147 ressources	-0.2634
-4.4159 restait	-0.1010
-4.4159 restaurant	-0.1145
-3.8137 restaurants	-0.0928
-3.3018 reste	-0.1211
-4.4159 restent	-0.1109
-3.8137 restera	-0.1109
-4.4159 restez	-0.1193
-4.4159 restituées	-0.1166
-4.4159 restés	-0.1193
-4.4159 retentissent	-0.1118
-4.4159 retenu	-0.1117
-4.1147 retenue	-0.1059
-4.4159 retombé	-0.1192
-4.4159 retombée	-0.1168
-3.2397 retour	-0.1323
-4.4159 retournera	-0.1167
-4.4159 retours	-0.1193
-4.1147 retrait	-0.0965
-4.1147 retraite	-0.0975
-3.8137 retrouve	-0.1769
-4.4159 retrouvent	-0.1118
-3.8137 retrouver	-0.0981
-4.1147 retrouvons	-0.1141
-4.4159 retrouvé	-0.1185
-4.4159 retrouvée	-0.1185
-4.1147 retrouvés	-0.1163
-4.1147 revanche	-0.1164
-4.4159 revenait	-0.1118
-4.4159 revendications	-0.1010
-3.7168 revenir	-0.1541
-4.4159 revenons	-0.1166
-4.4159 revenu	-0.1137
-4.4159 reverraient	-0.1191
-4.4159 revers	-0.1010
-4.4159 reviendra	-0.1167
-3.9387 reviennent	-0.1016
-3.9387 revient	-0.2071
-4.1147 revue	-0.1176
-4.4159 revues	-0.1193
-4.4159 revêtira	-0.1193
-3.9387 reçoit	-0.1068
-4.1147 reçu	-0.1144
-4.4159 reçus	-0.1137
-3.8137 riches	-0.1009
-4.1147 richesse	-0.1164
-3.9387 richesses	-0.0963
-3.2117 rien	-0.2054
-4.4159 rimes	-0.1168
-4.4159 rires	-0.1090
-3.8137 risque	-0.0977
-4.4159 rivages	-0.1010
-4.4159 riverains	-0.0975
-4.4159 riz	-0.1010
-4.4159 roi	-0.1193
-4.4159 rompre	-0.1075
-4.4159 rompu	-0.1185
-4.4159 roublard	-0.1193
-4.1147 rouge	-0.0975
-4.4159 roule	-0.1192
-4.1147 roulettes	-0.1190
-4.4159 rousse	-0.1182
-4.4159 routage	-0.1166
-3.4615 route	-0.1869
-4.4159 routes	-0.1193
-4.4159 rude	-0.0975
-4.1147 rue	-0.0975
-4.1147 rues	-0.1150
-4.4159 ruine	-0.1179
-4.4159 ruiner	-0.1186
-4.4159 rumeurs	-0.0975
-4.4159 russe	-0.1116
-4.1147 rythme	-0.1193
-4.4159 règlement	-0.1186
-3.9387 règles	-0.0967
-4.4159 règnent	-0.1153
-3.9387 réaction	-0.1913
-4.4159 réagir	-0.1174
-4.4159 réalisatrice	-0.0975
-4.4159 réaliste	-0.1116
-4.1147 réalisé	-0.1170
-3.8137 réalité	-0.0963
-4.4159 réapparition	-0.0975
-4.4159 rébellion	-0.1175
-4.4159 récemment	-0.1193
-4.4159 récent	-0.1193
-4.4159 récits	-0.1010
-4.4159 réclamer	-0.1090
-4.4159 réclusion	-0.1166
-4.4159 récupérer	-0.1190
-4.4159 récupérés	-0.1175
-4.4159 récurrente	-0.1185
-4.4159 rédacteur	-0.1137
-4.1147 rédaction	-0.2620
-4.4159 réduire	-0.1192
-4.4159 réelles	-0.0975
-4.4159 réformateurs	-0.1193
-4.1147 réforme	-0.1121
-4.4159 réfugié	-0.1193
-3.8137 réfugiés	-0.1635
-4.4159 référence	-0.1153
-3.9387 référendum	-0.1074
-3.1605 régime	-0.0714
-4.4159 régimes	-0.1160
-3.2696 région	-0.2230
-3.4158 régions	-0.2335
-3.9387 réglé	-0.1022
-4.4159 réglée	-0.1075
-4.4159 régner	-0.1109
-4.4159 réjouira	-0.1167
-4.4159 réjouissantes	-0.1175
-4.4159 répertorie	-0.1186
-4.4159 répliqué	-0.1193
-4.4159 répond	-0.1167
-4.1147 répondre	-0.2623
-4.4159 répondu	-0.1118
-3.8137 réponse	-0.1095
-4.4159 réponses	-0.1193
-3.9387 républicain	-0.1862
-4.4159 réputés	-0.1192
-3.9387 répète	-0.1045
-4.1147 réserve	-0.1108
-4.4159 réserves	-0.1193
-4.4159 résidence	-0.1193
-3.8137 résistance	-0.1092
-4.1147 résoudre	-0.1078
-4.1147 résultat	-0.1042
-3.5127 résultats	-0.1888
-4.4159 résumer	-0.1090
-3.5707 rétablir	-0.3464
-4.1147 rétablissement	-0.2451
-4.1147 rétrograde	-0.1192
-4.4159 réuni	-0.1118
-3.9387 réunion	-0.1103
-4.4159 réunir	-0.1166
-4.4159 réunis	-0.1185
-3.9387 réussi	-0.2017
-4.1147 réussir	-0.1112
-4.4159 réussit	-0.1118
-4.4159 réveil	-0.1010
-4.4159 révolution	-0.1193
-4.4159 révolutionnaire	-0.1165
-4.4159 révolutions	-0.1137
-4.4159 révélé	-0.1109
-4.1147 rêve	-0.0971
-4.4159 rôdeurs	-0.1193
-3.7168 rôle	-0.1454
-3.7168 s	-0.1042
-2.5127 s'	-0.1733
-3.6376 s'en	-0.1157
-3.3744 s'est	-0.1408
-2.8247 sa	-0.1494
-4.1147 sac	-0.0992
-4.4159 saccage	-0.1117
-4.4159 saccagé	-0.1116
-4.4159 sachant	-0.1160
-4.4159 sachez	-0.1160
-4.4159 sagement	-0.1090
-3.9387 sais	-0.1145
-4.4159 saisie	-0.1010
-3.5707 sait	-0.2298
-4.4159 salades	-0.0975
-4.1147 salauds	-0.1147
-4.4159 sales	-0.1158
