~o
<STREAMINFO> 1 39
<VECSIZE> 39<NULLD><MFCC_E_D_A><DIAGC>
~h "cinq"
<BEGINHMM>
<NUMSTATES> 6
<STATE> 2
<MEAN> 39
 -1.486549e+01 -1.676993e+00 2.928844e+00 -7.140662e+00 6.274506e+00 -7.385972e+00 2.643330e+00 -2.283164e+00 -6.365729e-01 1.574696e-01 2.194451e-01 -3.262184e-01 5.981570e-01 1.079392e+00 -9.926661e-02 1.263015e-01 3.050238e-01 -1.868465e-01 4.739082e-01 9.062720e-02 -3.499835e-02 -1.959729e-01 -3.746450e-01 1.902149e-01 -5.148522e-02 3.110426e-02 2.051249e-01 -3.010665e-02 -4.713091e-02 -3.378313e-02 -9.610018e-02 9.476510e-02 -7.273389e-02 -9.633701e-03 -9.027173e-02 -1.168495e-01 3.308305e-02 6.911090e-03 3.450819e-03
<VARIANCE> 39
 5.131162e+01 4.375647e+01 8.693316e+01 6.796501e+01 4.722893e+01 3.742402e+01 2.236466e+01 2.854530e+01 2.036139e+01 2.384338e+01 2.585897e+01 1.793917e+01 2.802370e-02 4.880070e+00 1.442251e+00 1.470334e+00 2.699092e+00 1.751410e+00 2.899819e+00 2.125317e+00 1.982518e+00 2.251284e+00 2.502615e+00 2.086480e+00 1.513632e+00 1.922942e-03 4.238415e-01 2.165537e-01 1.934973e-01 3.557086e-01 3.525458e-01 4.682667e-01 2.964133e-01 3.297846e-01 3.754113e-01 4.160698e-01 3.712676e-01 2.024108e-01 2.666991e-04
<GCONST> 9.191696e+01
<STATE> 3
<MEAN> 39
 2.510341e+00 -4.358313e-01 -1.736858e+00 -6.843421e+00 -1.476331e-01 -5.963179e-01 1.219317e+00 -4.691745e+00 -2.191112e+00 -5.622026e+00 1.483818e+00 -2.285193e-01 9.504945e-01 2.331521e-02 -1.131858e-01 1.610585e-03 2.259608e-01 1.340319e-02 -1.670136e-01 -4.581230e-01 6.674279e-02 3.582716e-01 1.689963e-01 -1.865852e-01 4.331271e-02 -9.121151e-04 -4.103739e-01 -3.906467e-02 1.002549e-01 1.778836e-01 1.187374e-01 -1.983244e-01 -3.977182e-02 1.504189e-01 1.482685e-01 1.483401e-01 -4.002172e-02 -2.330601e-02 -8.983174e-03
<VARIANCE> 39
 5.753039e+00 1.148227e+01 1.439493e+01 2.781753e+01 2.203066e+01 2.919014e+01 2.813901e+01 2.734781e+01 3.068479e+01 2.172544e+01 1.333708e+01 1.882177e+01 2.072270e-03 1.482491e+00 6.320356e-01 8.496351e-01 2.643797e+00 2.299692e+00 9.382888e-01 1.128892e+00 8.938748e-01 1.207973e+00 1.588076e+00 1.334599e+00 7.296441e-01 8.646789e-04 2.151821e-01 1.019395e-01 1.489597e-01 2.834304e-01 2.580915e-01 1.882325e-01 1.890813e-01 1.720733e-01 2.710534e-01 3.336287e-01 2.772795e-01 1.211662e-01 1.283419e-04
<GCONST> 6.772334e+01
<STATE> 4
<MEAN> 39
 -8.763659e+00 -4.067613e+00 1.937096e+00 -3.335890e-01 1.180746e+00 -2.753658e+00 1.259523e+00 -1.002802e+00 6.544989e-02 -1.549992e+00 1.418297e+00 -1.038694e+00 5.896228e-01 -2.760752e-01 -1.049691e-01 2.480957e-03 5.659055e-03 -8.599735e-02 3.128257e-03 6.014550e-02 1.139238e-01 2.058537e-02 1.260119e-01 1.490749e-02 -1.610377e-02 -1.235977e-02 3.392718e-02 1.826174e-02 -2.694070e-02 -3.908762e-02 -5.212255e-03 4.153057e-02 1.916717e-02 -3.168558e-02 -1.604095e-02 1.327309e-02 3.081937e-03 1.357836e-02 1.911991e-04
<VARIANCE> 39
 1.350636e+01 1.156323e+01 1.646747e+01 1.092251e+01 1.173060e+01 1.397123e+01 2.185261e+01 1.670352e+01 1.947206e+01 1.449164e+01 1.420149e+01 9.862803e+00 2.906514e-02 6.044477e-01 7.515514e-01 1.186204e+00 1.300760e+00 1.277376e+00 1.440661e+00 1.689773e+00 1.693596e+00 1.654329e+00 1.757385e+00 1.151078e+00 8.601722e-01 1.474391e-03 8.172332e-02 1.356445e-01 1.974154e-01 2.507351e-01 2.482668e-01 2.680156e-01 3.031432e-01 2.765010e-01 2.837060e-01 3.538252e-01 2.152531e-01 1.525171e-01 2.241527e-04
<GCONST> 6.899444e+01
<STATE> 5
<MEAN> 39
 5.094471e+00 -1.044433e+01 1.023670e+01 3.609403e+00 -1.596499e+00 2.002563e+00 -3.887721e+00 7.524413e+00 1.179610e+00 -3.374118e+00 6.646444e-01 -2.782871e+00 5.844442e-01 -3.554414e-01 -2.560419e-02 -8.724907e-02 -5.450858e-02 2.282378e-01 -2.332866e-02 1.131922e-03 1.301195e-02 4.412766e-01 5.822439e-02 -6.344239e-02 -4.732013e-02 -1.957536e-02 -3.408994e-02 6.610825e-02 7.885766e-03 1.278926e-02 9.135228e-02 -2.707982e-02 5.081088e-02 -3.640485e-02 4.578010e-02 5.939836e-02 4.382206e-02 -2.983734e-03 -9.950192e-04
<VARIANCE> 39
 7.519607e+01 1.173145e+02 5.877663e+01 2.957214e+01 9.168420e+01 6.010505e+01 1.671550e+02 5.632049e+01 6.955177e+01 2.076838e+01 1.997684e+01 3.013347e+01 1.329401e-01 1.403008e+00 4.825966e+00 3.134172e+00 1.770136e+00 5.433671e+00 3.636684e+00 9.444862e+00 3.351298e+00 2.814708e+00 1.254902e+00 1.656629e+00 1.415494e+00 2.375437e-03 2.102847e-01 5.803534e-01 5.247300e-01 3.118068e-01 6.775583e-01 5.702062e-01 1.123194e+00 5.301319e-01 3.402028e-01 2.432184e-01 3.576286e-01 2.756642e-01 3.733952e-04
<GCONST> 1.056963e+02
<TRANSP> 6
 0.000000e+00 1.000000e+00 0.000000e+00 0.000000e+00 0.000000e+00 0.000000e+00
 0.000000e+00 9.275811e-01 7.241885e-02 0.000000e+00 0.000000e+00 0.000000e+00
 0.000000e+00 0.000000e+00 8.958958e-01 1.041042e-01 0.000000e+00 0.000000e+00
 0.000000e+00 0.000000e+00 0.000000e+00 9.620984e-01 7.580997e-03 3.032067e-02
 0.000000e+00 0.000000e+00 0.000000e+00 0.000000e+00 9.722248e-01 2.777517e-02
 0.000000e+00 0.000000e+00 0.000000e+00 0.000000e+00 0.000000e+00 0.000000e+00
<ENDHMM>
