~o
<STREAMINFO> 1 39
<VECSIZE> 39<NULLD><MFCC_E_D_A><DIAGC>
~h "deux"
<BEGINHMM>
<NUMSTATES> 4
<STATE> 2
<MEAN> 39
 -8.812982e+00 -2.806310e+00 1.288530e+00 -8.069241e-01 3.025907e+00 7.646742e-01 1.738920e+00 -1.896418e+00 8.076285e-01 -2.654907e-01 1.637621e+00 -6.123968e-01 6.552337e-01 4.171633e-01 -1.781328e-01 3.675536e-01 1.681691e-01 2.876210e-01 6.973546e-01 3.570022e-01 4.286360e-02 1.746031e-01 3.672720e-03 5.062076e-01 3.607435e-01 2.938497e-02 7.317576e-02 -4.056141e-02 -6.476745e-03 1.052817e-01 -3.274008e-02 7.398955e-02 7.386142e-02 -1.180370e-01 -7.757917e-03 -5.378458e-02 4.005738e-02 1.341797e-01 2.259996e-03
<VARIANCE> 39
 5.463381e+00 8.326227e+00 1.637468e+01 1.337694e+01 1.447262e+01 2.172017e+01 1.533978e+01 1.439299e+01 1.353186e+01 1.288699e+01 1.978310e+01 1.395632e+01 2.268567e-02 5.778050e-01 7.499117e-01 1.279505e+00 1.566626e+00 1.691423e+00 2.521493e+00 2.042524e+00 1.669041e+00 1.525613e+00 1.546474e+00 2.775427e+00 2.170016e+00 2.001899e-03 5.907303e-02 1.339089e-01 2.360993e-01 2.618470e-01 3.211115e-01 3.546921e-01 3.032221e-01 2.700670e-01 2.659068e-01 2.864922e-01 5.570661e-01 3.648274e-01 3.157427e-04
<GCONST> 7.347726e+01
<STATE> 3
<MEAN> 39
 -2.632502e+00 -4.369475e+00 3.754303e+00 2.244699e+00 3.034066e+00 8.296445e+00 7.328670e+00 -1.846957e+00 1.159011e+00 -3.123560e+00 4.031610e+00 5.312004e+00 7.919517e-01 -2.894719e-01 2.189042e-01 -3.357242e-01 -1.459955e-01 -2.212590e-01 -4.918891e-01 -1.272878e-01 1.608311e-01 3.365398e-02 -3.586158e-03 -2.768018e-01 -2.342310e-01 -2.511211e-02 -8.045628e-02 2.980339e-02 -1.054597e-02 -9.526496e-02 1.133018e-02 -1.427903e-01 -1.186924e-01 3.863661e-02 1.227112e-03 5.822017e-02 -3.257796e-02 -1.078247e-01 -3.641622e-03
<VARIANCE> 39
 2.533836e+01 2.791064e+01 2.413363e+01 1.288851e+01 2.725041e+01 4.794889e+01 2.579127e+01 2.205525e+01 1.616933e+01 2.500254e+01 2.407080e+01 2.094510e+01 5.095610e-02 6.734028e-01 9.728841e-01 5.183369e-01 9.097655e-01 1.435141e+00 1.489338e+00 1.797462e+00 1.405786e+00 1.160296e+00 1.589862e+00 1.268763e+00 1.344127e+00 1.095921e-03 5.832736e-02 1.214232e-01 8.872683e-02 1.386982e-01 2.227814e-01 2.808574e-01 2.317581e-01 2.085958e-01 2.080247e-01 2.795483e-01 2.336331e-01 2.507685e-01 9.878102e-05
<GCONST> 7.153421e+01
<TRANSP> 4
 0.000000e+00 1.000000e+00 0.000000e+00 0.000000e+00
 0.000000e+00 9.293211e-01 7.067899e-02 0.000000e+00
 0.000000e+00 0.000000e+00 9.503759e-01 4.962415e-02
 0.000000e+00 0.000000e+00 0.000000e+00 0.000000e+00
<ENDHMM>
