~o
<STREAMINFO> 1 39
<VECSIZE> 39<NULLD><MFCC_E_D_A><DIAGC>
~h "huit"
<BEGINHMM>
<NUMSTATES> 6
<STATE> 2
<MEAN> 39
 -7.916323e+00 -4.612334e+00 2.770265e+00 4.511497e+00 5.309138e+00 4.157636e-01 7.551677e-01 -1.460646e+00 7.101720e+00 2.275513e+00 -4.017670e-01 -1.050727e+00 8.340043e-01 -3.273925e-02 1.822404e-02 6.940897e-02 -4.453363e-02 8.904392e-02 -7.086965e-03 -4.634894e-02 3.724092e-02 5.515328e-02 5.127142e-02 5.739025e-02 4.755571e-02 6.264349e-03 -1.535264e-02 7.967898e-03 -7.477231e-02 -3.900981e-02 -8.061911e-02 -4.112526e-02 4.759717e-02 -1.337645e-02 -9.537395e-02 -4.452765e-02 -2.314739e-03 1.139798e-02 -4.218926e-03
<VARIANCE> 39
 4.527994e+00 9.977603e+00 2.779250e+01 2.675867e+01 3.082848e+01 1.751421e+01 1.318347e+01 1.841093e+01 1.972236e+01 1.896847e+01 1.210884e+01 9.889860e+00 3.065600e-02 3.785701e-01 7.656754e-01 2.284591e+00 2.485857e+00 3.028392e+00 2.254687e+00 1.765025e+00 1.902397e+00 2.402155e+00 1.348278e+00 1.344999e+00 8.253255e-01 2.118360e-03 4.824295e-02 1.111228e-01 2.880009e-01 3.495232e-01 5.524306e-01 4.738797e-01 3.754822e-01 3.882173e-01 3.960358e-01 2.256770e-01 2.406885e-01 1.510293e-01 1.916470e-04
<GCONST> 7.478127e+01
<STATE> 3
<MEAN> 39
 -3.373856e+00 -1.064077e+01 1.595808e+01 9.635412e+00 3.986019e+00 3.842761e+00 -5.028176e+00 3.310308e+00 5.927571e+00 -5.674995e-01 5.485802e-01 1.615443e+00 6.298916e-01 -9.109399e-02 -1.670979e-01 -9.277671e-02 -2.119993e-01 -4.879170e-02 -5.717179e-02 -1.469683e-01 -4.967712e-02 -1.930920e-01 1.188456e-01 -4.094199e-02 -4.276494e-02 -1.160669e-02 -1.650910e-02 2.515263e-02 -3.242945e-02 -6.485070e-02 2.446531e-02 -2.137434e-02 4.452155e-02 -2.465408e-02 -1.811744e-03 -6.020441e-02 -4.066246e-02 1.241096e-03 -1.813897e-03
<VARIANCE> 39
 3.871791e+01 7.172017e+01 1.809954e+02 8.700375e+01 5.770405e+01 5.409301e+01 7.636246e+01 3.365349e+01 4.153949e+01 2.794943e+01 3.880325e+01 1.827794e+01 1.260213e-01 1.825331e+00 5.197890e+00 5.522931e+00 5.263728e+00 4.134764e+00 4.229861e+00 5.034107e+00 2.332788e+00 4.295323e+00 2.489097e+00 2.567793e+00 1.518006e+00 5.466894e-03 2.156188e-01 7.873909e-01 5.559897e-01 8.516560e-01 7.115257e-01 7.486289e-01 8.925017e-01 4.830328e-01 6.626677e-01 4.831088e-01 4.829385e-01 2.700543e-01 4.311844e-04
<GCONST> 1.112667e+02
<STATE> 4
<MEAN> 39
 -1.049518e+01 -2.524939e+00 1.907416e-02 -2.793522e+00 1.733129e+00 -2.674317e+00 1.347442e+00 -2.086069e+00 1.414511e-01 -1.205933e+00 9.874830e-01 -1.549665e+00 5.443627e-01 -2.690476e-02 -2.475777e-02 -5.300774e-02 -7.857197e-02 -3.948517e-02 3.458825e-03 3.466470e-02 -1.993198e-02 -7.231428e-02 6.987885e-03 -1.655206e-02 5.860985e-03 -2.861002e-03 -4.990398e-03 6.251819e-04 8.206721e-02 1.721238e-02 1.512843e-02 9.438008e-03 -1.896797e-02 2.149672e-02 5.727442e-02 2.354027e-02 -1.233743e-02 -9.924707e-03 3.170558e-03
<VARIANCE> 39
 4.582477e+00 4.630736e+00 7.851101e+00 9.368894e+00 1.247517e+01 1.031244e+01 1.478539e+01 1.270662e+01 1.060394e+01 1.064695e+01 1.013590e+01 1.015385e+01 2.707573e-02 3.848376e-01 3.595863e-01 6.679511e-01 8.573748e-01 1.184920e+00 1.138948e+00 1.449986e+00 1.086762e+00 1.092445e+00 1.003204e+00 8.645360e-01 9.316074e-01 9.475057e-04 7.098334e-02 6.913474e-02 1.232395e-01 1.607184e-01 2.273027e-01 2.431761e-01 2.849820e-01 1.956191e-01 2.271017e-01 1.788327e-01 1.652291e-01 1.785946e-01 1.309147e-04
<GCONST> 5.531852e+01
<STATE> 5
<MEAN> 39
 -8.811365e+00 -6.505336e+00 9.686778e+00 -8.025947e+00 8.826958e+00 -3.582922e+00 -5.116506e+00 -6.544638e-01 -3.217273e+00 3.014383e+00 -2.136626e+00 -1.843648e+00 3.800756e-01 5.213305e-01 1.179683e-01 2.501688e-01 1.446321e-01 1.729141e-01 4.819643e-01 -3.966868e-01 -3.129403e-01 -9.036403e-02 -3.671601e-01 6.951164e-02 -1.365802e-01 1.041472e-02 7.062785e-02 2.001354e-02 -4.045524e-02 1.258804e-01 -6.237079e-02 1.537573e-01 7.387536e-02 4.289320e-03 3.689761e-03 -1.543191e-01 2.465571e-02 2.000513e-02 -1.697442e-03
<VARIANCE> 39
 5.266750e+01 4.099701e+01 6.499940e+01 6.268833e+01 4.521098e+01 6.123034e+01 5.167114e+01 3.372038e+01 1.355964e+01 3.296804e+01 2.283167e+01 1.431268e+01 6.761188e-02 2.448605e+00 1.175442e+00 3.632774e+00 4.851264e+00 3.181596e+00 3.866195e+00 2.429915e+00 2.324552e+00 1.674413e+00 3.314504e+00 1.579376e+00 9.600183e-01 3.337338e-03 4.050693e-01 1.318184e-01 4.441122e-01 5.659080e-01 4.499359e-01 3.961489e-01 4.618489e-01 3.797254e-01 2.232389e-01 5.180554e-01 2.540934e-01 1.801233e-01 4.119080e-04
<GCONST> 9.603654e+01
<TRANSP> 6
 0.000000e+00 6.999794e-01 3.000207e-01 0.000000e+00 0.000000e+00 0.000000e+00
 0.000000e+00 9.602199e-01 0.000000e+00 3.978015e-02 0.000000e+00 0.000000e+00
 0.000000e+00 0.000000e+00 9.651166e-01 3.488335e-02 0.000000e+00 0.000000e+00
 0.000000e+00 0.000000e+00 0.000000e+00 9.628826e-01 3.711740e-02 0.000000e+00
 0.000000e+00 0.000000e+00 0.000000e+00 0.000000e+00 8.452203e-01 1.547798e-01
 0.000000e+00 0.000000e+00 0.000000e+00 0.000000e+00 0.000000e+00 0.000000e+00
<ENDHMM>
