~o
<STREAMINFO> 1 39
<VECSIZE> 39<NULLD><MFCC_E_D_A><DIAGC>
~h "moins"
<BEGINHMM>
<NUMSTATES> 7
<STATE> 2
<MEAN> 39
 -5.923864e+00 -1.392905e+00 8.475276e-01 -3.185075e-01 6.562729e-01 -3.328042e+00 3.348576e+00 4.800906e-01 1.239628e+00 -2.029590e+00 1.911770e+00 2.448880e-01 7.637183e-01 6.126078e-01 3.850117e-01 4.563493e-01 3.515175e-01 2.567597e-02 1.256473e-02 3.069188e-02 -6.138406e-02 -5.368349e-02 -1.622890e-01 -9.985507e-02 -7.771617e-02 2.434451e-02 1.919215e-02 4.483163e-02 3.130741e-02 -1.091605e-02 -2.489061e-02 -4.819039e-02 -1.633429e-01 -9.799246e-02 -4.394523e-02 -2.613437e-02 -4.658710e-03 -2.411623e-02 -1.407965e-03
<VARIANCE> 39
 8.874844e+00 7.347294e+00 1.091228e+01 1.007169e+01 9.040616e+00 8.770890e+00 1.480442e+01 2.227768e+01 1.192876e+01 8.702416e+00 1.482213e+01 1.068418e+01 2.258948e-02 3.222832e-01 4.762627e-01 6.665453e-01 5.837367e-01 1.084504e+00 1.321420e+00 1.317075e+00 1.578246e+00 1.429804e+00 1.032489e+00 1.287972e+00 8.990880e-01 4.207038e-04 2.932405e-02 4.514080e-02 1.253369e-01 9.173609e-02 2.091369e-01 3.303108e-01 2.631058e-01 2.558528e-01 2.262906e-01 1.785703e-01 2.076689e-01 1.834437e-01 5.345715e-05
<GCONST> 5.490260e+01
<STATE> 3
<MEAN> 39
 3.996362e+00 -9.716679e-01 8.938150e+00 3.668563e+00 -7.811951e+00 -5.433974e+00 -3.621917e+00 3.233772e+00 7.992698e+00 -6.861048e+00 -2.237659e+00 4.543123e+00 8.922952e-01 7.202522e-01 8.491658e-02 3.907319e-01 -7.941625e-01 -1.351661e+00 -6.446584e-01 -1.464914e+00 -8.150274e-01 3.275449e-01 1.702021e-01 -1.096988e-03 2.835279e-01 1.126403e-02 -9.256583e-02 -1.113431e-01 -1.981994e-01 -3.168950e-01 -1.023718e-01 1.305797e-01 2.440420e-01 2.057406e-01 1.407404e-01 2.461962e-01 9.966432e-02 -1.096978e-01 -8.544090e-04
<VARIANCE> 39
 2.610407e+01 6.764346e+01 3.597535e+01 1.410189e+01 1.167892e+02 1.514116e+01 5.196797e+01 1.431515e+02 1.304102e+02 2.361550e+01 2.145091e+01 6.098259e+01 1.230995e-02 3.183600e-01 1.205424e+00 2.023511e+00 1.127974e+00 1.443898e+00 2.272650e+00 1.758623e+00 1.231946e+00 2.407999e+00 1.735547e+00 1.396275e+00 1.681816e+00 2.548599e-04 3.810585e-02 9.574087e-02 2.178399e-01 1.669299e-01 3.020891e-01 3.583441e-01 3.049522e-01 3.020746e-01 2.631362e-01 2.093897e-01 2.733156e-01 2.878829e-01 1.627660e-05
<GCONST> 7.842214e+01
<STATE> 4
<MEAN> 39
 7.611417e+00 -7.758571e+00 1.889892e+01 -9.365012e-01 -8.818218e+00 1.550322e+00 3.474064e+00 9.606230e+00 -5.747703e+00 -1.911884e+00 5.108774e+00 -8.053823e+00 8.131509e-01 2.240833e-01 -2.040405e-01 -3.869076e-01 -3.373232e-02 5.387980e-02 3.820610e-01 3.916252e-01 4.209316e-01 2.279716e-01 -2.812640e-01 -2.367070e-01 -2.921579e-01 2.849836e-03 -1.231717e-01 8.843843e-02 -1.591677e-01 8.455642e-02 1.948309e-01 -5.327943e-02 6.045552e-02 4.896132e-02 -4.954785e-02 -2.344479e-02 -9.938595e-03 1.192777e-01 -3.383932e-03
<VARIANCE> 39
 1.166277e+01 7.988180e+01 1.366297e+02 3.976397e+01 1.033269e+02 1.542505e+01 8.931809e+01 9.181057e+01 1.423117e+02 1.665778e+01 2.586961e+01 5.129706e+01 2.739300e-02 1.173801e+00 3.520265e+00 8.712625e+00 2.531611e+00 6.734457e+00 2.095312e+00 7.005029e+00 5.748792e+00 5.948286e+00 2.349993e+00 2.834272e+00 3.173271e+00 1.405894e-03 1.241362e-01 2.931797e-01 1.155737e+00 3.767712e-01 6.559983e-01 3.918660e-01 9.874784e-01 8.615047e-01 1.329528e+00 5.876215e-01 5.770795e-01 3.420078e-01 6.283235e-05
<GCONST> 1.067769e+02
<STATE> 5
<MEAN> 39
 6.497847e+00 1.189690e-01 2.664061e+00 -7.467732e+00 -9.640245e+00 -3.006233e+00 -8.780449e-01 -2.977648e-01 5.675254e+00 -3.617745e+00 -2.664470e+00 4.263845e-03 9.683113e-01 2.082715e-02 -3.255339e-01 -7.588841e-01 -5.761365e-01 2.937846e-01 5.901378e-01 9.556869e-01 3.922814e-01 9.351249e-02 -1.258848e-01 -3.918947e-01 -3.237128e-01 -3.838307e-03 -1.367047e-01 9.006024e-03 7.229649e-02 2.956984e-01 2.482924e-01 5.380029e-02 6.366657e-02 -6.486721e-02 -1.450984e-01 -1.399153e-01 -8.925424e-03 6.593769e-02 -4.427776e-03
<VARIANCE> 39
 2.912505e+01 5.115014e+01 3.954850e+01 2.259534e+01 3.836564e+01 5.441066e+01 7.761069e+01 1.766201e+01 5.223381e+01 4.708944e+01 3.405551e+01 2.158957e+01 9.293691e-04 2.377144e-01 3.012221e-01 6.965163e-01 1.007051e+00 1.400461e+00 1.150945e+00 9.060324e-01 8.412379e-01 9.546522e-01 9.695860e-01 9.244108e-01 9.809774e-01 2.010034e-04 2.362750e-02 5.339051e-02 9.451532e-02 8.021563e-02 2.487103e-01 2.227197e-01 2.562295e-01 1.640342e-01 1.003196e-01 1.818577e-01 1.850096e-01 1.644353e-01 1.475107e-05
<GCONST> 6.035912e+01
<STATE> 6
<MEAN> 39
 -2.422023e+00 -6.654608e-01 6.366171e-01 -2.645786e+00 -1.997117e+00 -1.200029e+00 3.523436e+00 1.605186e+00 2.288131e+00 -2.379152e+00 -6.310866e-01 -1.946986e+00 6.703185e-01 -1.063466e+00 -6.913646e-02 -1.487909e-01 3.424476e-01 4.072112e-01 -4.195096e-02 1.289726e-01 2.006370e-02 -1.896192e-01 2.096621e-01 1.831339e-01 -1.814664e-01 -4.269445e-02 2.092053e-02 -1.027630e-02 1.835086e-02 -1.488381e-02 -4.675653e-02 -7.606881e-02 -9.472743e-02 -5.613749e-02 2.088070e-02 6.354765e-03 1.225576e-03 -3.276907e-02 -4.796201e-04
<VARIANCE> 39
 4.043589e+01 1.192528e+01 1.761550e+01 2.537469e+01 1.817624e+01 2.494678e+01 4.180690e+01 5.847786e+01 1.482500e+01 1.537405e+01 1.557985e+01 1.353846e+01 3.998924e-02 5.299188e-01 7.766678e-01 6.370419e-01 8.567337e-01 6.031175e-01 1.337407e+00 2.396607e+00 1.802102e+00 1.321710e+00 1.261216e+00 1.058542e+00 8.577060e-01 9.675454e-04 9.411145e-02 6.980713e-02 1.029074e-01 9.387986e-02 1.280829e-01 1.958617e-01 4.493462e-01 2.720788e-01 1.919919e-01 1.907160e-01 1.391946e-01 1.297138e-01 1.576279e-04
<GCONST> 6.713761e+01
<TRANSP> 7
 0.000000e+00 1.000000e+00 0.000000e+00 0.000000e+00 0.000000e+00 0.000000e+00 0.000000e+00
 0.000000e+00 9.151227e-01 8.487725e-02 0.000000e+00 0.000000e+00 0.000000e+00 0.000000e+00
 0.000000e+00 0.000000e+00 8.420888e-01 3.158281e-02 1.263285e-01 0.000000e+00 0.000000e+00
 0.000000e+00 0.000000e+00 0.000000e+00 9.513228e-01 0.000000e+00 4.867723e-02 0.000000e+00
 0.000000e+00 0.000000e+00 0.000000e+00 0.000000e+00 8.819813e-01 1.180187e-01 0.000000e+00
 0.000000e+00 0.000000e+00 0.000000e+00 0.000000e+00 0.000000e+00 9.009706e-01 9.902935e-02
 0.000000e+00 0.000000e+00 0.000000e+00 0.000000e+00 0.000000e+00 0.000000e+00 0.000000e+00
<ENDHMM>
