~o
<STREAMINFO> 1 39
<VECSIZE> 39<NULLD><MFCC_E_D_A><DIAGC>
~h "neuf"
<BEGINHMM>
<NUMSTATES> 5
<STATE> 2
<MEAN> 39
 2.399859e+00 -1.135626e+01 9.655061e+00 -2.169407e+00 1.006214e-01 6.603315e+00 6.301239e-01 1.811515e+00 -2.866381e+00 -2.244607e+00 3.192348e+00 1.979130e+00 6.009561e-01 7.470397e-02 -4.382280e-01 8.770505e-03 -3.009030e-01 -4.024719e-02 -5.182818e-02 -1.323893e-01 -8.701416e-02 -7.227591e-02 -4.892253e-02 -1.215560e-01 7.374722e-02 4.858191e-03 1.791085e-03 1.543390e-02 -2.117669e-02 6.287648e-03 1.033380e-02 5.776944e-03 -3.060808e-02 1.348878e-03 -1.694521e-02 -3.245641e-02 3.426091e-02 2.707184e-02 -3.719457e-04
<VARIANCE> 39
 7.245840e+01 9.090897e+01 3.656764e+01 1.387705e+02 4.121389e+01 5.331867e+01 6.445577e+01 4.685975e+01 6.301604e+01 5.653344e+01 5.078945e+01 4.677874e+01 9.410425e-02 1.930231e+00 2.076950e+00 1.712096e+00 3.309095e+00 2.954804e+00 4.057782e+00 4.333738e+00 4.067167e+00 2.882695e+00 3.777968e+00 1.792871e+00 2.065160e+00 2.650938e-03 1.851111e-01 3.333420e-01 2.579786e-01 4.547449e-01 5.650515e-01 7.028646e-01 8.202607e-01 7.715315e-01 4.607288e-01 6.073331e-01 2.102471e-01 3.436202e-01 2.344941e-04
<GCONST> 1.059701e+02
<STATE> 3
<MEAN> 39
 -5.024784e+00 -2.820112e+00 1.208573e+00 3.099001e-01 3.678795e+00 -9.005797e-02 1.739942e+00 -2.818465e+00 -1.566105e+00 -2.872639e+00 2.818971e+00 8.024209e-01 7.417471e-01 -6.323909e-02 -6.595890e-02 2.703102e-02 -5.402699e-03 -7.889045e-03 1.570092e-02 -1.078164e-02 -1.992538e-02 -2.771024e-02 -4.143311e-02 -4.511595e-03 -6.635765e-03 1.050818e-03 -6.926588e-03 -1.241552e-03 1.086840e-02 -8.575626e-03 -1.176414e-02 -4.355514e-03 1.883612e-02 -1.260078e-03 -1.212937e-02 1.096320e-02 1.449841e-02 -1.104269e-02 -1.529843e-03
<VARIANCE> 39
 3.290105e+01 9.681739e+00 1.279447e+01 1.739390e+01 1.355398e+01 1.990447e+01 1.708665e+01 1.717149e+01 2.288415e+01 1.468240e+01 1.266013e+01 1.125112e+01 5.692855e-02 1.527321e+00 5.750279e-01 7.027054e-01 1.089052e+00 9.643030e-01 1.332928e+00 1.384598e+00 1.461840e+00 1.558515e+00 1.006210e+00 9.985619e-01 8.876437e-01 1.907469e-03 1.622690e-01 1.035534e-01 1.272198e-01 1.919112e-01 1.820803e-01 2.470451e-01 2.655538e-01 2.463466e-01 2.517449e-01 1.764787e-01 2.001612e-01 1.636694e-01 2.063537e-04
<GCONST> 6.801590e+01
<STATE> 4
<MEAN> 39
 -1.055562e+01 -4.058655e+00 -2.954787e-02 -2.773535e+00 1.193958e+00 -2.108576e+00 9.990615e-01 -2.392623e+00 1.814045e-01 -1.501842e+00 1.231216e+00 -2.611087e-01 4.769953e-01 3.718895e-02 5.740179e-02 -1.648426e-02 -2.443292e-02 -1.454150e-02 1.622589e-02 -2.885507e-04 2.407628e-02 2.590119e-03 -1.407364e-02 -4.869919e-02 -1.879977e-02 -3.548478e-03 9.612097e-03 1.925489e-02 3.827222e-03 8.483709e-03 1.604706e-02 -8.017125e-03 -2.716383e-02 -2.276562e-04 -1.283131e-02 1.265928e-03 1.941530e-03 8.922900e-03 4.756254e-04
<VARIANCE> 39
 7.246246e+00 8.732715e+00 6.646744e+00 9.086244e+00 9.727181e+00 1.120778e+01 9.414943e+00 1.091114e+01 1.171551e+01 1.169676e+01 1.203646e+01 9.815582e+00 1.736731e-02 2.102709e-01 3.057504e-01 4.923031e-01 8.744666e-01 9.571454e-01 8.975835e-01 1.007715e+00 1.068444e+00 9.951169e-01 1.174424e+00 1.181786e+00 9.126706e-01 2.694266e-04 3.463188e-02 5.438894e-02 9.610727e-02 1.667054e-01 1.878636e-01 1.790790e-01 1.917786e-01 2.025636e-01 2.046154e-01 2.404421e-01 2.475352e-01 1.815185e-01 5.744657e-05
<GCONST> 5.030782e+01
<TRANSP> 5
 0.000000e+00 1.000000e+00 0.000000e+00 0.000000e+00 0.000000e+00
 0.000000e+00 9.199768e-01 8.002319e-02 0.000000e+00 0.000000e+00
 0.000000e+00 0.000000e+00 9.598243e-01 4.017575e-02 0.000000e+00
 0.000000e+00 0.000000e+00 0.000000e+00 9.649272e-01 3.507278e-02
 0.000000e+00 0.000000e+00 0.000000e+00 0.000000e+00 0.000000e+00
<ENDHMM>
