~o
<STREAMINFO> 1 39
<VECSIZE> 39<NULLD><MFCC_E_D_A><DIAGC>
~h "plus"
<BEGINHMM>
<NUMSTATES> 6
<STATE> 2
<MEAN> 39
 -4.333766e+00 -9.971964e+00 -8.978811e-01 2.734986e-01 6.753242e+00 2.989892e+00 7.769719e-01 -2.563683e+00 7.430268e-01 1.633658e-01 3.719270e-01 2.431769e-02 7.003430e-01 4.025149e-01 -5.266941e-01 3.550082e-01 9.504657e-01 1.216789e-01 3.536837e-01 -2.152606e-01 -1.613679e-01 5.319530e-01 4.632719e-01 2.302560e-01 2.939860e-01 3.168292e-02 4.338813e-02 3.079110e-02 1.558141e-01 9.610165e-02 -1.023421e-01 3.073323e-02 3.871496e-02 -5.828349e-02 9.051516e-02 -2.695221e-02 3.647842e-02 1.874127e-02 2.301235e-03
<VARIANCE> 39
 2.168856e+01 4.913609e+01 4.397657e+01 5.975436e+01 3.015236e+01 4.751423e+01 3.319686e+01 1.975412e+01 1.903938e+01 2.177768e+01 1.637324e+01 1.150314e+01 2.451056e-02 8.620210e-01 1.382007e+00 2.101191e+00 1.957863e+00 1.991096e+00 3.388657e+00 3.076729e+00 1.888919e+00 1.902328e+00 2.694326e+00 1.471812e+00 1.787162e+00 2.268084e-03 1.424142e-01 1.940047e-01 1.951112e-01 2.403081e-01 3.550459e-01 4.395916e-01 4.695319e-01 3.577048e-01 3.196051e-01 3.797990e-01 2.689788e-01 2.747476e-01 3.454910e-04
<GCONST> 8.662881e+01
<STATE> 3
<MEAN> 39
 -1.559047e+00 -1.278106e+01 6.894760e+00 1.059801e+01 4.989823e+00 7.761486e+00 -9.626057e-02 -4.162268e+00 8.749695e+00 3.378235e+00 2.987399e+00 2.306509e+00 9.553306e-01 -5.550989e-01 1.441629e-01 7.262746e-01 -5.180728e-01 -4.694407e-01 -2.395366e-01 -1.266328e-01 2.736762e-01 -3.797255e-02 -4.059252e-03 1.624371e-01 -1.779919e-01 -8.451939e-03 -2.711050e-01 1.347642e-01 -1.049133e-01 -4.925610e-01 -2.449872e-02 -1.935779e-01 -7.132875e-02 5.234403e-02 -2.863968e-01 -1.059880e-01 -1.270907e-01 -1.209636e-01 -9.944540e-03
<VARIANCE> 39
 1.899171e+01 5.902811e+01 2.951473e+01 2.458844e+01 2.461557e+01 3.528074e+01 2.367064e+01 2.080353e+01 1.969112e+01 2.526972e+01 1.147287e+01 1.655517e+01 2.409299e-03 1.191126e+00 9.384946e-01 8.228649e-01 3.198277e+00 2.114787e+00 1.119440e+00 1.181256e+00 1.793119e+00 2.635122e+00 1.869499e+00 1.013531e+00 1.351927e+00 1.092551e-03 1.183765e-01 2.023256e-01 1.513683e-01 3.212322e-01 2.482680e-01 2.433657e-01 2.473110e-01 3.226264e-01 2.928049e-01 3.663319e-01 2.249771e-01 2.429676e-01 4.780232e-05
<GCONST> 7.428455e+01
<STATE> 4
<MEAN> 39
 -1.587993e+01 -6.616230e+00 1.519066e+01 -1.022024e+01 4.109458e+00 4.769005e+00 -5.193809e+00 -9.259554e-01 2.737123e+00 7.976453e-01 -1.537224e+00 3.678791e-01 7.346231e-01 -5.241959e-01 3.360485e-01 7.061035e-02 -9.082823e-01 -4.983550e-02 -5.993319e-02 -1.382124e-01 -4.736204e-02 -2.318296e-01 -3.915578e-01 -2.914456e-01 -1.107574e-03 -1.184656e-02 1.444998e-01 -6.695926e-02 -5.453495e-02 2.083097e-01 1.778633e-02 8.970000e-02 2.315133e-02 -3.453030e-02 1.385823e-01 4.196228e-02 2.875854e-02 6.866261e-02 2.354448e-03
<VARIANCE> 39
 2.020984e+01 1.155176e+02 8.148817e+01 4.986753e+01 4.130427e+01 2.553537e+01 2.374975e+01 1.587745e+01 2.595865e+01 3.300239e+01 2.844714e+01 1.442605e+01 1.528327e-02 1.595561e+00 8.462550e-01 1.042222e+00 3.118576e+00 1.825325e+00 2.261486e+00 1.782630e+00 1.728165e+00 2.100669e+00 1.448487e+00 2.065366e+00 1.305105e+00 8.560304e-04 1.329890e-01 1.071162e-01 1.655695e-01 3.740934e-01 3.123062e-01 3.551731e-01 3.757907e-01 3.813316e-01 3.964919e-01 2.461239e-01 3.685980e-01 2.624005e-01 1.205997e-04
<GCONST> 8.342775e+01
<STATE> 5
<MEAN> 39
 -1.253997e+01 -4.349119e+00 6.497799e+00 -7.915106e+00 1.016933e+00 1.408173e+00 -2.790035e+00 -2.396609e+00 2.910644e+00 -2.756564e+00 1.117768e+00 8.063297e-02 6.463214e-01 1.807354e-01 6.101152e-02 -2.438285e-01 1.079649e-01 3.967788e-02 -1.247073e-01 2.794959e-02 -6.768229e-03 -5.856340e-02 8.740594e-02 -1.551089e-02 -1.056538e-02 -7.884823e-03 1.123945e-02 -8.352584e-03 -2.522288e-02 3.856172e-02 7.653072e-03 -1.508710e-02 4.240125e-03 -8.197584e-03 -9.492188e-03 5.676299e-03 -4.128255e-03 -3.926203e-03 8.160629e-04
<VARIANCE> 39
 1.042016e+01 9.323633e+00 1.809711e+01 1.315921e+01 1.455429e+01 2.064237e+01 1.339215e+01 1.553428e+01 1.929608e+01 1.270906e+01 1.312427e+01 1.185349e+01 1.300207e-02 2.340390e-01 4.529898e-01 7.756965e-01 1.124600e+00 1.127165e+00 1.497727e+00 1.229095e+00 1.423565e+00 1.142053e+00 1.248071e+00 1.231070e+00 1.209590e+00 2.742640e-04 3.240100e-02 7.590377e-02 1.239307e-01 2.147015e-01 1.890123e-01 2.683485e-01 2.073667e-01 2.764875e-01 2.195806e-01 2.355498e-01 2.361127e-01 2.323165e-01 4.494438e-05
<GCONST> 5.887980e+01
<TRANSP> 6
 0.000000e+00 1.000000e+00 0.000000e+00 0.000000e+00 0.000000e+00 0.000000e+00
 0.000000e+00 8.984945e-01 1.015055e-01 0.000000e+00 0.000000e+00 0.000000e+00
 0.000000e+00 0.000000e+00 9.059848e-01 9.401520e-02 0.000000e+00 0.000000e+00
 0.000000e+00 0.000000e+00 0.000000e+00 9.271165e-01 7.288352e-02 0.000000e+00
 0.000000e+00 0.000000e+00 0.000000e+00 0.000000e+00 9.447243e-01 5.527572e-02
 0.000000e+00 0.000000e+00 0.000000e+00 0.000000e+00 0.000000e+00 0.000000e+00
<ENDHMM>
