~o
<STREAMINFO> 1 39
<VECSIZE> 39<NULLD><MFCC_E_D_A><DIAGC>
~h "quatre"
<BEGINHMM>
<NUMSTATES> 7
<STATE> 2
<MEAN> 39
 -5.784035e+00 -6.571651e+00 5.346230e+00 -4.348043e-01 2.207191e+00 -8.071047e-02 6.962078e-02 -1.018735e+00 -4.241411e-01 -2.327905e+00 1.447869e+00 -1.425581e+00 6.461372e-01 1.117346e+00 2.495358e-02 6.646931e-01 8.231842e-01 -2.967518e-02 2.454212e-01 -4.813632e-01 -3.779144e-01 -1.496033e-01 -5.586825e-01 8.643178e-02 2.767334e-02 5.267560e-02 1.915507e-01 -2.367398e-02 -2.690586e-01 -8.423355e-02 -2.492917e-02 -4.526285e-02 -1.661311e-01 -2.786100e-01 -2.877932e-03 -1.751090e-01 4.976171e-02 -1.646293e-02 3.473245e-03
<VARIANCE> 39
 5.768674e+01 3.606107e+01 3.735468e+01 4.644666e+01 4.635751e+01 5.846939e+01 4.577690e+01 1.591575e+01 3.798107e+01 2.179050e+01 1.789237e+01 1.078623e+01 3.980728e-02 2.716264e+00 1.496706e+00 3.057568e+00 2.522014e+00 4.860399e+00 2.029087e+00 3.656544e+00 1.899392e+00 2.911562e+00 1.638294e+00 9.890246e-01 9.811464e-01 2.042664e-03 4.994646e-01 1.900034e-01 4.065408e-01 4.861498e-01 6.877645e-01 2.850773e-01 6.839094e-01 3.023545e-01 3.772780e-01 1.837202e-01 1.502602e-01 1.899363e-01 3.745907e-04
<GCONST> 9.174355e+01
<STATE> 3
<MEAN> 39
 2.322629e+00 -4.066001e+00 1.663474e+00 -1.365180e+00 2.089494e+00 -1.335091e+00 1.958343e-03 -7.228438e+00 -5.932457e+00 -8.427557e+00 4.804732e+00 -2.452923e-01 9.444919e-01 -4.442515e-01 6.166021e-01 -5.566490e-01 -7.075975e-01 -2.815143e-01 1.214148e-01 7.101704e-01 1.064351e-01 -3.095506e-01 -1.315332e-01 6.561776e-02 1.435905e-01 -2.108499e-02 -4.080010e-01 -3.561745e-03 1.374602e-01 9.180540e-03 4.058977e-02 -1.152195e-02 2.831783e-02 3.360819e-01 1.679638e-01 2.822516e-01 -1.744992e-01 -4.943497e-02 -1.579960e-02
<VARIANCE> 39
 1.029963e+01 2.148827e+01 3.458709e+01 3.379313e+01 2.087334e+01 4.539727e+01 3.184555e+01 2.246581e+01 7.034476e+01 3.455816e+01 1.485797e+01 1.208811e+01 3.644056e-03 2.088512e+00 8.217708e-01 8.809453e-01 1.862082e+00 8.883779e-01 1.494317e+00 2.149453e+00 3.391206e+00 3.885009e+00 2.523576e+00 2.011207e+00 1.166919e+00 2.136465e-03 1.686684e-01 2.143753e-01 1.300162e-01 4.009761e-01 2.305622e-01 3.381974e-01 5.695041e-01 4.235747e-01 5.782102e-01 3.199269e-01 3.134136e-01 2.205728e-01 1.065159e-04
<GCONST> 8.147800e+01
<STATE> 4
<MEAN> 39
 -9.173505e+00 -2.045946e+00 -9.839826e-01 -3.317165e+00 9.143585e-01 -2.117731e+00 1.711652e+00 -2.139851e+00 -3.410912e-01 -2.944051e+00 -1.267394e-02 -1.319551e+00 4.912155e-01 -4.296596e-01 -7.717236e-02 -8.231558e-02 -4.433934e-01 -1.544541e-01 -1.855804e-01 -2.342664e-02 2.710654e-01 2.793356e-01 1.792206e-01 -3.311620e-01 -1.255071e-01 -9.961484e-03 2.204440e-01 -4.639697e-04 1.529048e-03 -1.018321e-01 -8.272080e-04 3.812589e-02 1.086807e-01 -4.016187e-02 -1.765239e-01 -4.208205e-02 1.487790e-01 7.669845e-03 8.981950e-03
<VARIANCE> 39
 6.751449e+00 4.723542e+00 6.679901e+00 9.109121e+00 1.194828e+01 1.382719e+01 9.342464e+00 1.044465e+01 1.376857e+01 1.289736e+01 9.441972e+00 8.031109e+00 1.610590e-02 1.083798e+00 7.424726e-01 7.608171e-01 1.355492e+00 1.641360e+00 1.027761e+00 1.614182e+00 1.387310e+00 2.153831e+00 1.563690e+00 1.459777e+00 1.210872e+00 3.529785e-03 1.493711e-01 1.150655e-01 1.527212e-01 2.267473e-01 2.991655e-01 2.064460e-01 2.660774e-01 2.436778e-01 3.761986e-01 2.485324e-01 1.979656e-01 2.359864e-01 3.539046e-04
<GCONST> 6.526821e+01
<STATE> 5
<MEAN> 39
 -9.207884e-01 -8.591328e+00 5.404105e+00 -2.151498e+01 1.264543e+00 4.995183e+00 1.825772e+00 4.474340e-01 -8.643214e+00 -3.259375e+00 -4.167615e-01 6.470307e-01 4.261247e-01 1.462810e-02 -1.456937e-01 -4.274305e-01 -4.629667e-01 -1.833758e-01 3.890485e-01 3.928706e-01 1.101906e-01 7.493388e-02 3.532747e-01 2.924323e-01 1.525220e-01 -1.098128e-02 -2.230570e-02 7.974844e-03 -1.967728e-02 1.429845e-01 -5.283730e-02 5.286547e-02 1.698494e-02 -7.335828e-02 5.633684e-02 -6.225409e-02 -9.138743e-03 -1.149825e-02 -2.064552e-03
<VARIANCE> 39
 2.449279e+01 5.325554e+01 5.770106e+01 1.584369e+02 5.341354e+01 6.347132e+01 3.021663e+01 2.117578e+01 4.849595e+01 2.332679e+01 3.202415e+01 2.114229e+01 3.232542e-02 8.338433e-01 2.662592e+00 1.322837e+00 6.571960e+00 1.968296e+00 2.343405e+00 1.458590e+00 1.638693e+00 3.304832e+00 2.299203e+00 2.200616e+00 1.427589e+00 2.735047e-03 1.312327e-01 4.929028e-01 1.956609e-01 9.155079e-01 3.078295e-01 3.110461e-01 2.870576e-01 3.317440e-01 5.342094e-01 4.348764e-01 4.618932e-01 3.283848e-01 3.951729e-04
<GCONST> 9.497237e+01
<STATE> 6
<MEAN> 39
 -8.574723e+00 -2.782357e+00 -2.550297e+00 -9.227071e+00 -1.935731e+00 5.536873e-01 5.668541e+00 7.938559e-02 -5.182899e-01 -4.124507e+00 5.061501e-02 -1.146932e+00 5.500451e-01 -8.221105e-02 6.327877e-02 3.818909e-02 3.075186e-01 -1.060076e-01 -1.438279e-01 -1.551628e-01 -6.424667e-02 2.439573e-01 9.507044e-02 -2.104784e-02 -5.316599e-02 -1.609469e-02 -2.515200e-02 2.624496e-02 1.290129e-02 3.594905e-02 1.164097e-02 -1.081376e-01 -5.189009e-02 1.243960e-02 6.290433e-02 3.782229e-02 2.886956e-03 -1.618910e-02 -1.429264e-03
<VARIANCE> 39
 4.648009e+00 4.666286e+00 9.923714e+00 1.902165e+01 1.458034e+01 1.900894e+01 2.236654e+01 1.593935e+01 1.808588e+01 1.345977e+01 1.421787e+01 7.863691e+00 1.763152e-02 2.449245e-01 3.326928e-01 4.540038e-01 1.079451e+00 9.921830e-01 1.638614e+00 1.668380e+00 1.258224e+00 1.054221e+00 1.414614e+00 1.550611e+00 6.255096e-01 6.307898e-04 4.146951e-02 5.869323e-02 8.718873e-02 1.798718e-01 1.670546e-01 2.820149e-01 2.542197e-01 2.120256e-01 1.643301e-01 2.637358e-01 3.042223e-01 1.015650e-01 1.204452e-04
<GCONST> 5.688728e+01
<TRANSP> 7
 0.000000e+00 1.000000e+00 0.000000e+00 0.000000e+00 0.000000e+00 0.000000e+00 0.000000e+00
 0.000000e+00 8.810787e-01 1.189214e-01 0.000000e+00 0.000000e+00 0.000000e+00 0.000000e+00
 0.000000e+00 0.000000e+00 8.900701e-01 1.099298e-01 0.000000e+00 0.000000e+00 0.000000e+00
 0.000000e+00 0.000000e+00 0.000000e+00 9.047555e-01 8.571965e-02 0.000000e+00 9.524796e-03
 0.000000e+00 0.000000e+00 0.000000e+00 0.000000e+00 8.749739e-01 1.250261e-01 0.000000e+00
 0.000000e+00 0.000000e+00 0.000000e+00 0.000000e+00 0.000000e+00 9.108624e-01 8.913765e-02
 0.000000e+00 0.000000e+00 0.000000e+00 0.000000e+00 0.000000e+00 0.000000e+00 0.000000e+00
<ENDHMM>
