~o
<STREAMINFO> 1 39
<VECSIZE> 39<NULLD><MFCC_E_D_A><DIAGC>
~h "sept"
<BEGINHMM>
<NUMSTATES> 5
<STATE> 2
<MEAN> 39
 -1.585479e+01 5.780382e-01 1.169264e+00 -7.115967e+00 7.205201e+00 -6.589358e+00 2.733066e+00 -2.401342e+00 7.128130e-01 -2.999560e-02 2.632883e-01 -1.533008e-01 5.611259e-01 -1.712073e-01 -1.536486e-02 8.656798e-02 -2.905410e-02 -1.828148e-02 -1.446652e-01 2.003183e-02 -2.370752e-02 1.151974e-01 -3.658093e-02 -8.164054e-02 -8.503781e-02 1.583361e-02 1.542598e-01 -7.342619e-02 4.018002e-02 1.045304e-01 1.167552e-02 1.012411e-01 3.443933e-02 -1.371277e-02 -6.488018e-02 1.737231e-02 4.695829e-02 -6.143415e-02 5.800084e-04
<VARIANCE> 39
 1.415014e+01 1.394452e+01 9.188487e+01 8.325375e+01 1.164921e+02 1.905950e+01 1.746756e+01 3.525362e+01 1.943528e+01 1.173669e+01 2.030409e+01 1.191799e+01 2.024835e-02 7.690896e-01 8.435217e-01 1.418020e+00 1.106083e+00 1.778516e+00 1.763980e+00 1.638177e+00 1.316771e+00 1.409275e+00 1.016325e+00 1.463068e+00 8.240454e-01 6.821232e-04 1.241052e-01 1.456766e-01 2.593061e-01 2.318728e-01 3.168012e-01 3.285044e-01 3.082187e-01 1.838971e-01 1.955194e-01 1.784654e-01 2.879448e-01 1.816013e-01 1.308367e-04
<GCONST> 7.503195e+01
<STATE> 3
<MEAN> 39
 -2.240284e+00 -6.013163e+00 8.310777e+00 -1.508579e+00 8.953773e+00 1.964894e+00 -5.056496e-01 -2.960675e+00 -3.301077e+00 2.463094e-01 3.362036e+00 -3.046765e+00 6.401474e-01 3.577094e-01 -9.236586e-02 -5.763086e-03 2.187427e-01 -1.182770e-01 3.051209e-01 -1.882454e-01 1.755578e-03 -3.563861e-03 -4.373201e-02 8.557992e-02 -1.899623e-02 -8.931375e-03 -1.603649e-01 2.354308e-02 -1.003231e-01 -1.024820e-01 -6.341884e-02 -5.779544e-02 -1.515339e-02 5.051926e-03 4.633280e-02 -3.540546e-03 -8.124818e-02 7.287435e-02 -5.234735e-03
<VARIANCE> 39
 5.991197e+01 4.050693e+01 6.498377e+01 1.165702e+02 3.800918e+01 8.644556e+01 3.364728e+01 3.725048e+01 3.682610e+01 2.537882e+01 5.564177e+01 3.538293e+01 1.311930e-01 5.057948e+00 1.683538e+00 2.895032e+00 4.991777e+00 2.348227e+00 3.617162e+00 2.296252e+00 2.237668e+00 2.315386e+00 1.953513e+00 3.468669e+00 1.928179e+00 5.751151e-03 4.598900e-01 1.978875e-01 3.289672e-01 6.327504e-01 3.477849e-01 4.860046e-01 3.806328e-01 3.291378e-01 3.826241e-01 3.578122e-01 5.385187e-01 3.139608e-01 5.852216e-04
<GCONST> 1.038387e+02
<STATE> 4
<MEAN> 39
 -9.744407e+00 -2.023817e+00 1.709195e-01 -2.291715e+00 2.454066e+00 -3.054230e+00 1.397857e+00 -2.255571e+00 3.199728e-01 -1.360598e+00 9.544728e-01 -1.367020e+00 4.680798e-01 -2.411450e-02 -4.878370e-02 -4.282921e-02 -6.518281e-02 -4.673233e-02 -2.517401e-02 -7.549185e-03 -4.569583e-02 -6.501097e-03 -1.680125e-02 -3.820955e-02 2.434079e-02 -2.446220e-03 4.797398e-02 8.921568e-03 3.468721e-02 4.249642e-02 3.258106e-02 1.540377e-02 -3.507699e-03 -1.165703e-02 3.054491e-03 8.231782e-03 2.627110e-02 -2.436490e-02 2.251228e-03
<VARIANCE> 39
 5.913894e+00 6.673369e+00 9.402436e+00 1.153515e+01 1.081277e+01 1.407621e+01 1.418954e+01 1.760146e+01 1.159695e+01 1.105992e+01 1.017664e+01 8.727095e+00 2.129170e-02 4.872633e-01 4.045210e-01 7.025298e-01 9.614089e-01 8.867634e-01 9.945949e-01 1.224577e+00 1.648682e+00 1.374943e+00 1.104862e+00 1.172207e+00 9.196174e-01 7.342198e-04 9.329417e-02 8.225384e-02 1.368296e-01 1.822481e-01 1.803294e-01 1.714330e-01 2.291733e-01 3.336371e-01 2.866929e-01 2.165841e-01 2.335674e-01 1.661538e-01 1.182497e-04
<GCONST> 5.823313e+01
<TRANSP> 5
 0.000000e+00 1.000000e+00 0.000000e+00 0.000000e+00 0.000000e+00
 0.000000e+00 9.310577e-01 6.894232e-02 0.000000e+00 0.000000e+00
 0.000000e+00 0.000000e+00 9.498390e-01 5.016102e-02 0.000000e+00
 0.000000e+00 0.000000e+00 0.000000e+00 9.608759e-01 3.912414e-02
 0.000000e+00 0.000000e+00 0.000000e+00 0.000000e+00 0.000000e+00
<ENDHMM>
