~o
<STREAMINFO> 1 39
<VECSIZE> 39<NULLD><MFCC_E_D_A><DIAGC>
~h "six"
<BEGINHMM>
<NUMSTATES> 5
<STATE> 2
<MEAN> 39
 -1.563201e+01 4.812564e-01 7.204998e-01 -3.749218e+00 4.575814e+00 -5.119530e+00 3.976808e+00 -2.850480e+00 8.466385e-01 -9.111358e-02 1.076559e+00 -1.780570e+00 7.509184e-01 -2.634446e-02 -2.099736e-02 2.250167e-01 4.870009e-02 1.308472e-01 4.872299e-02 1.226308e-01 6.958278e-02 6.335922e-02 1.335685e-01 -9.290399e-03 -2.816488e-02 1.194163e-02 2.727600e-02 -2.927404e-02 2.791170e-02 3.054842e-02 -2.187695e-02 2.889402e-02 -3.338087e-03 1.031785e-02 4.786318e-02 3.242645e-02 -1.793708e-02 5.815789e-03 -3.975408e-05
<VARIANCE> 39
 1.630412e+01 9.909961e+00 2.366948e+01 2.197923e+01 1.803859e+01 1.816801e+01 1.346969e+01 1.621783e+01 1.471203e+01 1.832605e+01 1.236074e+01 1.262747e+01 1.847285e-02 7.688358e-01 5.742250e-01 1.168634e+00 1.483479e+00 1.180155e+00 1.537706e+00 1.263514e+00 1.316126e+00 1.504750e+00 1.372782e+00 1.121708e+00 1.161853e+00 6.435202e-04 7.932177e-02 8.282226e-02 1.461493e-01 2.818448e-01 2.090152e-01 2.348439e-01 2.542959e-01 2.494585e-01 2.649568e-01 2.519050e-01 2.117798e-01 2.474117e-01 8.973856e-05
<GCONST> 6.636891e+01
<STATE> 3
<MEAN> 39
 -1.508798e+01 -8.263144e+00 1.798650e+01 -8.177718e+00 1.517491e+01 -5.067745e+00 -1.211632e+00 4.726890e+00 2.330781e+00 2.704321e+00 -3.107600e+00 -4.403061e-01 6.891960e-01 -3.189958e-02 6.398313e-02 -8.897930e-02 1.130036e-02 -1.532364e-01 -4.030976e-02 -1.326905e-01 -6.139296e-02 -1.384052e-01 -2.320565e-01 5.333759e-02 -8.289579e-02 -7.104828e-03 -5.914286e-02 6.546699e-02 -1.124769e-01 -4.769775e-02 -6.893247e-02 -8.844151e-02 5.646700e-03 -2.134273e-02 -1.074549e-01 -8.203345e-02 4.572341e-02 -1.719062e-02 -3.191660e-03
<VARIANCE> 39
 4.673729e+01 5.454461e+01 8.042391e+01 2.177214e+02 1.100781e+02 5.589244e+01 6.899979e+01 4.016606e+01 4.908287e+01 1.967392e+01 2.423555e+01 1.997156e+01 5.248976e-02 2.276435e+00 2.442519e+00 2.601640e+00 7.376610e+00 3.417100e+00 3.560534e+00 3.261362e+00 2.185386e+00 3.014257e+00 1.909516e+00 1.694285e+00 1.446446e+00 1.768978e-03 2.854257e-01 3.446389e-01 4.277939e-01 8.215423e-01 4.965972e-01 5.840985e-01 5.326861e-01 4.356934e-01 5.237021e-01 3.168952e-01 2.809086e-01 2.776938e-01 2.080456e-04
<GCONST> 1.026050e+02
<STATE> 4
<MEAN> 39
 -1.587344e+01 7.175002e-01 1.143228e-01 -4.464112e+00 4.802080e+00 -5.849093e+00 2.398522e+00 -2.098136e+00 -2.934468e-01 -1.498107e+00 1.638740e+00 -2.162424e+00 7.234190e-01 1.240790e-01 -3.017141e-02 -1.194101e-01 -1.730154e-03 -1.021494e-01 -7.042405e-03 -8.250228e-02 -3.072784e-02 -9.411455e-02 -6.478527e-02 -4.063958e-02 5.320012e-02 -6.760363e-03 3.718695e-02 -6.946035e-03 3.660026e-02 3.550664e-02 2.911169e-02 2.224670e-02 1.084080e-02 -8.549988e-03 1.108796e-02 4.171923e-02 -9.786739e-03 5.510158e-03 1.091884e-03
<VARIANCE> 39
 1.444858e+01 6.315937e+00 1.677120e+01 1.426128e+01 1.753583e+01 1.429649e+01 2.273821e+01 2.513326e+01 1.814729e+01 1.301840e+01 1.455670e+01 1.239808e+01 1.845553e-02 3.252630e-01 3.535506e-01 6.586933e-01 8.962837e-01 8.580486e-01 9.838614e-01 1.107415e+00 1.339914e+00 1.377864e+00 1.213959e+00 1.079229e+00 9.275836e-01 2.323056e-04 4.580835e-02 6.263071e-02 1.041345e-01 1.663794e-01 1.647570e-01 1.663568e-01 1.901921e-01 2.879847e-01 2.871203e-01 2.453022e-01 1.802282e-01 1.778225e-01 4.060660e-05
<GCONST> 5.727611e+01
<TRANSP> 5
 0.000000e+00 1.000000e+00 0.000000e+00 0.000000e+00 0.000000e+00
 0.000000e+00 9.586114e-01 4.138860e-02 0.000000e+00 0.000000e+00
 0.000000e+00 0.000000e+00 9.413649e-01 5.863509e-02 0.000000e+00
 0.000000e+00 0.000000e+00 0.000000e+00 9.593238e-01 4.067624e-02
 0.000000e+00 0.000000e+00 0.000000e+00 0.000000e+00 0.000000e+00
<ENDHMM>
