~o
<STREAMINFO> 1 39
<VECSIZE> 39<NULLD><MFCC_E_D_A><DIAGC>
~h "trois"
<BEGINHMM>
<NUMSTATES> 6
<STATE> 2
<MEAN> 39
 -8.716203e+00 -1.178668e+00 2.482767e+00 -5.263577e+00 -4.403761e-01 -2.003852e+00 5.798656e-01 -4.043149e+00 9.140186e-01 -2.139287e+00 -8.049565e-01 -8.414814e-01 5.460892e-01 3.080327e-01 5.064674e-01 3.752930e-01 8.163656e-02 -1.918109e-01 -1.604650e-01 9.150675e-04 -2.474887e-01 -7.644540e-02 3.640737e-02 9.559079e-03 -2.465384e-02 1.162252e-02 1.393310e-01 1.061214e-01 9.367428e-02 9.844610e-02 -6.420591e-02 -9.172846e-02 1.244534e-02 1.108777e-02 5.055520e-02 -1.329035e-02 3.908607e-02 5.621059e-02 4.102931e-03
<VARIANCE> 39
 5.757870e+00 2.269992e+01 1.969726e+01 2.996493e+01 2.007507e+01 2.371788e+01 1.211289e+01 2.199907e+01 1.600499e+01 1.613612e+01 1.247751e+01 1.081547e+01 3.060029e-02 1.004603e+00 2.048115e+00 1.659144e+00 2.192148e+00 1.950826e+00 2.327689e+00 1.062624e+00 1.953954e+00 1.978056e+00 1.275863e+00 1.030593e+00 1.323285e+00 2.868435e-03 2.028725e-01 3.942469e-01 3.461934e-01 3.965046e-01 4.053289e-01 4.459217e-01 2.082014e-01 3.689045e-01 4.710489e-01 2.509965e-01 1.877462e-01 2.823656e-01 5.951701e-04
<GCONST> 8.000426e+01
<STATE> 3
<MEAN> 39
 2.796732e+00 1.600926e+00 1.467895e+01 -7.875908e+00 -6.640421e+00 -2.762209e+00 -3.362231e+00 -4.273076e+00 2.192031e+00 -5.990195e-01 -3.931620e+00 1.275979e+00 6.881089e-01 1.231850e+00 8.004580e-01 8.265826e-01 7.643287e-01 -1.363127e+00 -5.992365e-01 -2.235498e-01 -3.812990e-01 6.819514e-01 -1.722567e-01 3.795593e-01 4.095528e-01 4.123712e-02 -1.459147e-01 -3.093646e-01 -1.512650e-01 -2.361139e-01 4.017451e-02 7.329708e-02 1.102316e-01 6.616648e-02 -4.843324e-02 -3.492183e-02 -2.952100e-02 -3.245128e-02 -7.761772e-03
<VARIANCE> 39
 2.418418e+01 8.164318e+01 6.877734e+01 1.146082e+02 1.022274e+02 6.695528e+01 4.731755e+01 2.365019e+01 3.213433e+01 1.604078e+01 2.589454e+01 2.100566e+01 6.457983e-02 2.522458e+00 4.440424e+00 3.492466e+00 4.218542e+00 5.247028e+00 2.800389e+00 3.794244e+00 2.917887e+00 2.111149e+00 1.890333e+00 1.336933e+00 1.416753e+00 4.901057e-03 3.661198e-01 4.870736e-01 4.261939e-01 5.832164e-01 9.503037e-01 4.230290e-01 7.099727e-01 4.756928e-01 4.327659e-01 3.064617e-01 2.188869e-01 2.605144e-01 6.471273e-04
<GCONST> 1.034550e+02
<STATE> 4
<MEAN> 39
 4.306698e+00 5.561600e+00 1.082230e+01 -3.834683e+00 -1.299707e+01 -8.784553e+00 2.383659e+00 -6.184254e+00 2.749210e+00 -2.643372e+00 -9.395472e-01 -2.344421e-01 9.357200e-01 -1.153139e-01 -2.133346e-01 -8.053170e-01 -9.570153e-01 -1.748381e-01 -1.762585e-01 6.512160e-02 4.476015e-01 -6.492098e-02 -2.454598e-01 -2.668237e-01 -3.994756e-01 -1.123653e-02 -2.073523e-01 -5.462932e-02 -1.473172e-01 -4.285404e-03 2.009435e-01 1.415458e-01 -6.713524e-02 5.351062e-02 -5.692927e-02 1.396118e-02 -3.225734e-02 3.287507e-02 -8.418734e-03
<VARIANCE> 39
 2.122604e+01 2.033020e+01 4.133131e+01 3.809911e+01 1.005947e+02 3.083232e+01 2.616173e+01 2.645388e+01 1.631866e+01 2.694021e+01 1.648504e+01 2.892605e+01 3.765031e-03 4.584929e-01 8.142591e-01 7.165303e-01 7.361898e-01 1.685776e+00 1.110422e+00 1.205914e+00 9.605429e-01 7.702210e-01 1.661716e+00 7.286758e-01 8.241347e-01 7.480318e-04 6.345953e-02 1.612138e-01 1.050197e-01 1.726246e-01 1.632976e-01 1.525654e-01 2.652591e-01 1.671615e-01 1.208415e-01 3.002777e-01 1.179265e-01 1.473289e-01 7.361888e-05
<GCONST> 6.575813e+01
<STATE> 5
<MEAN> 39
 -4.818180e+00 -1.797344e-01 5.440972e-01 -6.862052e+00 -5.553630e+00 -4.272432e+00 8.418726e-01 -1.633328e+00 1.865299e+00 -2.990532e+00 -1.463690e+00 -1.652312e+00 5.694364e-01 -8.677552e-01 -5.506945e-01 -4.517416e-01 4.563999e-01 8.035660e-01 4.345786e-01 -1.354816e-01 1.080260e-01 -8.266002e-02 1.958613e-01 2.042743e-01 2.380034e-01 -3.908170e-02 8.787643e-02 5.414767e-02 1.114462e-01 1.041254e-01 -8.251267e-02 -8.335235e-02 4.580647e-02 -2.169985e-02 3.547927e-02 -5.383061e-02 2.015329e-02 3.400650e-02 3.039454e-03
<VARIANCE> 39
 2.960667e+01 1.698420e+01 1.123212e+01 2.102761e+01 4.178162e+01 1.721536e+01 1.699628e+01 1.548476e+01 1.197270e+01 1.372888e+01 1.465860e+01 1.694134e+01 2.000527e-02 7.535757e-01 1.069082e+00 7.487058e-01 1.140159e+00 1.230335e+00 1.536952e+00 1.255239e+00 1.519683e+00 1.074454e+00 1.383606e+00 1.325673e+00 1.257167e+00 1.981460e-03 7.257961e-02 1.291967e-01 1.129488e-01 1.738273e-01 1.522407e-01 2.237203e-01 2.039134e-01 3.343665e-01 1.705226e-01 2.677801e-01 2.008533e-01 1.899917e-01 1.494383e-04
<GCONST> 6.798399e+01
<TRANSP> 6
 0.000000e+00 1.000000e+00 0.000000e+00 0.000000e+00 0.000000e+00 0.000000e+00
 0.000000e+00 9.257535e-01 7.424655e-02 0.000000e+00 0.000000e+00 0.000000e+00
 0.000000e+00 0.000000e+00 8.556032e-01 1.443968e-01 0.000000e+00 0.000000e+00
 0.000000e+00 0.000000e+00 0.000000e+00 9.076437e-01 9.235635e-02 0.000000e+00
 0.000000e+00 0.000000e+00 0.000000e+00 0.000000e+00 8.933690e-01 1.066310e-01
 0.000000e+00 0.000000e+00 0.000000e+00 0.000000e+00 0.000000e+00 0.000000e+00
<ENDHMM>
