~o
<STREAMINFO> 1 39
<VECSIZE> 39<NULLD><MFCC_E_D_A><DIAGC>
~h "un"
<BEGINHMM>
<NUMSTATES> 4
<STATE> 2
<MEAN> 39
 2.127222e+00 -3.158106e+00 -4.947182e-01 -7.415447e+00 -1.643818e+00 2.812278e+00 2.585280e+00 -7.297009e+00 8.401935e-01 -5.988132e+00 -1.861173e+00 2.123884e+00 8.850355e-01 3.721511e-01 1.171838e-01 -5.037579e-02 -1.829991e-01 -3.402150e-02 7.756376e-02 -2.920918e-02 3.913719e-01 2.629786e-01 1.017187e-02 -1.925133e-01 -1.818398e-01 1.549258e-02 -1.157649e-01 3.085881e-02 -6.321577e-04 5.538990e-02 4.166987e-02 -9.125500e-02 -1.090794e-02 1.146494e-01 8.289682e-03 6.376007e-02 2.530554e-02 -4.213492e-02 -5.842511e-03
<VARIANCE> 39
 3.473350e+01 2.948778e+01 2.935859e+01 1.536974e+01 4.002240e+01 3.989943e+01 3.724982e+01 2.695635e+01 3.997242e+01 1.732988e+01 5.178498e+01 1.971068e+01 2.953043e-02 1.578098e+00 8.534469e-01 9.420945e-01 1.121280e+00 1.233234e+00 1.350479e+00 1.031953e+00 1.733106e+00 1.078968e+00 1.132009e+00 1.325291e+00 1.043995e+00 2.262438e-03 1.840604e-01 1.083221e-01 1.520460e-01 1.860330e-01 1.868310e-01 1.917594e-01 1.411465e-01 2.527854e-01 1.669242e-01 2.005437e-01 1.996338e-01 1.466950e-01 1.959875e-04
<GCONST> 7.522466e+01
<STATE> 3
<MEAN> 39
 -1.574712e+00 -2.451359e+00 -3.279451e-01 -3.765395e+00 -6.847777e-01 -1.849072e+00 1.909632e+00 4.228640e-01 1.940603e+00 -1.940051e+00 1.549726e-01 -1.243481e+00 6.663010e-01 -6.852187e-01 -6.078020e-02 -8.368067e-02 5.306860e-01 1.579570e-01 -2.784944e-01 2.594309e-01 1.314366e-01 -2.222231e-01 2.930201e-01 2.909597e-01 3.279183e-02 -3.831804e-02 6.262524e-02 -4.046626e-02 1.897533e-03 -4.007086e-02 -3.992003e-03 5.286716e-02 -3.045354e-02 -1.259558e-01 -1.269851e-02 -7.780214e-02 -2.141947e-02 1.570574e-01 1.458214e-03
<VARIANCE> 39
 6.200340e+01 5.028507e+01 9.622050e+00 1.727868e+01 2.418475e+01 4.148491e+01 4.530796e+01 2.534292e+01 2.596741e+01 1.269295e+01 2.280613e+01 8.295469e+00 3.171919e-02 1.621235e+00 1.827889e+00 9.348729e-01 5.804812e-01 1.177350e+00 2.162896e+00 2.249664e+00 2.154486e+00 1.833405e+00 1.282090e+00 1.282755e+00 1.121374e+00 8.269392e-04 1.687961e-01 1.802653e-01 1.536569e-01 1.056458e-01 1.897057e-01 3.123499e-01 3.481458e-01 2.749642e-01 2.528555e-01 2.179729e-01 1.709819e-01 1.648890e-01 1.295356e-04
<GCONST> 7.528728e+01
<TRANSP> 4
 0.000000e+00 1.000000e+00 0.000000e+00 0.000000e+00
 0.000000e+00 9.356782e-01 6.432183e-02 0.000000e+00
 0.000000e+00 0.000000e+00 8.974697e-01 1.025303e-01
 0.000000e+00 0.000000e+00 0.000000e+00 0.000000e+00
<ENDHMM>
