~o
<STREAMINFO> 1 39
<VECSIZE> 39<NULLD><MFCC_E_D_A><DIAGC>
~h "zero"
<BEGINHMM>
<NUMSTATES> 6
<STATE> 2
<MEAN> 39
 -1.023076e+01 1.052598e-01 1.795639e+00 -1.163770e+00 8.247053e+00 -2.236500e+00 4.147876e+00 -1.476249e+00 2.193388e+00 1.575428e+00 3.083211e+00 9.104964e-01 6.903685e-01 1.225330e-01 -6.388287e-02 3.005149e-01 3.031101e-01 5.918220e-01 -2.376800e-02 9.966307e-02 9.955280e-02 1.137800e-01 1.332278e-01 2.362909e-01 8.570204e-02 1.926965e-02 1.027347e-01 -1.341828e-01 -1.873273e-02 7.051545e-02 -4.666796e-02 8.690013e-02 -1.148632e-01 -4.431073e-02 -1.467901e-02 -2.418680e-02 5.276584e-02 -6.694973e-03 -1.356745e-04
<VARIANCE> 39
 1.626476e+01 2.257349e+01 4.107087e+01 2.286773e+01 4.966729e+01 2.356508e+01 1.685865e+01 1.585663e+01 1.587999e+01 1.701327e+01 1.889851e+01 1.547418e+01 1.608417e-02 1.600249e+00 1.052871e+00 1.056644e+00 1.416127e+00 2.075831e+00 1.779353e+00 1.655476e+00 1.373148e+00 1.586877e+00 1.187579e+00 1.407123e+00 1.117127e+00 8.636002e-04 1.671047e-01 1.186977e-01 1.241818e-01 2.421818e-01 3.100321e-01 2.942224e-01 2.538053e-01 2.562453e-01 2.950779e-01 2.323241e-01 2.389611e-01 1.818799e-01 9.353142e-05
<GCONST> 7.366818e+01
<STATE> 3
<MEAN> 39
 2.313497e-01 -8.995131e+00 7.927597e+00 5.206799e+00 1.161636e+01 3.994168e+00 4.121913e-01 -9.479620e-01 2.144603e+00 -5.814720e-01 4.510265e+00 3.611830e+00 9.383379e-01 1.088512e+00 -2.069531e-01 -1.448709e-01 -2.907364e-01 -1.413493e+00 8.149620e-01 3.482963e-01 4.870905e-02 -2.328918e-01 -1.101203e+00 -5.391759e-01 1.531186e-01 1.027650e-02 -2.310327e-01 4.061727e-01 -8.845164e-04 -4.124442e-01 -3.471343e-01 -2.624572e-01 3.101723e-01 1.774408e-01 7.523759e-02 7.867507e-03 -3.121943e-01 -1.207130e-01 -6.480068e-03
<VARIANCE> 39
 2.256129e+01 3.082759e+01 5.520119e+01 3.605995e+01 8.638410e+01 4.738953e+01 3.682246e+01 3.448472e+01 3.248431e+01 4.155663e+01 2.671201e+01 2.284044e+01 6.505264e-03 6.362239e-01 2.020753e+00 7.711927e-01 3.610877e+00 2.540100e+00 1.930177e+00 4.279393e+00 1.954912e+00 2.539990e+00 1.178815e+00 2.407698e+00 1.027571e+00 4.799093e-04 6.851704e-02 8.162710e-02 1.664353e-01 3.284554e-01 2.782345e-01 3.838010e-01 5.198364e-01 3.819431e-01 5.212925e-01 3.426458e-01 3.303453e-01 2.662682e-01 3.410668e-05
<GCONST> 8.283235e+01
<STATE> 4
<MEAN> 39
 4.668857e+00 5.031741e-01 1.440260e+01 -4.216320e+00 -6.127854e+00 -3.499004e-01 3.036369e+00 9.891768e-01 3.255198e+00 -1.698991e+00 -3.217480e+00 3.186011e+00 8.284847e-01 -4.576887e-01 1.136420e+00 4.975923e-01 -2.134942e-01 -7.220387e-01 -1.271305e+00 -6.231598e-01 -2.118346e-01 4.352443e-01 9.374670e-01 1.972536e-02 -2.439167e-01 -2.291346e-02 -8.623205e-02 -1.997915e-01 -1.890056e-02 3.413240e-01 4.502353e-01 1.463916e-02 -4.205258e-01 -2.565961e-01 -1.322464e-01 6.783484e-02 3.380585e-01 1.597595e-01 -8.359966e-04
<VARIANCE> 39
 1.853933e+01 5.379729e+01 8.600272e+01 4.292460e+01 8.129148e+01 5.739313e+01 4.628252e+01 3.166889e+01 6.230800e+01 4.179293e+01 1.808940e+01 2.709884e+01 1.212446e-02 6.421245e-01 1.889710e+00 1.534024e+00 2.130113e+00 5.288577e+00 2.262154e+00 3.533881e+00 2.955727e+00 2.923011e+00 3.000445e+00 2.572137e+00 1.772018e+00 1.256253e-03 1.016380e-01 1.526069e-01 2.068555e-01 3.509958e-01 6.866835e-01 3.876290e-01 7.261522e-01 5.700533e-01 5.586303e-01 7.648075e-01 4.088933e-01 3.578753e-01 1.830994e-04
<GCONST> 9.502315e+01
<STATE> 5
<MEAN> 39
 -3.497675e+00 3.476102e+00 6.184593e+00 -1.627874e-01 -2.106001e+00 -4.624214e+00 -7.436098e-01 -3.638997e+00 2.149127e+00 7.573772e-01 3.423839e+00 1.858065e+00 7.472748e-01 -2.891251e-01 -2.650821e-01 -3.275798e-01 4.237094e-02 3.255249e-01 1.408145e-01 -1.606228e-02 5.621204e-02 -1.549164e-01 -1.732858e-02 2.483282e-02 -6.901221e-02 -1.386871e-02 1.566953e-02 -3.431643e-02 -3.341110e-02 -6.336622e-04 1.892650e-02 6.692266e-02 9.169374e-02 6.532145e-02 -5.688682e-03 -2.009491e-02 -5.174088e-02 -4.493159e-02 -4.117870e-04
<VARIANCE> 39
 2.316174e+01 2.283517e+01 3.050926e+01 1.019115e+01 2.101524e+01 1.111605e+01 1.124581e+01 1.156619e+01 1.195100e+01 1.013318e+01 1.551022e+01 1.047644e+01 2.810935e-02 5.549932e-01 7.088389e-01 1.059235e+00 8.892303e-01 1.146537e+00 8.770888e-01 1.207248e+00 1.246690e+00 1.085064e+00 1.114486e+00 1.054672e+00 1.091537e+00 1.265281e-03 6.536558e-02 8.523425e-02 1.239190e-01 1.478954e-01 1.876956e-01 1.656891e-01 2.139448e-01 2.122733e-01 1.910177e-01 2.228404e-01 1.726834e-01 1.779468e-01 1.202447e-04
<GCONST> 6.198773e+01
<TRANSP> 6
 0.000000e+00 1.000000e+00 0.000000e+00 0.000000e+00 0.000000e+00 0.000000e+00
 0.000000e+00 9.430832e-01 5.691687e-02 0.000000e+00 0.000000e+00 0.000000e+00
 0.000000e+00 0.000000e+00 8.931689e-01 1.068311e-01 0.000000e+00 0.000000e+00
 0.000000e+00 0.000000e+00 0.000000e+00 8.845382e-01 1.154618e-01 0.000000e+00
 0.000000e+00 0.000000e+00 0.000000e+00 0.000000e+00 9.545641e-01 4.543594e-02
 0.000000e+00 0.000000e+00 0.000000e+00 0.000000e+00 0.000000e+00 0.000000e+00
<ENDHMM>
