~o
<STREAMINFO> 1 39
<VECSIZE> 39<NULLD><MFCC_E_D_A><DIAGC>
~h "cinq"
<BEGINHMM>
<NUMSTATES> 6
<STATE> 2
<MEAN> 39
 -1.507104e+01 -1.604870e+00 2.845374e+00 -7.141469e+00 6.213383e+00 -7.422297e+00 2.777373e+00 -2.344622e+00 -6.017642e-01 1.025331e-01 1.711023e-01 -2.416303e-01 5.953774e-01 1.074662e+00 -1.017619e-01 1.362687e-01 2.841632e-01 -1.698500e-01 4.842328e-01 1.082006e-01 -4.305045e-02 -1.999168e-01 -3.678407e-01 1.721168e-01 -4.052890e-02 3.089420e-02 2.153572e-01 -2.835782e-02 -5.227960e-02 -3.035941e-02 -9.075978e-02 9.800837e-02 -7.918409e-02 -8.431931e-03 -9.482931e-02 -1.090903e-01 4.289742e-02 2.045967e-03 3.725749e-03
<VARIANCE> 39
 4.635619e+01 4.320502e+01 8.645049e+01 6.849886e+01 4.686718e+01 3.750959e+01 1.969118e+01 2.818481e+01 2.036823e+01 2.357068e+01 2.574838e+01 1.729355e+01 2.726210e-02 4.909263e+00 1.451203e+00 1.470236e+00 2.668359e+00 1.724335e+00 2.926912e+00 2.096207e+00 1.990511e+00 2.264872e+00 2.516715e+00 2.033435e+00 1.509831e+00 1.000000e-02 4.135904e-01 2.175693e-01 1.912578e-01 3.564280e-01 3.507169e-01 4.706297e-01 2.924625e-01 3.322069e-01 3.751475e-01 4.132099e-01 3.623791e-01 2.016458e-01 1.000000e-02
<GCONST> 9.674947e+01
<STATE> 3
<MEAN> 39
 2.498520e+00 -3.931693e-01 -1.711182e+00 -6.923848e+00 -5.512654e-02 -5.098674e-01 1.260920e+00 -4.752581e+00 -2.295909e+00 -5.594281e+00 1.565183e+00 -2.407091e-01 9.481311e-01 1.757798e-02 -9.007254e-02 1.015456e-02 2.463117e-01 2.501946e-02 -2.090581e-01 -4.671436e-01 9.688026e-02 3.802527e-01 2.070959e-01 -1.413593e-01 2.097938e-02 -1.095610e-03 -4.098876e-01 -4.348527e-02 9.773947e-02 1.925288e-01 1.129958e-01 -2.110860e-01 -3.752373e-02 1.550507e-01 1.560493e-01 1.401616e-01 -4.322604e-02 -2.044688e-02 -8.899061e-03
<VARIANCE> 39
 6.015923e+00 1.094843e+01 1.538132e+01 2.668352e+01 2.384140e+01 2.851627e+01 2.837042e+01 2.686204e+01 3.030607e+01 2.269068e+01 1.341270e+01 1.926117e+01 1.000000e-02 1.550193e+00 6.047477e-01 9.234894e-01 2.673855e+00 2.291112e+00 9.691807e-01 1.156315e+00 9.683784e-01 1.209266e+00 1.516557e+00 1.454574e+00 7.532601e-01 1.000000e-02 2.178598e-01 1.014048e-01 1.462057e-01 2.812963e-01 2.615214e-01 1.892152e-01 1.895909e-01 1.718325e-01 2.712254e-01 3.438344e-01 2.724727e-01 1.205079e-01 1.000000e-02
<GCONST> 7.653753e+01
<STATE> 4
<MEAN> 39
 -8.777939e+00 -4.100382e+00 1.950935e+00 -3.213717e-01 1.195783e+00 -2.783878e+00 1.241327e+00 -9.637538e-01 9.917533e-02 -1.525758e+00 1.390953e+00 -1.033674e+00 5.891411e-01 -2.673706e-01 -1.087452e-01 -1.022440e-02 2.930091e-03 -8.848447e-02 1.244642e-02 5.779712e-02 1.030702e-01 9.496828e-03 1.174430e-01 1.078209e-02 -1.409468e-02 -1.209217e-02 3.194084e-02 2.012252e-02 -2.706324e-02 -4.388866e-02 -8.572958e-03 4.434566e-02 1.973362e-02 -3.417362e-02 -1.876075e-02 1.116340e-02 2.832859e-03 1.366510e-02 1.060705e-04
<VARIANCE> 39
 1.373062e+01 1.175518e+01 1.645461e+01 1.087403e+01 1.189487e+01 1.399988e+01 2.203282e+01 1.670807e+01 1.945726e+01 1.441023e+01 1.419201e+01 9.490526e+00 2.906650e-02 5.961274e-01 7.599728e-01 1.158132e+00 1.303323e+00 1.264035e+00 1.415162e+00 1.699248e+00 1.668607e+00 1.647990e+00 1.755953e+00 1.150309e+00 8.609671e-01 1.000000e-02 8.460886e-02 1.358248e-01 1.978635e-01 2.471614e-01 2.493316e-01 2.654150e-01 3.051637e-01 2.761446e-01 2.834128e-01 3.550284e-01 2.193581e-01 1.534789e-01 1.000000e-02
<GCONST> 7.469807e+01
<STATE> 5
<MEAN> 39
 5.123215e+00 -1.044215e+01 1.025749e+01 3.603455e+00 -1.528621e+00 1.903855e+00 -4.038558e+00 7.491750e+00 1.135518e+00 -3.292704e+00 7.376408e-01 -2.919487e+00 5.900638e-01 -3.529748e-01 -3.886957e-02 -6.846182e-02 -3.022838e-02 1.828504e-01 -1.089693e-02 -3.443965e-03 2.691337e-02 4.461317e-01 1.862006e-02 -6.844964e-02 -4.629704e-02 -1.930518e-02 -3.758438e-02 6.136613e-02 1.891235e-02 7.789280e-04 9.680788e-02 -2.153146e-02 5.685623e-02 -3.780928e-02 4.972989e-02 5.899070e-02 3.101263e-02 2.644529e-03 -1.133215e-03
<VARIANCE> 39
 7.423477e+01 1.157209e+02 5.800888e+01 2.917227e+01 9.076895e+01 5.999655e+01 1.665250e+02 5.563146e+01 6.874808e+01 2.096766e+01 2.009264e+01 3.107987e+01 1.334278e-01 1.384382e+00 4.773158e+00 3.117145e+00 1.788775e+00 5.509044e+00 3.598473e+00 9.317713e+00 3.319783e+00 2.778136e+00 1.351598e+00 1.635942e+00 1.396333e+00 1.000000e-02 2.083114e-01 5.740959e-01 5.264102e-01 3.180243e-01 6.704893e-01 5.646892e-01 1.110551e+00 5.230706e-01 3.367066e-01 2.399237e-01 3.646742e-01 2.742146e-01 1.000000e-02
<GCONST> 1.103223e+02
<TRANSP> 6
 0.000000e+00 1.000000e+00 0.000000e+00 0.000000e+00 0.000000e+00 0.000000e+00
 0.000000e+00 9.270073e-01 7.299270e-02 0.000000e+00 0.000000e+00 0.000000e+00
 0.000000e+00 0.000000e+00 8.969072e-01 1.030928e-01 0.000000e+00 0.000000e+00
 0.000000e+00 0.000000e+00 0.000000e+00 9.619772e-01 7.604563e-03 3.041825e-02
 0.000000e+00 0.000000e+00 0.000000e+00 0.000000e+00 9.726027e-01 2.739726e-02
 0.000000e+00 0.000000e+00 0.000000e+00 0.000000e+00 0.000000e+00 0.000000e+00
<ENDHMM>
