~o
<STREAMINFO> 1 39
<VECSIZE> 39<NULLD><MFCC_E_D_A><DIAGC>
~h "deux"
<BEGINHMM>
<NUMSTATES> 4
<STATE> 2
<MEAN> 39
 -6.817748e+00 -4.378520e+00 2.758189e+00 -1.857886e-01 2.529537e+00 3.328109e+00 2.484261e+00 -2.121144e+00 1.228052e+00 -1.349736e+00 2.315051e+00 9.403937e-01 7.048877e-01 4.727931e-01 -1.859557e-01 2.496005e-01 2.547643e-01 7.825032e-02 6.976327e-01 4.922920e-01 2.424296e-02 1.799170e-01 -1.518567e-01 3.845902e-01 3.622882e-01 2.674478e-02 1.386682e-02 1.371603e-02 -2.346685e-02 3.398844e-02 -2.844309e-02 -1.856876e-02 1.078912e-02 -6.482798e-02 -2.680643e-02 -6.704881e-03 -2.582828e-02 4.609502e-02 -2.110703e-04
<VARIANCE> 39
 3.073141e+01 2.745268e+01 3.119293e+01 1.477355e+01 2.089523e+01 5.856448e+01 1.817636e+01 1.466067e+01 1.591072e+01 2.255420e+01 2.305664e+01 2.913455e+01 3.194573e-02 5.964735e-01 9.198522e-01 1.200242e+00 1.575767e+00 1.810079e+00 2.345017e+00 2.119402e+00 1.747210e+00 1.556575e+00 1.609055e+00 2.775777e+00 2.204785e+00 1.000000e-02 7.383949e-02 1.485510e-01 2.153616e-01 2.767885e-01 3.107277e-01 3.998343e-01 3.230018e-01 2.577671e-01 2.667733e-01 2.816840e-01 5.581676e-01 4.115489e-01 1.000000e-02
<GCONST> 8.653996e+01
<STATE> 3
<MEAN> 39
 -3.593169e+00 -3.089636e+00 2.716651e+00 2.124010e+00 3.517461e+00 6.997575e+00 7.488669e+00 -1.620808e+00 8.062479e-01 -2.522490e+00 3.752126e+00 4.740697e+00 7.653420e-01 -4.552452e-01 2.892804e-01 -3.323676e-01 -2.797852e-01 -9.837908e-02 -6.802217e-01 -3.352815e-01 1.975716e-01 6.209727e-03 1.463310e-01 -2.824953e-01 -3.298111e-01 -3.116532e-02 -4.714572e-02 -1.178801e-02 5.312911e-03 -5.773138e-02 1.412444e-02 -8.717321e-02 -8.788136e-02 1.173024e-02 2.114812e-02 3.020189e-02 1.992960e-02 -6.053790e-02 -2.174771e-03
<VARIANCE> 39
 1.706342e+01 1.277830e+01 1.387114e+01 1.327513e+01 2.255140e+01 3.677480e+01 2.727618e+01 2.288403e+01 1.424736e+01 2.075313e+01 2.329005e+01 1.695979e+01 5.356178e-02 4.845897e-01 8.070855e-01 5.443708e-01 7.033847e-01 1.387689e+00 1.237806e+00 1.458671e+00 1.280079e+00 1.067062e+00 1.492142e+00 1.103835e+00 1.112886e+00 1.000000e-02 5.330972e-02 1.072696e-01 8.516545e-02 1.197820e-01 2.173505e-01 2.454754e-01 2.141664e-01 2.196602e-01 1.969335e-01 2.884397e-01 1.829128e-01 2.097338e-01 1.000000e-02
<GCONST> 7.303752e+01
<TRANSP> 4
 0.000000e+00 1.000000e+00 0.000000e+00 0.000000e+00
 0.000000e+00 9.408284e-01 5.917159e-02 0.000000e+00
 0.000000e+00 0.000000e+00 9.425287e-01 5.747127e-02
 0.000000e+00 0.000000e+00 0.000000e+00 0.000000e+00
<ENDHMM>
