~o
<STREAMINFO> 1 39
<VECSIZE> 39<NULLD><MFCC_E_D_A><DIAGC>
~h "huit"
<BEGINHMM>
<NUMSTATES> 6
<STATE> 2
<MEAN> 39
 -7.875280e+00 -4.666641e+00 2.792504e+00 4.599514e+00 5.356529e+00 4.482362e-01 6.970664e-01 -1.449950e+00 7.145105e+00 2.304851e+00 -4.241571e-01 -1.057926e+00 8.358715e-01 -2.861496e-02 2.073415e-02 9.310443e-02 -3.995719e-02 1.009805e-01 3.617352e-03 -4.592521e-02 4.677065e-02 8.335273e-02 6.184394e-02 5.112132e-02 4.896424e-02 7.590838e-03 -2.065825e-02 1.401901e-02 -8.265153e-02 -4.543652e-02 -8.180328e-02 -4.979632e-02 5.358082e-02 -1.300641e-02 -1.018860e-01 -4.730862e-02 2.387532e-03 1.402588e-02 -4.339200e-03
<VARIANCE> 39
 4.410134e+00 9.777998e+00 2.793498e+01 2.623884e+01 3.088609e+01 1.751127e+01 1.298928e+01 1.852103e+01 1.967492e+01 1.907197e+01 1.217344e+01 9.939020e+00 3.054534e-02 3.804420e-01 7.724221e-01 2.255087e+00 2.504500e+00 3.034945e+00 2.264674e+00 1.780587e+00 1.904406e+00 2.338213e+00 1.336774e+00 1.350015e+00 8.234759e-01 1.000000e-02 4.570187e-02 1.074608e-01 2.836145e-01 3.471397e-01 5.526732e-01 4.714306e-01 3.758633e-01 3.907850e-01 3.953822e-01 2.259269e-01 2.409820e-01 1.512219e-01 1.000000e-02
<GCONST> 8.011488e+01
<STATE> 3
<MEAN> 39
 -3.373981e+00 -1.064062e+01 1.595742e+01 9.635247e+00 3.985711e+00 3.842969e+00 -5.027731e+00 3.310211e+00 5.927742e+00 -5.675256e-01 5.481851e-01 1.615588e+00 6.298873e-01 -9.106822e-02 -1.670846e-01 -9.277271e-02 -2.119621e-01 -4.878483e-02 -5.717082e-02 -1.469647e-01 -4.966282e-02 -1.930810e-01 1.188447e-01 -4.092837e-02 -4.275445e-02 -1.160610e-02 -1.650916e-02 2.515475e-02 -3.243661e-02 -6.485259e-02 2.446541e-02 -2.137951e-02 4.451684e-02 -2.465512e-02 -1.817010e-03 -6.020524e-02 -4.065641e-02 1.243444e-03 -1.814184e-03
<VARIANCE> 39
 3.871976e+01 7.172303e+01 1.809899e+02 8.699995e+01 5.770234e+01 5.409422e+01 7.636182e+01 3.365232e+01 4.153960e+01 2.794966e+01 3.880236e+01 1.827792e+01 1.260222e-01 1.825497e+00 5.198182e+00 5.522926e+00 5.263666e+00 4.134740e+00 4.230011e+00 5.034190e+00 2.332867e+00 4.295465e+00 2.489240e+00 2.567815e+00 1.518045e+00 1.000000e-02 2.156349e-01 7.874324e-01 5.559746e-01 8.516342e-01 7.115359e-01 7.486511e-01 8.925198e-01 4.830540e-01 6.626817e-01 4.831372e-01 4.829480e-01 2.700633e-01 1.000000e-02
<GCONST> 1.150150e+02
<STATE> 4
<MEAN> 39
 -1.052490e+01 -2.501294e+00 3.178272e-02 -2.800668e+00 1.724484e+00 -2.697519e+00 1.390259e+00 -2.080569e+00 1.560550e-01 -1.185556e+00 9.586610e-01 -1.554970e+00 5.458147e-01 -3.926589e-02 -2.447423e-02 -6.373458e-02 -8.148085e-02 -3.811840e-02 -1.158299e-02 2.379304e-02 -2.110920e-02 -9.531754e-02 9.046157e-03 -8.268068e-03 -3.390486e-03 -3.519894e-03 1.107136e-03 -2.864547e-03 8.468235e-02 2.288326e-02 1.804740e-02 1.760671e-02 -2.329425e-02 2.012083e-02 5.905623e-02 2.596229e-02 -8.487993e-03 -9.512148e-03 3.106158e-03
<VARIANCE> 39
 4.658366e+00 4.678364e+00 7.896430e+00 9.342033e+00 1.245311e+01 1.035739e+01 1.478917e+01 1.269770e+01 1.062712e+01 1.062218e+01 1.020888e+01 1.010888e+01 2.699004e-02 4.003782e-01 3.573318e-01 6.926131e-01 8.588966e-01 1.196630e+00 1.146815e+00 1.453469e+00 1.099697e+00 1.140539e+00 1.021519e+00 8.717735e-01 9.441321e-01 1.000000e-02 7.426623e-02 7.166125e-02 1.268433e-01 1.638550e-01 2.297897e-01 2.459174e-01 2.837951e-01 1.967936e-01 2.269187e-01 1.781508e-01 1.748372e-01 1.778408e-01 1.000000e-02
<GCONST> 6.242789e+01
<STATE> 5
<MEAN> 39
 -8.673157e+00 -6.623921e+00 9.902319e+00 -8.142923e+00 9.025962e+00 -3.497684e+00 -5.324887e+00 -6.521036e-01 -3.268213e+00 3.061419e+00 -2.072736e+00 -1.792849e+00 3.734718e-01 5.772979e-01 1.147567e-01 2.428018e-01 1.513702e-01 1.435023e-01 5.295324e-01 -3.642960e-01 -3.398464e-01 -6.505630e-02 -4.134740e-01 5.540524e-02 -1.026886e-01 1.022943e-02 6.046179e-02 1.913943e-02 -3.804718e-02 1.200699e-01 -7.671366e-02 1.444232e-01 8.055941e-02 7.705763e-03 7.818282e-03 -1.637986e-01 -3.759338e-03 1.240135e-02 -1.441021e-03
<VARIANCE> 39
 5.308727e+01 4.137476e+01 6.454878e+01 6.369993e+01 4.442865e+01 6.247472e+01 5.121463e+01 3.418946e+01 1.373564e+01 3.348156e+01 2.324897e+01 1.452587e+01 6.751989e-02 2.371044e+00 1.200869e+00 3.722863e+00 4.943463e+00 3.225927e+00 3.866269e+00 2.438386e+00 2.302628e+00 1.674910e+00 3.300380e+00 1.572074e+00 9.166148e-01 1.000000e-02 4.067006e-01 1.335354e-01 4.486719e-01 5.745601e-01 4.517301e-01 4.024523e-01 4.699973e-01 3.784811e-01 2.266380e-01 5.267968e-01 2.172102e-01 1.821336e-01 1.000000e-02
<GCONST> 1.003651e+02
<TRANSP> 6
 0.000000e+00 7.000000e-01 3.000000e-01 0.000000e+00 0.000000e+00 0.000000e+00
 0.000000e+00 9.597701e-01 0.000000e+00 4.022989e-02 0.000000e+00 0.000000e+00
 0.000000e+00 0.000000e+00 9.651163e-01 3.488372e-02 0.000000e+00 0.000000e+00
 0.000000e+00 0.000000e+00 0.000000e+00 9.633700e-01 3.663004e-02 0.000000e+00
 0.000000e+00 0.000000e+00 0.000000e+00 0.000000e+00 8.412699e-01 1.587302e-01
 0.000000e+00 0.000000e+00 0.000000e+00 0.000000e+00 0.000000e+00 0.000000e+00
<ENDHMM>
