~o
<STREAMINFO> 1 39
<VECSIZE> 39<NULLD><MFCC_E_D_A><DIAGC>
~h "moins"
<BEGINHMM>
<NUMSTATES> 7
<STATE> 2
<MEAN> 39
 -5.980098e+00 -1.469736e+00 7.732112e-01 -3.723058e-01 6.379575e-01 -3.355309e+00 3.400661e+00 5.439328e-01 1.280514e+00 -1.941111e+00 1.925481e+00 2.400862e-01 7.606408e-01 6.065108e-01 3.741948e-01 4.471377e-01 3.445081e-01 2.034023e-02 3.141794e-02 6.445946e-02 -4.050235e-02 -6.371565e-02 -1.412333e-01 -9.113891e-02 -9.455943e-02 2.438115e-02 2.011110e-02 5.015428e-02 4.042455e-02 -4.991481e-03 -1.768951e-02 -3.612655e-02 -1.585733e-01 -1.044299e-01 -4.991105e-02 -3.497317e-02 -9.908530e-03 -3.183098e-02 -1.317214e-03
<VARIANCE> 39
 8.796867e+00 7.069270e+00 1.055582e+01 9.863213e+00 9.089187e+00 8.846012e+00 1.482423e+01 2.239346e+01 1.191644e+01 8.277682e+00 1.498086e+01 1.085309e+01 2.225417e-02 3.235021e-01 4.758014e-01 6.585628e-01 5.771042e-01 1.094636e+00 1.311841e+00 1.262097e+00 1.571783e+00 1.440856e+00 1.003647e+00 1.292148e+00 8.985227e-01 1.000000e-02 2.958198e-02 4.387100e-02 1.212776e-01 9.045804e-02 2.078636e-01 3.240132e-01 2.644402e-01 2.560819e-01 2.261074e-01 1.752434e-01 2.088460e-01 1.820841e-01 1.000000e-02
<GCONST> 6.299071e+01
<STATE> 3
<MEAN> 39
 3.825706e+00 -8.567818e-01 8.853445e+00 3.675505e+00 -7.531821e+00 -5.322826e+00 -3.524359e+00 3.061507e+00 7.744490e+00 -6.894076e+00 -2.156299e+00 4.437362e+00 8.941580e-01 7.273214e-01 1.146011e-01 4.134592e-01 -7.476961e-01 -1.305127e+00 -6.632741e-01 -1.488307e+00 -8.380496e-01 3.329382e-01 1.212196e-01 -1.702829e-02 3.072029e-01 1.154874e-02 -9.144200e-02 -1.158776e-01 -2.082161e-01 -3.195002e-01 -1.142878e-01 1.027646e-01 2.235213e-01 2.082819e-01 1.480083e-01 2.559608e-01 1.071466e-01 -9.268985e-02 -1.032939e-03
<VARIANCE> 39
 2.647655e+01 6.637952e+01 3.553487e+01 1.382090e+01 1.163610e+02 1.512708e+01 5.093134e+01 1.405327e+02 1.293737e+02 2.304249e+01 2.117711e+01 5.975053e+01 1.224783e-02 3.144183e-01 1.200583e+00 1.996427e+00 1.188531e+00 1.494570e+00 2.229206e+00 1.717611e+00 1.195116e+00 2.353889e+00 1.794042e+00 1.391822e+00 1.642004e+00 1.000000e-02 3.747771e-02 9.391609e-02 2.167197e-01 1.632995e-01 2.994270e-01 3.758712e-01 3.129996e-01 2.965172e-01 2.585051e-01 2.070231e-01 2.674415e-01 2.893667e-01 1.000000e-02
<GCONST> 8.826566e+01
<STATE> 4
<MEAN> 39
 7.613144e+00 -7.770985e+00 1.891146e+01 -9.503971e-01 -8.838875e+00 1.538638e+00 3.453444e+00 9.571180e+00 -5.763438e+00 -1.895398e+00 5.113200e+00 -8.046374e+00 8.139260e-01 2.253449e-01 -2.082702e-01 -3.858060e-01 -3.669229e-02 5.142794e-02 3.815206e-01 3.893370e-01 4.225825e-01 2.289381e-01 -2.818738e-01 -2.364382e-01 -2.966829e-01 2.925027e-03 -1.233003e-01 8.908390e-02 -1.606756e-01 8.485933e-02 1.957730e-01 -5.273141e-02 6.125421e-02 5.065194e-02 -4.945967e-02 -2.622796e-02 -1.047060e-02 1.188380e-01 -3.398835e-03
<VARIANCE> 39
 1.168928e+01 7.998539e+01 1.368485e+02 3.976345e+01 1.033596e+02 1.541667e+01 8.939495e+01 9.157209e+01 1.425477e+02 1.660082e+01 2.591630e+01 5.143281e+01 2.722437e-02 1.175623e+00 3.520221e+00 8.730860e+00 2.536619e+00 6.746761e+00 2.100554e+00 7.017122e+00 5.760867e+00 5.961696e+00 2.355063e+00 2.840444e+00 3.173026e+00 1.000000e-02 1.243900e-01 2.936038e-01 1.157288e+00 3.775215e-01 6.573325e-01 3.926590e-01 9.893643e-01 8.620958e-01 1.332997e+00 5.869007e-01 5.782893e-01 3.428044e-01 1.000000e-02
<GCONST> 1.138479e+02
<STATE> 5
<MEAN> 39
 6.358114e+00 2.164776e-01 2.364823e+00 -7.609675e+00 -9.390599e+00 -2.960143e+00 -2.647334e-01 -4.660498e-02 5.487127e+00 -3.847751e+00 -3.040469e+00 -3.097398e-02 9.584791e-01 -1.321006e-01 -2.787998e-01 -6.217170e-01 -3.236258e-01 3.144670e-01 4.740311e-01 8.589596e-01 4.434430e-01 6.464514e-03 -1.067222e-01 -2.133071e-01 -2.985706e-01 -9.827531e-03 -1.788324e-01 2.317815e-02 8.107056e-02 2.821125e-01 2.249727e-01 3.602403e-02 2.987128e-02 -6.298307e-02 -1.311534e-01 -8.671182e-02 8.437028e-03 1.331680e-02 -5.315462e-03
<VARIANCE> 39
 2.956272e+01 4.933359e+01 3.654057e+01 2.305408e+01 3.562077e+01 5.059948e+01 7.849503e+01 2.175682e+01 4.905859e+01 4.509669e+01 3.371214e+01 2.045094e+01 1.000000e-02 4.275594e-01 3.844234e-01 8.231352e-01 1.401436e+00 1.306401e+00 1.126601e+00 9.540535e-01 1.082730e+00 1.127547e+00 1.137505e+00 1.148173e+00 9.171335e-01 1.000000e-02 4.095204e-02 5.729513e-02 9.472251e-02 8.783117e-02 2.599812e-01 2.150023e-01 2.489897e-01 1.822520e-01 9.466200e-02 1.952871e-01 1.905247e-01 1.758865e-01 1.000000e-02
<GCONST> 7.590966e+01
<STATE> 6
<MEAN> 39
 -3.288111e+00 -8.319100e-01 6.846072e-01 -1.980910e+00 -1.368231e+00 -1.037973e+00 3.492782e+00 1.616916e+00 2.068836e+00 -2.050311e+00 -7.257390e-02 -2.138228e+00 6.454623e-01 -1.050002e+00 -7.980905e-02 -2.009345e-01 2.268962e-01 4.012604e-01 -1.128919e-02 1.213611e-01 -6.239801e-02 -1.446773e-01 2.321512e-01 9.207325e-02 -1.870313e-01 -4.181506e-02 7.471880e-02 -2.536708e-02 5.058909e-03 -3.819966e-02 -5.928077e-02 -7.438832e-02 -8.277217e-02 -5.669645e-02 2.636366e-02 -2.237423e-02 -1.286651e-02 8.717930e-04 7.285415e-04
<VARIANCE> 39
 3.381241e+01 8.876057e+00 1.842687e+01 2.108591e+01 1.468893e+01 2.473297e+01 3.923188e+01 6.034518e+01 1.313335e+01 1.273166e+01 1.163619e+01 1.337781e+01 3.779383e-02 5.385728e-01 7.711499e-01 6.072761e-01 7.401888e-01 5.973476e-01 1.446207e+00 2.570976e+00 1.647420e+00 1.239153e+00 1.145653e+00 9.833129e-01 9.027578e-01 1.000000e-02 6.830428e-02 6.773993e-02 1.022607e-01 8.442301e-02 1.064180e-01 2.021243e-01 4.819386e-01 2.686372e-01 2.077606e-01 1.885726e-01 1.292412e-01 1.207163e-01 1.000000e-02
<GCONST> 7.112812e+01
<TRANSP> 7
 0.000000e+00 1.000000e+00 0.000000e+00 0.000000e+00 0.000000e+00 0.000000e+00 0.000000e+00
 0.000000e+00 9.137931e-01 8.620691e-02 0.000000e+00 0.000000e+00 0.000000e+00 0.000000e+00
 0.000000e+00 0.000000e+00 8.461539e-01 3.076923e-02 1.230769e-01 0.000000e+00 0.000000e+00
 0.000000e+00 0.000000e+00 0.000000e+00 9.512195e-01 0.000000e+00 4.878049e-02 0.000000e+00
 0.000000e+00 0.000000e+00 0.000000e+00 0.000000e+00 8.974359e-01 1.025641e-01 0.000000e+00
 0.000000e+00 0.000000e+00 0.000000e+00 0.000000e+00 0.000000e+00 8.901099e-01 1.098901e-01
 0.000000e+00 0.000000e+00 0.000000e+00 0.000000e+00 0.000000e+00 0.000000e+00 0.000000e+00
<ENDHMM>
