~o
<STREAMINFO> 1 39
<VECSIZE> 39<NULLD><MFCC_E_D_A><DIAGC>
~h "neuf"
<BEGINHMM>
<NUMSTATES> 5
<STATE> 2
<MEAN> 39
 2.398009e+00 -1.135461e+01 9.652857e+00 -2.168791e+00 1.014423e-01 6.599891e+00 6.292770e-01 1.809924e+00 -2.865496e+00 -2.244336e+00 3.193191e+00 1.978731e+00 6.009902e-01 7.398599e-02 -4.384433e-01 8.287165e-03 -3.009741e-01 -4.020517e-02 -5.270376e-02 -1.329544e-01 -8.684520e-02 -7.204314e-02 -4.791205e-02 -1.213636e-01 7.341796e-02 4.842584e-03 1.963965e-03 1.536361e-02 -2.106687e-02 6.287726e-03 1.023608e-02 6.281811e-03 -3.044337e-02 1.329344e-03 -1.684003e-02 -3.273910e-02 3.408178e-02 2.717144e-02 -3.663973e-04
<VARIANCE> 39
 7.245745e+01 9.090150e+01 3.658107e+01 1.387421e+02 4.120726e+01 5.335668e+01 6.444415e+01 4.686005e+01 6.300601e+01 5.651976e+01 5.078115e+01 4.676896e+01 9.408635e-02 1.931844e+00 2.076656e+00 1.712667e+00 3.308361e+00 2.954090e+00 4.059497e+00 4.334049e+00 4.066271e+00 2.882254e+00 3.780981e+00 1.792548e+00 2.065116e+00 1.000000e-02 1.851883e-01 3.332780e-01 2.579713e-01 4.546383e-01 5.649579e-01 7.037598e-01 8.201945e-01 7.713472e-01 4.606583e-01 6.075201e-01 2.103215e-01 3.435822e-01 1.000000e-02
<GCONST> 1.110526e+02
<STATE> 3
<MEAN> 39
 -4.651906e+00 -2.754378e+00 1.357096e+00 3.334644e-01 3.817196e+00 2.754803e-04 1.797749e+00 -2.958290e+00 -1.749394e+00 -3.122581e+00 3.043483e+00 9.045210e-01 7.458644e-01 -5.647578e-02 -7.960009e-02 2.121303e-02 -9.669431e-03 -1.028833e-02 1.894338e-03 -1.665920e-02 -1.583275e-02 -2.317414e-02 -3.291113e-02 9.541956e-03 -2.457424e-04 1.897061e-03 -1.911617e-02 -6.431959e-03 6.302228e-03 -4.199476e-03 -1.329455e-02 -4.569650e-03 1.399086e-02 2.756053e-03 -4.633821e-03 1.743929e-02 8.258693e-03 -1.725134e-02 -1.734455e-03
<VARIANCE> 39
 3.308010e+01 1.003105e+01 1.322416e+01 1.805376e+01 1.362680e+01 2.081911e+01 1.741883e+01 1.731958e+01 2.339338e+01 1.415621e+01 1.202405e+01 1.153184e+01 6.020970e-02 1.606430e+00 5.969592e-01 7.348459e-01 1.096291e+00 9.448805e-01 1.379923e+00 1.416622e+00 1.491501e+00 1.612641e+00 1.011371e+00 1.006410e+00 8.922729e-01 1.000000e-02 1.624630e-01 1.041297e-01 1.330659e-01 1.939294e-01 1.780477e-01 2.577918e-01 2.738867e-01 2.520339e-01 2.559190e-01 1.696944e-01 2.006127e-01 1.674650e-01 1.000000e-02
<GCONST> 7.414468e+01
<STATE> 4
<MEAN> 39
 -1.053302e+01 -4.039849e+00 -7.436974e-02 -2.619364e+00 1.226473e+00 -2.064501e+00 9.965451e-01 -2.308707e+00 2.243311e-01 -1.386582e+00 1.147039e+00 -2.800901e-01 4.886174e-01 2.666320e-02 6.111054e-02 -9.382507e-03 -2.003497e-02 -1.233843e-02 2.717692e-02 3.890718e-03 1.841470e-02 -2.680872e-03 -2.256670e-02 -5.709322e-02 -2.289729e-02 -3.935731e-03 1.798075e-02 2.212390e-02 7.684464e-03 4.165686e-03 1.570517e-02 -7.858768e-03 -2.093510e-02 -3.362152e-03 -1.859241e-02 -3.046521e-03 7.508947e-03 1.253000e-02 5.183706e-04
<VARIANCE> 39
 6.980326e+00 8.475674e+00 6.445277e+00 9.441067e+00 9.687238e+00 1.092866e+01 9.551323e+00 1.104470e+01 1.160127e+01 1.178714e+01 1.210580e+01 9.569353e+00 1.915573e-02 2.238752e-01 3.019373e-01 4.794593e-01 8.810825e-01 9.725893e-01 8.844746e-01 1.003561e+00 1.068094e+00 9.853164e-01 1.159854e+00 1.164515e+00 9.074917e-01 1.000000e-02 4.110359e-02 5.653094e-02 9.336917e-02 1.666804e-01 1.906157e-01 1.741992e-01 1.898767e-01 2.006477e-01 2.039704e-01 2.418135e-01 2.445828e-01 1.773938e-01 1.000000e-02
<GCONST> 5.919625e+01
<TRANSP> 5
 0.000000e+00 1.000000e+00 0.000000e+00 0.000000e+00 0.000000e+00
 0.000000e+00 9.200000e-01 8.000000e-02 0.000000e+00 0.000000e+00
 0.000000e+00 0.000000e+00 9.568965e-01 4.310345e-02 0.000000e+00
 0.000000e+00 0.000000e+00 0.000000e+00 9.668874e-01 3.311258e-02
 0.000000e+00 0.000000e+00 0.000000e+00 0.000000e+00 0.000000e+00
<ENDHMM>
