~o
<STREAMINFO> 1 39
<VECSIZE> 39<NULLD><MFCC_E_D_A><DIAGC>
~h "plus"
<BEGINHMM>
<NUMSTATES> 6
<STATE> 2
<MEAN> 39
 -3.866783e+00 -9.328296e+00 -3.082110e-01 2.335404e+00 7.501834e+00 3.548638e+00 9.988129e-01 -3.022206e+00 2.651194e+00 1.436494e+00 9.348222e-01 3.860980e-01 7.767484e-01 2.249940e-01 -3.062235e-01 4.598625e-01 8.214259e-01 1.138669e-01 2.854179e-01 -2.061884e-01 -1.625146e-01 4.731339e-01 4.589298e-01 1.446902e-01 1.996819e-01 2.327751e-02 -1.107693e-02 2.550617e-02 1.021590e-01 5.606851e-03 -1.309113e-01 -1.782272e-02 2.988176e-02 -1.572711e-02 -3.907076e-03 -6.567589e-02 3.786274e-02 1.267753e-02 -4.017582e-04
<VARIANCE> 39
 1.736950e+01 3.620501e+01 3.347490e+01 5.306837e+01 2.471114e+01 3.601215e+01 2.606366e+01 2.002752e+01 2.849452e+01 2.517353e+01 1.400590e+01 1.252965e+01 3.354723e-02 7.132668e-01 1.180587e+00 1.536820e+00 1.761387e+00 1.627122e+00 2.655706e+00 2.510386e+00 1.740657e+00 1.754226e+00 2.000192e+00 1.317319e+00 1.499877e+00 1.000000e-02 1.140410e-01 1.865481e-01 1.694907e-01 2.437005e-01 3.035255e-01 3.736714e-01 4.095711e-01 3.354717e-01 3.018708e-01 3.548110e-01 2.508597e-01 2.421118e-01 1.000000e-02
<GCONST> 8.725488e+01
<STATE> 3
<MEAN> 39
 -2.073368e+00 -1.455339e+01 9.919088e+00 1.038778e+01 2.511305e+00 8.183558e+00 -8.643007e-01 -3.720460e+00 8.314979e+00 2.717686e+00 3.363437e+00 2.353040e+00 9.159635e-01 -9.723653e-01 2.378418e-01 6.476198e-01 -1.482442e+00 -7.621191e-01 -5.585198e-01 -1.612071e-01 4.707188e-01 -4.677629e-01 -4.122535e-01 7.095195e-02 -2.694496e-01 -2.022894e-02 -2.790683e-01 1.616139e-01 -1.433894e-01 -5.118045e-01 8.872446e-02 -1.634812e-01 -9.527434e-02 -2.554459e-02 -2.045749e-01 -8.338073e-02 -2.382896e-01 -1.165760e-01 -8.509891e-03
<VARIANCE> 39
 3.234889e+01 7.092152e+01 2.054706e+01 4.844672e+01 1.813542e+01 4.945113e+01 2.889268e+01 2.106542e+01 2.417992e+01 2.623468e+01 1.521361e+01 1.696776e+01 1.000000e-02 2.094478e+00 1.608424e+00 1.248094e+00 4.564021e+00 2.480645e+00 1.465386e+00 1.459984e+00 2.122240e+00 3.376518e+00 2.888942e+00 1.549374e+00 1.662948e+00 1.000000e-02 1.777961e-01 2.089481e-01 1.815712e-01 4.104528e-01 2.745719e-01 3.036875e-01 2.309188e-01 3.613297e-01 4.521157e-01 4.237297e-01 2.104387e-01 2.811703e-01 1.000000e-02
<GCONST> 9.098212e+01
<STATE> 4
<MEAN> 39
 -1.650815e+01 -6.491666e+00 1.578855e+01 -1.113635e+01 4.394885e+00 5.060758e+00 -5.780261e+00 -8.750350e-01 2.750994e+00 6.843195e-01 -2.033073e+00 4.083506e-01 7.343168e-01 -3.313067e-01 2.481463e-01 6.566134e-02 -6.250706e-01 -5.624921e-03 5.653933e-02 -1.272785e-01 -8.773705e-02 -8.562888e-02 -3.065404e-01 -1.918631e-01 2.728756e-02 -6.235371e-03 1.484192e-01 -7.239661e-02 -4.255832e-02 1.975943e-01 -7.769531e-03 8.028869e-02 2.904838e-02 -1.632264e-02 1.065791e-01 5.032203e-02 5.517305e-02 5.666276e-02 1.739889e-03
<VARIANCE> 39
 1.590934e+01 1.246628e+02 8.463439e+01 4.423840e+01 4.393351e+01 2.518536e+01 2.101972e+01 1.660842e+01 2.735918e+01 3.320773e+01 2.697649e+01 1.506452e+01 1.623084e-02 1.228993e+00 6.565447e-01 1.061480e+00 2.152336e+00 1.844594e+00 2.149048e+00 1.726503e+00 1.497059e+00 1.837409e+00 1.210372e+00 1.903767e+00 1.313661e+00 1.000000e-02 1.333768e-01 1.033662e-01 1.708972e-01 3.850276e-01 3.151422e-01 3.637609e-01 4.047121e-01 3.868754e-01 3.729565e-01 2.172236e-01 3.673146e-01 2.739135e-01 1.000000e-02
<GCONST> 8.866940e+01
<STATE> 5
<MEAN> 39
 -1.260753e+01 -4.346995e+00 6.526803e+00 -7.972265e+00 1.016966e+00 1.439483e+00 -2.744220e+00 -2.385559e+00 2.914335e+00 -2.782894e+00 1.071138e+00 1.080453e-01 6.465055e-01 1.658923e-01 6.600247e-02 -2.435379e-01 1.060340e-01 5.131532e-02 -1.177560e-01 4.328762e-02 4.965146e-04 -5.155328e-02 8.934681e-02 -2.453040e-02 -2.834456e-03 -8.513337e-03 1.707554e-02 -5.217107e-03 -2.607398e-02 4.906712e-02 1.401188e-02 -1.202037e-02 1.523222e-03 -1.060557e-03 -1.411709e-03 1.242647e-02 3.685423e-03 -8.413633e-03 9.193542e-04
<VARIANCE> 39
 1.041950e+01 9.385833e+00 1.787114e+01 1.299074e+01 1.441008e+01 2.075599e+01 1.361271e+01 1.546920e+01 1.939033e+01 1.289096e+01 1.320088e+01 1.192145e+01 1.289298e-02 2.507462e-01 4.549407e-01 7.866058e-01 1.118605e+00 1.109903e+00 1.495291e+00 1.222970e+00 1.460965e+00 1.157087e+00 1.218799e+00 1.267666e+00 1.193150e+00 1.000000e-02 3.440459e-02 7.629398e-02 1.223618e-01 2.227087e-01 1.880664e-01 2.656662e-01 2.047079e-01 2.741033e-01 2.222925e-01 2.383440e-01 2.414264e-01 2.309800e-01 1.000000e-02
<GCONST> 6.807561e+01
<TRANSP> 6
 0.000000e+00 1.000000e+00 0.000000e+00 0.000000e+00 0.000000e+00 0.000000e+00
 0.000000e+00 9.259259e-01 7.407407e-02 0.000000e+00 0.000000e+00 0.000000e+00
 0.000000e+00 0.000000e+00 8.765432e-01 1.234568e-01 0.000000e+00 0.000000e+00
 0.000000e+00 0.000000e+00 0.000000e+00 9.186992e-01 8.130082e-02 0.000000e+00
 0.000000e+00 0.000000e+00 0.000000e+00 0.000000e+00 9.456522e-01 5.434783e-02
 0.000000e+00 0.000000e+00 0.000000e+00 0.000000e+00 0.000000e+00 0.000000e+00
<ENDHMM>
