~o
<STREAMINFO> 1 39
<VECSIZE> 39<NULLD><MFCC_E_D_A><DIAGC>
~h "quatre"
<BEGINHMM>
<NUMSTATES> 7
<STATE> 2
<MEAN> 39
 -5.483572e+00 -6.538333e+00 5.148878e+00 -8.523323e-02 2.273491e+00 -2.201251e-01 3.862417e-02 -1.296052e+00 -1.454519e-01 -2.478559e+00 1.478794e+00 -1.376182e+00 6.592128e-01 1.185747e+00 -1.285652e-02 5.695135e-01 7.731382e-01 -2.038691e-02 2.756608e-01 -5.037547e-01 -5.332697e-01 -1.069121e-01 -6.057932e-01 1.165467e-01 2.472915e-02 5.280523e-02 1.555699e-01 -2.006081e-02 -2.554942e-01 -1.164034e-01 -5.331337e-02 -7.020554e-02 -1.136700e-01 -2.569435e-01 -4.925707e-02 -1.721562e-01 5.807174e-02 -1.005899e-02 2.700471e-03
<VARIANCE> 39
 5.698563e+01 3.482569e+01 3.731546e+01 4.730165e+01 4.454412e+01 5.667823e+01 4.401111e+01 1.702432e+01 3.808516e+01 2.239712e+01 1.720990e+01 1.056223e+01 4.175959e-02 2.731457e+00 1.461019e+00 3.130606e+00 2.499042e+00 4.660776e+00 1.976775e+00 3.553538e+00 2.346046e+00 2.853549e+00 1.617687e+00 1.014126e+00 1.002789e+00 1.000000e-02 5.088070e-01 1.851566e-01 3.969207e-01 4.924977e-01 6.751645e-01 2.906213e-01 7.145229e-01 3.093599e-01 4.100204e-01 1.798152e-01 1.471480e-01 1.875179e-01 1.000000e-02
<GCONST> 9.676340e+01
<STATE> 3
<MEAN> 39
 2.260018e+00 -3.910627e+00 1.712203e+00 -1.713908e+00 1.961303e+00 -1.053099e+00 7.917661e-02 -6.895850e+00 -6.306190e+00 -8.536882e+00 4.790412e+00 -2.140319e-01 9.333279e-01 -6.756244e-01 6.814638e-01 -4.749910e-01 -6.724384e-01 -2.691512e-01 2.399259e-02 7.459052e-01 3.071895e-01 -2.718766e-01 3.198458e-02 -4.037196e-02 1.170126e-01 -2.786820e-02 -3.860444e-01 -2.363977e-02 1.375676e-01 5.664119e-02 5.672063e-02 -1.455289e-05 -2.150346e-02 2.968014e-01 2.194197e-01 2.859153e-01 -1.776169e-01 -6.114583e-02 -1.516858e-02
<VARIANCE> 39
 1.102647e+01 2.236701e+01 3.471622e+01 3.039174e+01 2.255277e+01 4.845967e+01 3.240008e+01 2.499586e+01 6.455135e+01 3.353795e+01 1.487503e+01 1.196604e+01 1.000000e-02 1.824280e+00 8.592821e-01 9.223136e-01 2.017242e+00 9.724610e-01 1.621909e+00 2.110691e+00 2.720024e+00 4.091290e+00 2.717082e+00 2.122276e+00 1.140281e+00 1.000000e-02 1.687851e-01 2.258892e-01 1.351473e-01 3.936913e-01 2.220932e-01 3.322009e-01 5.333273e-01 4.675501e-01 5.184879e-01 3.138976e-01 3.113330e-01 2.203673e-01 1.000000e-02
<GCONST> 8.876139e+01
<STATE> 4
<MEAN> 39
 -9.223385e+00 -2.222254e+00 -6.956399e-01 -2.944559e+00 7.983565e-01 -1.942278e+00 1.564927e+00 -2.340415e+00 -5.292867e-01 -2.693370e+00 1.186033e-01 -1.305104e+00 4.705935e-01 -3.968838e-01 -7.866060e-02 -1.117693e-01 -3.784750e-01 -7.736753e-02 -2.024138e-01 -9.602004e-02 1.621395e-01 2.184559e-01 9.971120e-02 -3.423890e-01 -1.582051e-01 -1.169351e-02 2.252735e-01 3.372042e-02 -2.838478e-02 -1.451875e-01 2.715934e-02 6.557517e-03 1.200419e-01 -7.178307e-03 -1.561414e-01 -5.684400e-02 1.432541e-01 1.701535e-02 1.103212e-02
<VARIANCE> 39
 5.219968e+00 3.799152e+00 6.344882e+00 6.735881e+00 9.807427e+00 1.163939e+01 8.418303e+00 1.013056e+01 1.474787e+01 1.254215e+01 8.786258e+00 7.870580e+00 1.384771e-02 8.936749e-01 7.264882e-01 5.154341e-01 1.326721e+00 1.627181e+00 9.503741e-01 1.390938e+00 1.383070e+00 1.973153e+00 1.446252e+00 1.391123e+00 1.195326e+00 1.000000e-02 1.498830e-01 1.022970e-01 1.221082e-01 1.996569e-01 2.593552e-01 1.704017e-01 2.653696e-01 2.244906e-01 3.755375e-01 2.465088e-01 2.217596e-01 2.269954e-01 1.000000e-02
<GCONST> 6.620477e+01
<STATE> 5
<MEAN> 39
 -1.879833e+00 -7.913240e+00 4.578039e+00 -2.062512e+01 1.428800e+00 3.942281e+00 1.849495e+00 1.526805e-01 -7.732869e+00 -3.162627e+00 -6.212484e-01 3.808781e-01 4.451482e-01 2.696557e-02 -1.752627e-01 -3.797036e-01 -5.565366e-01 -2.930621e-01 4.002934e-01 4.339439e-01 2.576440e-01 1.508273e-01 3.450965e-01 3.103756e-01 1.580442e-01 -5.784203e-03 1.282524e-02 -7.905525e-03 4.590466e-03 1.255075e-01 -8.278362e-02 1.137877e-01 2.991625e-02 -5.411925e-02 1.190604e-02 -5.095783e-02 4.378631e-03 -2.459130e-02 -3.166621e-03
<VARIANCE> 39
 3.159796e+01 5.603352e+01 6.073891e+01 1.581424e+02 5.113474e+01 6.944213e+01 2.845430e+01 2.041748e+01 5.477406e+01 2.187092e+01 3.123881e+01 2.147519e+01 3.527442e-02 8.244643e-01 2.412216e+00 1.583744e+00 6.101007e+00 1.947994e+00 2.123840e+00 1.715497e+00 1.651584e+00 3.166915e+00 2.188196e+00 2.087929e+00 1.488902e+00 1.000000e-02 1.413547e-01 4.762990e-01 2.274388e-01 8.637386e-01 3.561226e-01 3.366131e-01 2.901582e-01 3.112402e-01 5.427895e-01 4.438946e-01 4.292809e-01 3.315061e-01 1.000000e-02
<GCONST> 1.001709e+02
<STATE> 6
<MEAN> 39
 -8.559241e+00 -2.788913e+00 -2.591384e+00 -9.330977e+00 -1.906337e+00 5.743655e-01 5.722103e+00 2.152606e-01 -5.227985e-01 -4.183366e+00 3.120649e-02 -1.126279e+00 5.493144e-01 -6.260466e-02 5.822144e-02 2.475802e-02 2.680331e-01 -1.174786e-01 -1.218870e-01 -1.325567e-01 -8.056267e-02 2.001407e-01 9.081490e-02 -8.772472e-03 -2.230908e-02 -1.472183e-02 -2.651506e-02 2.151359e-02 2.141762e-02 5.879148e-02 2.167418e-02 -1.083772e-01 -5.463459e-02 -6.348096e-03 4.891102e-02 4.144412e-02 7.914887e-03 -7.715803e-03 -1.412976e-03
<VARIANCE> 39
 4.714052e+00 4.331402e+00 9.647526e+00 1.919681e+01 1.484630e+01 1.862726e+01 2.216174e+01 1.606517e+01 1.825695e+01 1.324422e+01 1.423419e+01 7.798614e+00 1.678286e-02 2.480819e-01 3.365604e-01 4.495288e-01 1.141472e+00 9.733819e-01 1.677030e+00 1.622667e+00 1.241705e+00 1.195003e+00 1.393497e+00 1.547606e+00 6.079465e-01 1.000000e-02 4.305837e-02 5.538830e-02 8.714467e-02 1.849136e-01 1.655167e-01 2.777749e-01 2.514885e-01 2.262652e-01 1.731304e-01 2.577211e-01 3.002104e-01 1.082178e-01 1.000000e-02
<GCONST> 6.415273e+01
<TRANSP> 7
 0.000000e+00 1.000000e+00 0.000000e+00 0.000000e+00 0.000000e+00 0.000000e+00 0.000000e+00
 0.000000e+00 8.863636e-01 1.136364e-01 0.000000e+00 0.000000e+00 0.000000e+00 0.000000e+00
 0.000000e+00 0.000000e+00 8.901099e-01 1.098901e-01 0.000000e+00 0.000000e+00 0.000000e+00
 0.000000e+00 0.000000e+00 0.000000e+00 8.936170e-01 9.574470e-02 0.000000e+00 1.063830e-02
 0.000000e+00 0.000000e+00 0.000000e+00 0.000000e+00 8.831169e-01 1.168831e-01 0.000000e+00
 0.000000e+00 0.000000e+00 0.000000e+00 0.000000e+00 0.000000e+00 9.126214e-01 8.737865e-02
 0.000000e+00 0.000000e+00 0.000000e+00 0.000000e+00 0.000000e+00 0.000000e+00 0.000000e+00
<ENDHMM>
