~o
<STREAMINFO> 1 39
<VECSIZE> 39<NULLD><MFCC_E_D_A><DIAGC>
~h "sept"
<BEGINHMM>
<NUMSTATES> 5
<STATE> 2
<MEAN> 39
 -1.573168e+01 3.359696e-01 1.386290e+00 -7.081788e+00 7.202310e+00 -6.641724e+00 2.708356e+00 -2.291693e+00 7.349201e-01 9.219116e-02 2.237777e-01 -2.832573e-01 5.679198e-01 6.856871e-02 -7.073086e-02 1.538011e-01 1.430660e-01 3.942978e-02 -5.066364e-02 7.267029e-03 -7.001343e-03 6.113637e-02 -3.046171e-02 -1.324109e-02 -2.031615e-01 1.753901e-02 1.993221e-01 -9.088249e-02 4.777407e-02 1.392537e-01 2.495453e-02 1.349503e-01 1.261739e-02 -4.211047e-02 -6.434666e-02 2.564818e-03 5.426664e-02 -6.624241e-02 1.671400e-03
<VARIANCE> 39
 1.577585e+01 1.465582e+01 9.067532e+01 8.650933e+01 1.132018e+02 1.911034e+01 1.705585e+01 3.418388e+01 1.929120e+01 1.182002e+01 2.413410e+01 1.192785e+01 2.057926e-02 1.438707e+00 1.091123e+00 1.514570e+00 1.422738e+00 1.893578e+00 1.924355e+00 1.653606e+00 1.248131e+00 1.421416e+00 1.049753e+00 1.593019e+00 1.074867e+00 1.000000e-02 1.602157e-01 1.524728e-01 2.473035e-01 2.403605e-01 3.124608e-01 3.253129e-01 2.993518e-01 1.996153e-01 1.973165e-01 2.130734e-01 3.063580e-01 1.922318e-01 1.000000e-02
<GCONST> 8.466857e+01
<STATE> 3
<MEAN> 39
 -1.097471e+00 -6.454581e+00 8.956475e+00 -1.152166e+00 9.356050e+00 2.831365e+00 -8.930259e-01 -3.258715e+00 -3.844751e+00 1.821887e-01 3.664633e+00 -3.251647e+00 6.481109e-01 2.592309e-01 -4.279014e-02 -4.728612e-02 1.516530e-01 -1.022423e-01 3.090993e-01 -1.927466e-01 -2.704403e-02 -9.744091e-03 -5.445737e-02 1.188104e-01 4.907575e-02 -8.279416e-03 -2.608863e-01 5.180458e-02 -1.343388e-01 -1.863622e-01 -1.094614e-01 -1.267756e-01 1.935527e-02 5.460683e-02 6.538205e-02 1.671490e-02 -1.157639e-01 1.109987e-01 -8.084672e-03
<VARIANCE> 39
 5.071102e+01 4.206307e+01 6.263206e+01 1.185511e+02 3.418207e+01 8.668925e+01 3.467765e+01 3.872237e+01 3.611613e+01 2.710585e+01 5.552444e+01 3.794180e+01 1.426042e-01 4.963376e+00 1.585896e+00 2.974951e+00 5.046042e+00 2.184061e+00 3.703761e+00 2.386746e+00 2.393059e+00 2.295571e+00 2.030929e+00 3.433124e+00 1.766702e+00 1.000000e-02 3.914411e-01 1.925945e-01 3.407086e-01 6.175011e-01 3.403634e-01 4.762398e-01 3.879445e-01 3.211576e-01 3.766337e-01 3.503989e-01 5.157531e-01 2.967382e-01 1.000000e-02
<GCONST> 1.068318e+02
<STATE> 4
<MEAN> 39
 -9.714537e+00 -2.014732e+00 1.814441e-01 -2.256258e+00 2.450785e+00 -3.049945e+00 1.463418e+00 -2.166232e+00 3.771420e-01 -1.331630e+00 9.927397e-01 -1.339249e+00 4.673233e-01 -6.434355e-02 -5.427893e-02 -5.845958e-02 -1.027281e-01 -9.925260e-02 -5.290940e-02 -1.215368e-02 -3.354282e-02 2.441220e-02 -1.428635e-02 -9.019630e-02 5.100983e-02 -5.316515e-03 6.795916e-02 5.360399e-03 4.255752e-02 6.444750e-02 4.953990e-02 3.220920e-02 -1.665529e-02 -2.692802e-02 -3.533826e-03 1.979816e-03 3.603035e-02 -3.807111e-02 3.038191e-03
<VARIANCE> 39
 5.822690e+00 6.535996e+00 9.315765e+00 1.145414e+01 1.079297e+01 1.391350e+01 1.420117e+01 1.758766e+01 1.184455e+01 1.095330e+01 1.031027e+01 8.712653e+00 2.105283e-02 5.502555e-01 4.012748e-01 7.113218e-01 1.041345e+00 9.935759e-01 1.017699e+00 1.217950e+00 1.646763e+00 1.456672e+00 1.101765e+00 1.274512e+00 9.373908e-01 1.000000e-02 1.050882e-01 8.424607e-02 1.391023e-01 1.962436e-01 1.874039e-01 1.820977e-01 2.375647e-01 3.330854e-01 3.001509e-01 2.136818e-01 2.536237e-01 1.763785e-01 1.000000e-02
<GCONST> 6.626241e+01
<TRANSP> 5
 0.000000e+00 1.000000e+00 0.000000e+00 0.000000e+00 0.000000e+00
 0.000000e+00 9.367089e-01 6.329113e-02 0.000000e+00 0.000000e+00
 0.000000e+00 0.000000e+00 9.441341e-01 5.586592e-02 0.000000e+00
 0.000000e+00 0.000000e+00 0.000000e+00 9.619772e-01 3.802282e-02
 0.000000e+00 0.000000e+00 0.000000e+00 0.000000e+00 0.000000e+00
<ENDHMM>
