~o
<STREAMINFO> 1 39
<VECSIZE> 39<NULLD><MFCC_E_D_A><DIAGC>
~h "six"
<BEGINHMM>
<NUMSTATES> 5
<STATE> 2
<MEAN> 39
 -1.598537e+01 7.538403e-01 -2.344116e-01 -3.671221e+00 4.447835e+00 -5.516817e+00 4.058531e+00 -3.215272e+00 8.893018e-01 -2.258592e-01 1.415131e+00 -1.737890e+00 7.393382e-01 -6.726883e-02 -2.426042e-02 2.046356e-01 4.376419e-02 1.263269e-01 6.966196e-03 1.209663e-01 3.617715e-02 -7.827745e-04 1.084544e-01 -4.869182e-02 -1.374022e-01 1.164652e-02 4.052774e-02 -3.460075e-02 4.230038e-02 3.515042e-02 -2.608459e-02 2.657559e-02 -1.833380e-02 3.510452e-02 6.877519e-02 4.183527e-02 -1.166466e-02 1.035787e-02 2.106306e-04
<VARIANCE> 39
 1.511497e+01 1.059658e+01 1.985034e+01 2.038836e+01 1.969922e+01 1.560855e+01 1.446175e+01 1.637015e+01 1.312208e+01 1.852469e+01 9.832275e+00 1.180849e+01 1.778948e-02 6.513127e-01 6.156260e-01 1.173955e+00 1.408077e+00 1.268161e+00 1.356245e+00 1.268135e+00 1.167029e+00 1.509041e+00 1.411577e+00 9.141085e-01 9.829930e-01 1.000000e-02 7.619736e-02 8.611044e-02 1.509240e-01 2.726446e-01 2.296322e-01 2.290641e-01 2.593223e-01 2.212956e-01 2.784814e-01 2.521510e-01 1.550514e-01 2.042891e-01 1.000000e-02
<GCONST> 7.200419e+01
<STATE> 3
<MEAN> 39
 -1.509354e+01 -8.140574e+00 1.798243e+01 -8.019124e+00 1.495618e+01 -4.999933e+00 -1.033965e+00 4.606241e+00 2.424983e+00 2.720453e+00 -3.082827e+00 -5.613632e-01 6.936014e-01 8.211272e-02 5.790493e-02 -1.783447e-03 8.835236e-02 -1.264843e-01 7.262667e-02 -1.523590e-01 -3.887279e-02 -2.690103e-02 -1.814157e-01 7.484442e-02 8.874949e-03 -2.618659e-03 -6.137942e-02 7.025977e-02 -1.346867e-01 -5.802500e-02 -6.153777e-02 -8.817044e-02 2.588361e-02 -3.789089e-02 -1.072104e-01 -7.130917e-02 4.309244e-02 -7.921541e-03 -3.000515e-03
<VARIANCE> 39
 4.616988e+01 5.496088e+01 7.588007e+01 2.169515e+02 1.114851e+02 5.554593e+01 6.947522e+01 3.961561e+01 4.915625e+01 1.996637e+01 2.506943e+01 2.187035e+01 5.265298e-02 2.379282e+00 2.436535e+00 2.494468e+00 7.395269e+00 3.364747e+00 3.710620e+00 3.271895e+00 2.160949e+00 3.164787e+00 1.952148e+00 1.754360e+00 1.568941e+00 1.000000e-02 2.881376e-01 3.382699e-01 3.965304e-01 8.214838e-01 4.836257e-01 5.719706e-01 5.373730e-01 4.327561e-01 5.214870e-01 3.195430e-01 3.036352e-01 3.242557e-01 1.000000e-02
<GCONST> 1.086003e+02
<STATE> 4
<MEAN> 39
 -1.559225e+01 4.939617e-01 7.243214e-01 -4.481212e+00 4.903467e+00 -5.511563e+00 2.489591e+00 -1.933350e+00 -2.405484e-01 -1.247807e+00 1.344819e+00 -2.079217e+00 7.331642e-01 6.342513e-02 -2.365992e-02 -1.091166e-01 -3.807631e-02 -8.148754e-02 -3.802437e-02 -3.957066e-02 -6.197302e-03 -9.374093e-02 -4.804580e-02 -2.218429e-02 6.415471e-02 -6.606854e-03 2.858530e-02 -9.915679e-03 3.999158e-02 3.855089e-02 2.114276e-02 2.563101e-02 7.144609e-03 -1.320438e-02 2.422669e-03 2.826710e-02 -1.426894e-02 -3.111426e-03 6.734449e-04
<VARIANCE> 39
 1.558299e+01 6.301879e+00 1.985172e+01 1.576947e+01 1.651791e+01 1.670115e+01 2.083060e+01 2.411726e+01 1.821670e+01 1.364130e+01 1.553461e+01 1.199720e+01 1.907754e-02 3.955349e-01 3.419580e-01 7.949338e-01 9.607051e-01 8.615513e-01 1.076121e+00 1.104571e+00 1.454907e+00 1.300512e+00 1.197688e+00 1.187930e+00 9.982834e-01 1.000000e-02 4.874123e-02 6.401950e-02 1.185049e-01 1.826105e-01 1.622777e-01 1.839558e-01 1.894129e-01 3.014220e-01 2.723212e-01 2.451447e-01 2.103532e-01 1.891735e-01 1.000000e-02
<GCONST> 6.825737e+01
<TRANSP> 5
 0.000000e+00 1.000000e+00 0.000000e+00 0.000000e+00 0.000000e+00
 0.000000e+00 9.502488e-01 4.975124e-02 0.000000e+00 0.000000e+00
 0.000000e+00 0.000000e+00 9.421965e-01 5.780346e-02 0.000000e+00
 0.000000e+00 0.000000e+00 0.000000e+00 9.647887e-01 3.521127e-02
 0.000000e+00 0.000000e+00 0.000000e+00 0.000000e+00 0.000000e+00
<ENDHMM>
