~o
<STREAMINFO> 1 39
<VECSIZE> 39<NULLD><MFCC_E_D_A><DIAGC>
~h "trois"
<BEGINHMM>
<NUMSTATES> 6
<STATE> 2
<MEAN> 39
 -8.051009e+00 -2.019948e+00 3.081817e+00 -6.897495e+00 -1.267381e+00 -1.094350e+00 8.008213e-01 -3.867842e+00 5.728990e-01 -1.501877e+00 -1.398926e+00 -8.921702e-01 5.289153e-01 2.559696e-01 6.241005e-01 3.602234e-01 1.242581e-01 -3.371013e-01 -2.713453e-01 -6.336153e-02 -2.807452e-01 8.149774e-02 3.932703e-02 5.334561e-02 -9.350333e-04 7.677455e-03 1.350562e-01 1.008368e-01 1.244044e-01 1.253175e-01 5.582463e-03 -8.103199e-02 -5.089743e-03 2.748366e-02 5.222287e-02 -5.575546e-02 1.635372e-02 6.791773e-02 4.318373e-03
<VARIANCE> 39
 1.117897e+01 2.864795e+01 2.544726e+01 5.259115e+01 4.027278e+01 3.555935e+01 1.237274e+01 2.274011e+01 2.232234e+01 1.901892e+01 1.603382e+01 1.031708e+01 3.163579e-02 8.159642e-01 2.255760e+00 1.607853e+00 2.474933e+00 2.759798e+00 2.506896e+00 1.060471e+00 2.124117e+00 2.257355e+00 1.319098e+00 1.078464e+00 1.297305e+00 1.000000e-02 1.973455e-01 3.819495e-01 3.471280e-01 4.307439e-01 5.170572e-01 4.657736e-01 2.203009e-01 4.058627e-01 5.096872e-01 2.537115e-01 2.004194e-01 2.776698e-01 1.000000e-02
<GCONST> 8.895426e+01
<STATE> 3
<MEAN> 39
 3.123448e+00 4.232955e+00 1.536410e+01 -4.106588e+00 -5.578123e+00 -5.090897e+00 -4.412404e+00 -4.905962e+00 3.267929e+00 -1.927286e+00 -3.006911e+00 1.801831e+00 7.566770e-01 1.498779e+00 5.622385e-01 9.400932e-01 7.871474e-01 -1.201153e+00 -4.226918e-01 -1.211696e-01 -3.531399e-01 4.239365e-01 -2.256733e-01 3.357088e-01 4.241768e-01 5.557408e-02 -1.897639e-01 -3.657657e-01 -2.749937e-01 -3.656135e-01 -1.127380e-01 7.511768e-02 1.690397e-01 4.223058e-02 -7.672660e-02 6.003519e-02 1.890804e-02 -7.370836e-02 -1.034847e-02
<VARIANCE> 39
 2.700558e+01 5.553949e+01 7.055807e+01 7.513494e+01 8.212211e+01 3.369131e+01 4.525269e+01 2.242320e+01 1.527574e+01 1.049442e+01 2.479815e+01 2.203780e+01 4.648917e-02 2.756428e+00 4.338384e+00 3.789032e+00 3.878547e+00 4.304868e+00 2.554153e+00 4.255607e+00 2.678802e+00 1.787123e+00 1.847353e+00 1.299921e+00 1.490981e+00 1.000000e-02 3.924969e-01 5.018780e-01 3.690055e-01 4.432331e-01 7.551276e-01 3.678822e-01 7.403957e-01 4.033761e-01 3.238351e-01 2.984619e-01 1.941980e-01 2.553996e-01 1.000000e-02
<GCONST> 1.021068e+02
<STATE> 4
<MEAN> 39
 4.163944e+00 5.482008e+00 1.070902e+01 -3.923428e+00 -1.314811e+01 -8.630799e+00 2.222625e+00 -6.050294e+00 2.760072e+00 -2.667194e+00 -9.411079e-01 -1.580816e-01 9.277777e-01 -1.667087e-01 -2.633202e-01 -8.754850e-01 -9.901934e-01 -1.683901e-01 -1.598770e-01 1.140963e-01 4.389687e-01 -1.068190e-01 -2.467995e-01 -2.986497e-01 -4.018056e-01 -1.280620e-02 -1.909001e-01 -4.766897e-02 -1.323467e-01 -3.993315e-03 1.816026e-01 1.346233e-01 -6.414428e-02 4.890045e-02 -5.146740e-02 4.546736e-03 -2.199891e-02 2.717879e-02 -8.017002e-03
<VARIANCE> 39
 2.254665e+01 2.002355e+01 4.015114e+01 3.655936e+01 1.003533e+02 3.078554e+01 2.570960e+01 2.595670e+01 1.654932e+01 2.675019e+01 1.638537e+01 3.050677e+01 1.000000e-02 5.104277e-01 9.206659e-01 7.960315e-01 6.690822e-01 1.671709e+00 1.089911e+00 1.179263e+00 8.591336e-01 7.799985e-01 1.629446e+00 7.668411e-01 8.140524e-01 1.000000e-02 6.704906e-02 1.662122e-01 1.061043e-01 1.672708e-01 1.803580e-01 1.528102e-01 2.613907e-01 1.621840e-01 1.201511e-01 2.966684e-01 1.202673e-01 1.508168e-01 1.000000e-02
<GCONST> 7.448418e+01
<STATE> 5
<MEAN> 39
 -4.978235e+00 -3.569489e-01 1.819876e-01 -7.011874e+00 -5.215569e+00 -4.342772e+00 9.353796e-01 -1.516597e+00 1.800020e+00 -2.964674e+00 -1.466311e+00 -1.850002e+00 5.649947e-01 -8.400514e-01 -5.121569e-01 -3.692202e-01 5.308167e-01 8.425815e-01 4.556623e-01 -1.913298e-01 1.336334e-01 -3.606437e-02 2.222072e-01 2.567801e-01 2.599424e-01 -3.874192e-02 8.270303e-02 5.163815e-02 1.088128e-01 1.157521e-01 -6.721490e-02 -8.300173e-02 4.502334e-02 -2.346866e-02 3.736444e-02 -4.186067e-02 6.150502e-03 4.033146e-02 3.035685e-03
<VARIANCE> 39
 2.891080e+01 1.666356e+01 8.367837e+00 2.077432e+01 3.571623e+01 1.813055e+01 1.770550e+01 1.519085e+01 1.161093e+01 1.375539e+01 1.486709e+01 1.418850e+01 2.001648e-02 7.666512e-01 9.753590e-01 5.640389e-01 1.051711e+00 1.193676e+00 1.562123e+00 1.262408e+00 1.631996e+00 1.073492e+00 1.414795e+00 1.263613e+00 1.278301e+00 1.000000e-02 7.502001e-02 1.245794e-01 1.149849e-01 1.761067e-01 1.433917e-01 2.298924e-01 2.095928e-01 3.463911e-01 1.736080e-01 2.733846e-01 2.031993e-01 1.890890e-01 1.000000e-02
<GCONST> 7.289992e+01
<TRANSP> 6
 0.000000e+00 1.000000e+00 0.000000e+00 0.000000e+00 0.000000e+00 0.000000e+00
 0.000000e+00 9.310345e-01 6.896552e-02 0.000000e+00 0.000000e+00 0.000000e+00
 0.000000e+00 0.000000e+00 8.333333e-01 1.666667e-01 0.000000e+00 0.000000e+00
 0.000000e+00 0.000000e+00 0.000000e+00 9.099099e-01 9.009008e-02 0.000000e+00
 0.000000e+00 0.000000e+00 0.000000e+00 0.000000e+00 8.888889e-01 1.111111e-01
 0.000000e+00 0.000000e+00 0.000000e+00 0.000000e+00 0.000000e+00 0.000000e+00
<ENDHMM>
