~o
<STREAMINFO> 1 39
<VECSIZE> 39<NULLD><MFCC_E_D_A><DIAGC>
~h "un"
<BEGINHMM>
<NUMSTATES> 4
<STATE> 2
<MEAN> 39
 2.166630e+00 -3.194559e+00 -4.724328e-01 -7.422188e+00 -1.645383e+00 2.840586e+00 2.555765e+00 -7.275118e+00 8.616909e-01 -5.995890e+00 -1.889858e+00 2.123030e+00 8.848785e-01 3.788833e-01 1.252441e-01 -5.798735e-02 -1.868498e-01 -3.392512e-02 7.722256e-02 -2.812582e-02 3.968611e-01 2.538371e-01 1.446472e-02 -1.875409e-01 -1.980067e-01 1.553440e-02 -1.151961e-01 3.210183e-02 -8.290464e-05 5.511666e-02 3.793089e-02 -9.166186e-02 -9.040007e-03 1.158499e-01 6.138640e-03 6.118741e-02 2.641599e-02 -4.243000e-02 -5.776288e-03
<VARIANCE> 39
 3.502355e+01 2.935920e+01 2.932653e+01 1.533271e+01 4.005984e+01 3.980185e+01 3.731104e+01 2.713604e+01 4.001236e+01 1.727047e+01 5.181642e+01 1.968170e+01 2.941441e-02 1.534526e+00 8.682312e-01 9.414222e-01 1.113475e+00 1.227170e+00 1.342473e+00 1.025829e+00 1.736104e+00 1.082296e+00 1.140543e+00 1.329708e+00 1.064921e+00 1.000000e-02 1.831511e-01 1.076559e-01 1.515366e-01 1.848482e-01 1.877764e-01 1.934301e-01 1.421163e-01 2.507950e-01 1.635717e-01 2.011661e-01 1.994005e-01 1.461763e-01 1.000000e-02
<GCONST> 8.061314e+01
<STATE> 3
<MEAN> 39
 -1.658309e+00 -2.388916e+00 -3.629100e-01 -3.734516e+00 -6.769803e-01 -1.920015e+00 1.953598e+00 4.299412e-01 1.912230e+00 -1.905447e+00 2.121716e-01 -1.260539e+00 6.653559e-01 -7.018543e-01 -7.472100e-02 -7.162323e-02 5.407953e-01 1.588537e-01 -2.799001e-01 2.592625e-01 1.211884e-01 -2.101878e-01 2.876684e-01 2.856136e-01 5.996125e-02 -3.868084e-02 6.269021e-02 -4.285658e-02 1.026575e-03 -4.015419e-02 1.771190e-03 5.431148e-02 -3.356653e-02 -1.292096e-01 -9.358800e-03 -7.443696e-02 -2.346089e-02 1.586230e-01 1.391781e-03
<VARIANCE> 39
 6.113224e+01 5.051440e+01 9.575014e+00 1.719536e+01 2.402752e+01 4.110050e+01 4.531133e+01 2.526260e+01 2.589404e+01 1.257128e+01 2.238371e+01 8.226948e+00 3.176484e-02 1.662162e+00 1.804370e+00 9.364732e-01 5.782781e-01 1.186631e+00 2.179904e+00 2.266722e+00 2.146873e+00 1.844893e+00 1.272581e+00 1.281769e+00 1.075556e+00 1.000000e-02 1.703284e-01 1.814102e-01 1.544847e-01 1.071364e-01 1.886771e-01 3.100200e-01 3.475823e-01 2.770253e-01 2.588450e-01 2.181030e-01 1.710093e-01 1.654100e-01 1.000000e-02
<GCONST> 8.209088e+01
<TRANSP> 4
 0.000000e+00 1.000000e+00 0.000000e+00 0.000000e+00
 0.000000e+00 9.358974e-01 6.410257e-02 0.000000e+00
 0.000000e+00 0.000000e+00 8.969072e-01 1.030928e-01
 0.000000e+00 0.000000e+00 0.000000e+00 0.000000e+00
<ENDHMM>
