~o
<STREAMINFO> 1 39
<VECSIZE> 39<NULLD><MFCC_E_D_A><DIAGC>
~h "zero"
<BEGINHMM>
<NUMSTATES> 6
<STATE> 2
<MEAN> 39
 -1.022934e+01 1.133081e-01 1.919541e+00 -1.151395e+00 8.390160e+00 -2.224144e+00 4.083720e+00 -1.444904e+00 2.180715e+00 1.607229e+00 3.057906e+00 9.671558e-01 6.908382e-01 1.297661e-01 -8.656365e-02 2.993089e-01 3.106277e-01 6.062788e-01 -8.729173e-03 7.688550e-02 8.637384e-02 1.170970e-01 1.295382e-01 2.512065e-01 9.442361e-02 1.918527e-02 1.025128e-01 -1.339423e-01 -2.227298e-02 6.496464e-02 -4.950112e-02 8.917414e-02 -1.068824e-01 -4.765989e-02 -1.338837e-02 -2.900013e-02 4.991910e-02 -5.333591e-03 -1.474593e-04
<VARIANCE> 39
 1.622701e+01 2.249693e+01 4.331096e+01 2.276207e+01 5.326957e+01 2.342610e+01 1.724467e+01 1.584656e+01 1.580665e+01 1.710696e+01 1.887802e+01 1.633404e+01 1.606586e-02 1.606848e+00 1.120098e+00 1.050620e+00 1.414711e+00 2.087906e+00 1.816669e+00 1.717444e+00 1.398744e+00 1.582034e+00 1.180070e+00 1.428396e+00 1.119779e+00 1.000000e-02 1.664829e-01 1.180883e-01 1.249104e-01 2.446570e-01 3.098789e-01 2.928440e-01 2.633870e-01 2.558667e-01 2.929793e-01 2.337196e-01 2.383809e-01 1.807248e-01 1.000000e-02
<GCONST> 8.114762e+01
<STATE> 3
<MEAN> 39
 3.984399e-01 -9.120347e+00 7.725394e+00 5.211451e+00 1.133680e+01 4.073968e+00 4.962547e-01 -9.581661e-01 2.190750e+00 -7.473450e-01 4.525533e+00 3.570546e+00 9.411144e-01 1.081370e+00 -1.485424e-01 -1.507235e-01 -3.355368e-01 -1.479344e+00 7.847273e-01 4.083274e-01 7.735214e-02 -2.500105e-01 -1.098716e+00 -5.910239e-01 1.268727e-01 1.004812e-02 -2.366873e-01 4.126334e-01 1.122074e-02 -4.036666e-01 -3.484676e-01 -2.755481e-01 2.959875e-01 1.809338e-01 7.796161e-02 2.586935e-02 -3.031694e-01 -1.295776e-01 -6.542792e-03
<VARIANCE> 39
 2.115301e+01 2.949267e+01 5.365147e+01 3.644588e+01 8.137366e+01 4.739906e+01 3.680785e+01 3.481205e+01 3.314016e+01 4.199967e+01 2.695159e+01 2.172314e+01 1.000000e-02 6.251412e-01 1.938410e+00 7.725868e-01 3.659646e+00 2.347598e+00 1.907495e+00 4.168020e+00 1.900469e+00 2.543368e+00 1.204166e+00 2.336267e+00 1.032148e+00 1.000000e-02 6.674901e-02 7.800598e-02 1.674964e-01 3.327133e-01 2.797254e-01 3.823729e-01 5.154655e-01 3.829097e-01 5.300895e-01 3.473378e-01 3.463094e-01 2.697095e-01 1.000000e-02
<GCONST> 9.163375e+01
<STATE> 4
<MEAN> 39
 4.642787e+00 6.367986e-01 1.447140e+01 -4.185287e+00 -6.248193e+00 -4.235708e-01 3.017702e+00 8.804529e-01 3.287455e+00 -1.550608e+00 -3.052301e+00 3.114451e+00 8.272467e-01 -4.619876e-01 1.125821e+00 5.003148e-01 -1.755187e-01 -6.693045e-01 -1.283720e+00 -6.571935e-01 -2.495397e-01 4.308274e-01 9.524906e-01 3.358020e-02 -2.217315e-01 -2.306984e-02 -7.955270e-02 -2.096830e-01 -2.744447e-02 3.392662e-01 4.555027e-01 3.130301e-02 -4.132433e-01 -2.474340e-01 -1.378619e-01 3.953470e-02 3.221752e-01 1.637976e-01 -6.957856e-04
<VARIANCE> 39
 1.850563e+01 5.364672e+01 8.406992e+01 4.281947e+01 8.021567e+01 5.684234e+01 4.621087e+01 3.177359e+01 6.187784e+01 4.123401e+01 2.062647e+01 2.703832e+01 1.194562e-02 6.403562e-01 1.874486e+00 1.519813e+00 2.060755e+00 5.328989e+00 2.256491e+00 3.465861e+00 3.025734e+00 2.913119e+00 2.976928e+00 2.527302e+00 1.764813e+00 1.000000e-02 1.015933e-01 1.519648e-01 2.025191e-01 3.492414e-01 6.743189e-01 3.877491e-01 7.275276e-01 5.721207e-01 5.479736e-01 7.831510e-01 4.151781e-01 3.541293e-01 1.000000e-02
<GCONST> 1.010295e+02
<STATE> 5
<MEAN> 39
 -3.523612e+00 3.460428e+00 6.159375e+00 -1.592400e-01 -2.071551e+00 -4.636998e+00 -7.528224e-01 -3.630395e+00 2.124462e+00 7.389774e-01 3.388918e+00 1.866201e+00 7.469280e-01 -2.885733e-01 -2.708865e-01 -3.299102e-01 3.821698e-02 3.163289e-01 1.518023e-01 -8.220294e-03 6.988277e-02 -1.514422e-01 -2.697660e-02 2.648308e-02 -7.372014e-02 -1.375562e-02 1.457866e-02 -3.121403e-02 -3.231838e-02 -1.228774e-03 1.830044e-02 6.309199e-02 9.112648e-02 6.444747e-02 -5.150993e-03 -1.266430e-02 -4.900192e-02 -4.467278e-02 -4.489288e-04
<VARIANCE> 39
 2.314324e+01 2.285884e+01 3.050104e+01 1.023539e+01 2.083615e+01 1.113634e+01 1.125222e+01 1.165824e+01 1.181461e+01 1.010777e+01 1.517813e+01 1.047321e+01 2.821568e-02 5.559860e-01 7.055719e-01 1.064325e+00 8.895687e-01 1.136579e+00 8.579966e-01 1.199593e+00 1.211161e+00 1.087536e+00 1.108558e+00 1.053885e+00 1.093961e+00 1.000000e-02 6.543464e-02 8.387224e-02 1.243145e-01 1.488012e-01 1.882063e-01 1.638459e-01 2.147194e-01 2.120629e-01 1.920868e-01 2.127157e-01 1.705919e-01 1.773820e-01 1.000000e-02
<GCONST> 6.831658e+01
<TRANSP> 6
 0.000000e+00 1.000000e+00 0.000000e+00 0.000000e+00 0.000000e+00 0.000000e+00
 0.000000e+00 9.435028e-01 5.649717e-02 0.000000e+00 0.000000e+00 0.000000e+00
 0.000000e+00 0.000000e+00 8.924731e-01 1.075269e-01 0.000000e+00 0.000000e+00
 0.000000e+00 0.000000e+00 0.000000e+00 8.850574e-01 1.149425e-01 0.000000e+00
 0.000000e+00 0.000000e+00 0.000000e+00 0.000000e+00 9.543379e-01 4.566210e-02
 0.000000e+00 0.000000e+00 0.000000e+00 0.000000e+00 0.000000e+00 0.000000e+00
<ENDHMM>
